u68,0.026151873563731377,0.12172288615930048,0.06705253358223807,0.0845995655701684,0.2558455574278332,0.01908625094043073,0.1919691204714191,0.04916055526582818,0.04637001203650013,0.012363400381289948,0.19941550066773248,0.16704297689854045,0.05678897007757513,0.14046675203582862,0.1626066794178127,0.16670895271079317,0.06586528356322005,0.005919839794233164,0.19670778515522158,0.08481633312945534,0.0817711970694899,0.04275781187466815,0.03136770539069545,0.0625607701600939,0.09588074986730422,-0.0013433757765242145,0.06927594955705482,0.20579333683820383,0.20738900660199422,0.03739196038866884,0.14105803398371353,0.11098638184237668,0.13049706194472943,0.054651932232878286,0.14683384606125277,0.25348882648802507,0.0027230622606673645,0.15776605103288507,0.16149984305714452,0.04009722624684799,0.06673000096361231,0.08359848133753434,0.024087115730900884,0.14856480394431174,0.09435459662863725,0.1616010639195853,0.03066868466798582,0.010240486213841672,0.02755296479832647,0.012081155004980042,0.11600813455604997,0.15718834841589627,0.06017678515918721,0.21242086478346936,0.08422066412692696,0.24994217114567488,0.11465820971080218,0.002692348474484033,0.20132134392851117,0.027004637269609253,0.021830711331662176,0.23341361286256482,0.010139289881791086,0.009795234327569043,
u69,0.12205169205912454,0.08937364695856623,0.16851076659161177,0.04241382754076591,0.22884469192159676,0.19765696996072585,0.04781113645006799,0.035330359652498255,0.2235976372345521,0.0437013899189819,0.08178635034539325,0.10816440940146732,0.23404630554753222,0.09060636653645228,0.008864809956673119,0.02298358530952184,0.03825165946815036,0.14368198059096932,0.07041229605241842,0.013507451306576473,0.19701357379180706,0.051107682351856226,0.036517669991812184,0.01937449818177912,0.02201463477172303,0.14468530161132662,0.2054224485257863,0.0855412163676616,0.06698608598847457,0.12586371769373356,0.20093495804055644,0.12962131605581448,0.23156393449562365,0.10534316829816096,0.009760814154813014,0.04191246047003069,0.17660741834367621,0.12020865516946692,0.00975801950497458,0.20261253678934538,0.1759563060341721,0.0002870368295201774,0.0006520957512486433,0.23431730443704488,0.11158495734722271,0.1373180449581705,0.08827733394104632,0.14927723254144762,0.02287936268529122,0.046513167372104085,0.14741275434990692,0.04510365004551055,0.024330905197383165,0.022690690280666788,0.18698757399713162,-0.002228706047332286,0.16062475032200235,0.022050970127250394,0.1641264409006812,0.1180829123595978,0.0829999811770965,0.05667161712408122,0.014898814144052414,0.17573402284590595,
u84,0.1277236462485065,0.10803543765451287,-0.004218121249835367,-0.007761418136524838,0.0806025943634208,0.17133652955299472,0.1533820491979923,0.0997918273074208,0.09202531886213464,0.07087931797794851,0.03426453724945537,0.10471801278766145,0.033735125757525894,0.16369626925796624,0.10414976112383889,0.16538306611315762,0.06595637335451504,0.13908766344052836,0.1267643104841811,0.07906910236890237,0.07092612127850106,0.02214527205184994,0.21120250209469266,0.1815211055140348,0.14865051390375045,0.05201866432694084,0.008576566919753666,0.021925611020032765,0.06170068016501067,0.07569340154051436,0.053668359114344616,0.1859642918096852,0.1491753367789184,0.10308339942570749,0.14277424432140917,0.1979664721795835,0.03063964006029792,0.055316983423015054,0.08557558815462078,0.14783075794651873,0.04555458136146516,0.0632118761739341,0.08630639112950522,0.1597977345009733,0.03082072054450615,0.08441319872849624,0.1764003050625766,0.16358729277414283,0.20491268457602033,0.17215263212392698,0.07158090601503943,0.04194235021677098,0.04599931188236831,0.10293759423009197,0.09029467027437597,0.15851349809388646,0.16796197007691194,0.06718239192485141,0.18940983391634097,0.1764172814453578,0.126693218940929,0.052803231442828225,0.17833904504332765,0.21027313551720447,
u85,0.05684882810649393,0.12598081465703118,0.03783099598980606,0.13437797831585874,0.07563656791916469,0.10937915033353549,0.18301178331102116,0.10496697902435395,0.21116576977478585,0.16702144853324966,0.1514929643881459,0.06593910026394859,0.02829715861854346,0.0005555904281938612,0.009024201555306692,0.040636298064212525,0.08992949029847105,0.03342103801156577,0.1891002970108728,0.10478030616375271,0.10144843424513818,0.19154982172468474,0.0746750797300949,0.01700693145138086,0.06396690988362537,0.09031923122341684,0.07079209114905657,0.09761587933909255,0.13421852971572917,0.16989310635059787,0.018455495841794567,0.17505480547385172,0.10515307625512996,0.21835896517944198,0.09055408911241453,0.19288604847656507,0.03162751483358599,0.182327226182514,0.02458303483521155,0.04003730799655391,0.11915792512752185,0.14057540494202053,0.08758524862142099,0.020802208877581975,0.009898327399311097,0.0009701050462278352,0.18909795256177436,0.12846249558307568,0.135860770870202,0.10527794591905142,0.1995974509977736,0.04873912939936491,0.08039893867547697,0.12587131134362178,0.06062585705744352,0.12891496336030786,0.13011473298998405,0.04911497995221036,0.08891355075749235,0.20611535232443348,0.13517767413465107,0.1970074603998939,0.054369151165460254,0.06954633190262662,
u83,0.09853958446110957,0.08585154901394358,-0.009368201102447944,-0.009132261849118513,0.14953333040161748,0.02704455579622624,0.1643901105515558,0.17668042797109992,0.18818277018123597,0.137858977888654,0.017461232915286982,0.0004155269686867273,0.09595939151233178,0.027424835334074044,0.12033600378015613,0.01490418138862032,0.05153233029162522,0.1512495601418939,0.13786362957778414,0.03800136835850905,0.12624102066574347,0.1568440587569034,0.20558947030364885,0.1434744079516416,0.08146638483406625,0.033257744731550354,0.1836792005923389,0.1653301173679269,0.16943164534667404,0.06920547066468011,0.14363472014247528,0.14281067575065126,0.017763033785270485,0.0460069081109454,0.12066546002627387,0.1299379355486658,0.08469822259494718,0.08831469381121823,0.1363907604721026,0.0025796275408776536,0.06482782374090142,0.03400355369282543,0.1442881900741553,0.09513639158516417,0.002143304922406116,0.046699745486535285,0.2037711302262383,0.20522760181242572,0.07718068139622923,0.17142546645854267,0.1723495610250353,0.12803576609781733,0.044145963833556685,0.05232717444771598,0.14119239110355383,0.07263069055300024,0.12249081958230316,0.07654646063941385,0.1378605059550564,0.01851743590404249,0.003360222403395448,0.19040627917260614,0.030618622927581166,0.16043092622475025,
u76,0.14994385996058315,0.2074092737218077,0.0566651316704904,0.12416162276934291,0.02302615234491205,0.19446865204940506,0.10002651999630659,0.18103292637826351,0.15124699868598132,0.011468335842070543,0.06598181573495784,0.13636840585204565,0.07475112718846567,0.16287399625128066,0.17245977879793675,0.15563490065451058,0.14136566167461606,0.10052263933900592,0.09950754127554765,0.14655578619581233,0.08568926325318456,0.10199871348011075,0.06275499802143811,0.018985357960221785,0.033600843147942996,0.07646279741078657,0.0484026421156655,0.017539897109162456,0.14310139555698373,0.07651724590075112,0.19994870492021172,-0.005369284674709764,0.07713424858297996,0.11398402810867464,-0.006017333978197024,0.07344899976728164,0.18080775913709193,0.09453062375663329,0.04032017519712864,0.15456303981600605,0.14810521090392065,0.01904970761184181,0.05416996077792326,-0.008880481311524597,0.09899045419409933,0.1468046566895245,0.18885988150047192,0.05575223422449926,0.11516551114570335,0.01597554046332585,0.12404537235813377,0.16983383754303727,0.20741023877648562,0.019358577128189447,0.02422031588136667,0.09524441483116108,0.05779701925602714,0.13811245372221229,0.11389257423349508,0.04800773293771131,0.003745872526246734,0.07828363443841425,0.18241950505091165,0.18884832540872157,
u71,0.0279462979979346,0.09773487190845295,0.08406133788076124,-0.024431629800892515,0.08903448619012655,0.15075847781433108,-0.01211174847288747,0.045782779081360636,0.16842300826367973,0.023224244858246708,0.1780753929889576,0.14203591259777626,0.008002492476409733,0.07376656000547735,0.1600758205451107,0.08959303182321626,0.07339000112721097,-0.010033718516885393,0.026128768389323105,0.048294223204586546,0.17189059579616156,0.05661055460771591,0.01954277273990093,0.03433949996976025,0.069661242213917,0.01406852324174829,0.16928479804460375,0.04897612631925007,0.1588847963729466,0.11989713950558868,0.16155192006293603,0.10694335409228796,-0.02041404925450879,0.13312097450822968,0.15176897795537392,0.03863877341614424,0.01235374603305135,0.16847382514367032,0.07540744067741675,0.10079038413882474,0.09359737989594706,0.1293183838613106,0.09390497936842697,0.016448833176531782,0.10680357413274351,0.12239651030884181,0.10402482996287754,0.0029633888114725874,0.02617983606520554,0.1311062107158649,0.051630868630850785,0.14623473169752893,0.1510337195455978,0.04669501733856195,0.0203475291224785,0.12189311628729257,0.1431130711646136,0.1441189600476806,0.05443413783152587,0.07771476350594847,0.14334677422976408,0.18099553036320043,0.09835542923586392,0.024551362054979948,
u60,0.03832176903045925,0.18397451782339477,0.14641929395716988,0.1874291791990586,0.13853779922217474,0.20236513784007934,0.05035417466833699,0.07722096614911733,-0.0046400284495931345,0.010874962805787163,0.0877937677579297,0.09413464250120748,0.0405882669617488,0.05941177439285251,0.20716683953097115,0.04205775941239901,0.07624468542388674,0.13024019728002503,0.0007221034775797653,0.18280897673227417,0.19963189273687995,0.12236630109572497,0.1062043436004818,0.02854619205583687,0.18222419532270898,0.07606766048677055,0.1062784583665686,0.1164990661360678,0.09244517694790119,0.07353972160939949,0.029988248134888058,0.18212572244814174,0.15935233559768344,0.20335147125348632,-0.0029445599225121372,0.04168570431587359,0.12028090802867951,0.1516231373820729,0.13275217551869273,0.09646419605335758,0.1360425731002604,0.02313100136588457,0.1866720737630211,0.12056447366808892,0.07431246634805298,0.049846429240670495,-0.0005745784173010059,0.0667191604945281,0.09787143701658173,0.19528646584622594,0.16033916537680834,0.08380495826492365,0.1388207147457164,0.11909703509797566,0.19222718353716148,0.19088694027482134,0.15051420738834037,0.02129276251480335,0.07738331481007218,0.04280208980190482,0.03811041774782761,0.03454196085877035,0.19485901591510407,0.06872782394562642,
u61,0.11211895821245073,0.022032270891379713,0.0850144075239813,0.030502828097451286,-0.022980894984866086,0.13632625606604082,0.0015265920701741948,0.1651493075794861,0.11800330411818707,0.14647305789717044,0.07573168894368193,0.044307378074649274,0.16847545470458394,0.051286725668008744,0.15206746147042627,0.0012585405171529184,0.14783646677347556,-0.0014605634549665456,0.16310314101628545,0.143389556677249,0.18355014672410283,0.18197150879821947,0.12830892446491812,0.18172047396782373,0.11397061228447557,0.008499746950431921,0.01954302671208238,-0.00015722061388803228,0.034586002458381795,0.16329200198828597,0.14926856412579434,0.08455056681963193,0.06993413037708601,0.18405879713807016,0.15642961266059324,0.005363875304864554,0.06934808514631005,0.16957828353516174,0.09715638752000798,0.16737314818962276,0.1405528418281255,-0.0038174354956938615,0.16043294693455556,0.18740636723484233,-0.009129557251436628,0.009158622857901717,0.03557754196214828,0.048647367386986225,0.004327849850352091,0.11385841258320759,-0.001458201852737934,0.15416699645782067,0.015291145006525434,0.033735857568968707,0.08704298833449556,0.16113746510456867,0.09670786561314917,0.15637619745201062,0.08747093526698187,0.08907809822874008,0.08513139938695874,0.15447324442356647,-0.0013166795225046264,0.06431416805833454,
u62,0.09944179255729976,0.1259818696619582,0.08581010064784539,0.12731070573184547,0.02194137979174176,0.1638303481557762,0.1827815262244741,0.07581987099161822,0.12609904457448662,0.1206698051109194,0.020423565014115994,0.07212896182607517,0.079433498565825,0.09528272029874633,0.16358878767043927,0.11684503555898489,0.11622960878898914,0.1022901173012932,0.04429640335056275,0.15850884421839706,0.1340080348307377,0.1431073873550067,0.08778777723033325,-0.025235226392320075,0.02373330245076807,0.12663969368870595,0.045063481671878174,0.1708249554666772,0.06996452459707005,0.0960505016295141,0.09179855720679043,-0.0006620573810235729,0.0818336759384926,-0.010443785576004396,0.1579666505742396,0.1595326188508616,-0.017681118914586055,0.04515093888839714,0.0912414421142966,0.1599258260293366,0.05920384052370655,0.09231964318719738,0.1236640220876745,0.1296520210842513,0.030028131033960515,0.10252637078119382,0.055485465247819325,0.0662445801874678,0.052197600464381884,0.12246051152315104,0.12883001919574213,0.15711834505036623,0.09034387956096404,0.12382945754805307,0.11002428743514212,0.13393290083926265,0.011497239749208722,-0.027028780801776082,0.06109384671471731,0.04354117661614519,0.05457305646731418,0.17322456987666068,0.029625526812601534,-0.016499327014280703,
u63,0.09134452196854422,0.0826721816465562,0.08489767820943783,0.06401438912101852,0.019149320791024875,0.20957047660235922,0.009667395096066294,0.06565929186431566,0.05151018782268762,0.24999433702277862,0.02527469740675391,0.04031948998641795,0.21862716134252844,0.1708065460189821,0.03864336130813895,0.19030875632243774,0.08227349832586867,0.22490938550781342,0.19659573432550184,0.13462863343675432,0.08676249508417272,0.014213930429159943,0.15512206143712676,0.11683315805119572,0.14274063701806206,0.08107793166675682,0.06540079986953,0.05895385233478367,0.13744882753992252,0.010981639250284964,0.08927131456515035,0.00887251961152925,0.13455975379186422,0.08115819531884662,0.0009143712345453934,0.11086056288062592,0.1019133903704895,0.042300962469474325,0.18148840549974285,0.18688972126673872,0.14526010764817426,0.22553548514301508,0.03680257503966837,0.06767740125074813,0.09436320369484232,0.1620356627290185,0.21038548159835865,0.03802088739581541,0.14873262758973047,0.000758645929907954,0.012636408198039087,0.14127766397202654,0.06936900850791163,0.02901771143703326,0.09250953004351817,0.08470039462441677,0.17535574835093964,0.15126961883108142,0.23494982799540132,0.10931008630588164,0.23017063570798996,0.026863946371242408,0.14851254116584076,0.07478174175517234,
u64,0.16365573847484344,0.03286785260035988,0.10496039601405824,0.16540645521915653,-0.0015145640045141327,0.043522232853523975,0.17120297631608533,0.04405817113442633,0.04322914621228,0.16537403825582195,0.06930934524298506,0.0620461024620819,0.16573068287778245,0.03530691088903046,0.022411528649464597,0.1830472485873806,0.0019095125763465483,0.15629274418383823,0.1708764589433002,0.11301506075845007,0.17920669949256382,0.16512041977214847,-0.004601001507965026,0.0012427562069428852,0.1716931116372568,-0.0003617859331689705,0.1991293356221202,0.196392160713043,0.1709861901467242,0.09830529015224936,0.03163196151149478,0.05950780127686494,0.06200475932863293,0.03531601117756599,0.03746028401475969,0.0566699783103534,0.06628213198752508,-0.0013148149118918752,0.041376236885318274,0.037088544848241346,0.18363829509204796,0.17552880186415262,0.002675116127808934,0.06477853127012036,0.13863575163033756,0.004384433905083418,0.12784487247758097,0.05629292453171777,0.20011488676863692,0.08948687571581297,0.17042990110284467,0.10089950811237651,0.04934354656919391,0.19292305249222813,0.12963582597851928,0.13072282896439794,0.06469403268510322,0.0936262080187031,0.1255770852654941,0.09081603140144612,0.1705673401471742,0.06605796899808163,0.0833670872375746,0.010870092467057866,
u65,0.17429314307022725,0.12156863552445112,0.07206387031525373,0.08580304968006096,0.07407810260644919,0.0342486141190336,0.027032496718681135,0.20268294561756806,0.06900116186836276,0.06739992987221086,0.0686042787620033,0.14361673595233296,0.031100140347660787,0.062409796170938926,0.025625406864790114,0.04669827912921107,0.13757186947899852,0.08115078759790048,0.1933045372202627,0.030937189711114924,0.08981393391715596,0.04256112149358226,0.18646409480132164,0.1594765290455488,0.20869354248832322,0.0357335823866098,0.20755775690187023,0.09094664271718773,0.15411032380581008,0.17217963621143909,0.0434554238385982,0.14625988060634704,0.04819610417782135,0.20212202291996195,0.038712960068577926,0.1303846766262172,0.026700679955176772,0.17203127375501578,0.12693001002112672,0.043087447112453936,0.045457802556888256,0.18224884904717933,0.13663891721135046,0.03582423346228366,0.17684095457216434,0.07457575495861668,0.15046833471319923,0.19479745455953867,0.07470607032592173,0.19679645738456628,0.06171405741299623,0.19356294453621375,0.05824645435643023,0.2050424883593191,0.20625648363494173,0.005053160074394756,0.039433556495645734,0.0692727085307125,0.19551947841383666,0.04479136748113109,0.019239282819314463,0.20459886622803355,0.1960009504759886,0.023572818447809278,
u66,0.12498403575013346,0.1280821586261893,0.07908085354350997,0.09856541724672116,0.11476654079346359,0.09782502431463296,0.03418528467632717,0.19025216675880052,0.11865203279096082,0.18180068958429993,0.04827614146547066,0.17164725143661308,0.1193386392154935,0.05423579440017256,0.04131392947677582,0.1919054310999532,0.18141366731099012,0.15395581257761826,0.14393029325874182,0.13175906529674752,0.16040774492903978,0.011546029970380277,0.012971860449684547,0.1184084331290577,0.15853869052258704,0.10200851422890454,0.008489063536214272,0.14340652232203413,0.18761336180417623,0.06574757765316061,0.18458110276019318,0.18790488959149482,0.01513921938416731,0.07721904976542375,0.02895834402173892,0.07355760418994141,0.06473723296133181,0.00600586689160017,0.12605844178325243,0.04457513763296731,0.037025207130053805,0.191147191428991,0.023564320961069734,0.11031844920832325,0.19767727712044567,0.19789454770977935,0.16943439189127388,0.07223980069936017,0.015426590256724104,0.0023852923550553343,0.1880110572666003,0.025436775718378643,0.16524520182459734,0.17710256385433348,0.11657874357679829,0.07904098608703305,0.04507300351836973,0.08366631075770643,0.09142492480718144,0.1329885159748032,0.15355169596365026,0.10024035124735536,0.03989390905280717,0.010997734368957748,
u39,0.17284455010995065,0.1462113513816628,0.13716478367181426,0.03704112909055524,0.022446339536039493,0.1766824698163274,0.13896629459013005,0.13122533657663601,0.1307724257376088,0.12798552736227128,0.09435378647572439,0.134446872456454,0.02174230937488767,0.13813687596356897,0.08999787688533913,-0.011636437874055895,0.0787701811094514,0.00772517415530599,-0.012481489238001131,0.16080155647116767,0.018024760339117863,0.16435556883212168,0.023565175408879938,0.11705664583803341,0.1392091383735388,0.1705549438368848,0.0853006716817529,0.14794898727485312,0.14393864168348064,0.08905369224328354,0.12844400222890742,0.08230604666830096,0.07676784982125937,0.15285319545020692,0.04126276388129265,0.09517894961781835,0.014459896230361664,0.09409701353257334,-0.019489502090127057,0.06260452079440809,0.0028803951488865784,-0.019310836478073537,-0.013534744295530993,-0.01609876261003431,0.01553194393206481,0.14899122797509085,0.010779137912614284,0.04655198145812313,-0.007621611686502441,0.1484667327106782,0.10197964908486953,0.11368824944099731,0.09452221065578395,0.10561625678111022,0.03503507261724989,0.16188403279253208,0.11610516609485383,0.17510164126253194,0.06726795840249934,0.04027148949022042,0.12108918567566056,0.15769717664107227,0.021492947036884487,0.12196520978075735,
u78,0.0757406130081226,0.16998980965339164,0.05788289737091373,0.10431605545247334,0.00646054776142071,0.04138955109545046,0.04592971837793542,0.18525117996999366,0.061779522728281515,0.1839200135931719,0.1070130305148794,0.18963315610985523,-0.005057121212236877,0.19704233960419718,0.1459153831634483,0.05638003855699341,0.064563620839651,0.1802493309365082,-0.0009821366110064796,0.11297437485301912,0.13701989795025013,0.004892735173935813,0.12545914925068466,0.05694727130325648,0.1526667764965887,0.09993276473228174,-0.0048769700852595525,0.13287776050795755,0.11723946214088538,0.13799512546592044,0.18720834059718805,0.07710293138103601,0.15082092204604086,0.11416320391205327,0.10575072358301957,0.19070639190212435,0.06340803730252846,0.07096332387347136,0.07925783973091637,0.20168154819053302,0.09885390771989779,0.08254004998200706,0.02246894133046223,0.20040072609461432,0.20155053046265903,0.0274371379990497,0.1663275252032155,0.06438875730281997,0.06564803061023021,0.06854846132975738,0.169738972229705,0.051406474195088314,0.059343107085947186,0.02683428942690949,0.0029750314547708472,0.07151640033419007,0.030319952650268694,0.025896168549404724,0.015376309557155146,0.18855717868237212,0.10699685835282274,0.19388214968865178,0.1631507729562641,0.1142186232001804,
u43,0.025277580407751337,0.07991475033091794,0.09747887204163871,0.15481247896335573,0.15043385264478065,0.03629526746065558,0.14284382618337177,0.17003850322559316,0.14938060121521904,-0.003766798434106638,0.05075231503724087,0.01243589550840201,0.09663625192504476,0.15305955481108982,0.16543578065683048,0.10887417243700934,0.03903152558477867,0.13793819250280656,0.10029809028335931,-0.0034422588812377105,0.011482700430806491,0.08571342949759797,0.07297789502926062,0.1747879241457313,0.12724317868351442,0.17561433534022508,0.17657036288623312,0.17976365315785006,0.11051175409021792,0.17629528244723944,0.14340926871800033,0.009200718492330822,0.1650030164308869,0.016329597664235727,0.1396388761961172,0.121910880277523,0.15726775444917834,0.13090170587053726,0.10676090821175346,0.0616673003296706,0.15082368493751794,0.04696115507450339,0.03704661789109159,0.11224384369407273,0.07462381550118401,0.16582964276524942,0.1210229923269066,0.013400850679725797,0.06968634308038515,0.10636856660814832,0.11785981776229866,0.04354655546274369,0.053733889087844815,0.16923741733803158,0.05875716375029595,0.17121120336034099,0.16116684931353248,0.17977880587135717,0.1325533926663905,0.04619048489788074,0.13988492171715758,0.1459518264891166,-0.001906123284844245,0.039218023547681516,
u72,0.19186215412687163,0.11079583810895717,0.15242330301959142,0.20928489130831468,0.1372555334736711,0.11744157631785428,0.020224101394149183,0.0462201144008204,0.0747078808246033,0.007726502178518534,0.19139993688644005,0.14336185784092123,0.10394946623160319,0.11312767254055606,0.11685723959963501,0.21699936809148157,0.03406981910667572,0.13897811975648022,0.08839080256451265,0.16577874680802315,0.008517460194587196,0.20823730394127343,0.042233181388040116,0.007694477470132003,0.18596472366813796,0.02142672722358161,0.20615458224254074,0.12996201320337714,0.1021878547488319,0.06601516920919198,0.11684120407013587,0.14590233826258311,0.10921334884974097,0.11771696925951736,0.1432170592628594,0.13683353560023373,0.15356837482100613,0.05983328473946146,0.12846095756032466,0.08906982929294398,0.025590144863726856,0.017346847891992204,0.08433660652517101,0.17025618589556404,0.004051159139763658,0.07032361636628061,0.21522121860371426,0.10618126714430014,0.17268742390878028,0.14285675846879772,0.11231384858692667,0.1569960315956834,0.14444026660290749,0.11295869146846789,0.10867770602510705,0.013474271178835307,0.13845425566269928,0.10991767074360131,0.1882654844055644,0.10889513557865842,0.17270507436580054,0.10632448229421165,0.014334893000627362,0.0835986564073084,
u58,0.06435225480589082,0.1478717967360852,0.12545907508335463,0.02039665331796694,0.0333823002853949,0.1865138913982168,0.17585722095266834,0.08450951617602592,0.006716141752747902,0.12011712165495565,0.18013705954271014,0.19309863278665687,0.17227511245884375,0.012380617506768133,0.15657102393293632,0.1220932899983615,0.05565984191368786,0.12203918526512265,0.09398599509948617,0.03392865002967789,0.025827262209651872,0.1685192869809522,0.00048551169468909167,0.14968075768273914,0.06901044236790448,0.14630995869789368,0.08950064267714629,0.00281190214212489,0.19603199780187963,0.1224116245044467,0.060626155925564515,0.12476026683692099,0.13809451765465328,0.12180121953215653,0.014126197165358362,0.17914313819511266,0.0694893858240119,0.19305853956166588,0.18585251362668256,0.13159395353605421,0.09067764184803251,0.19528230361438575,0.12503960860659533,0.15435449559831146,0.026081439583739995,0.11554912427941974,0.14039824664218747,0.08581753955702552,0.020538083333449576,0.16880171592904872,-0.0013961606180087867,0.06830858625699672,0.0007622655022220695,0.1855286188989386,0.05444995360544274,0.019953041199234665,0.13872234404527578,0.04752106700296978,0.19637190566941257,0.07672540377927005,0.17016826430077558,0.03591271551795183,0.07348499581198299,0.18543403636848377,
u37,0.06548257696270049,0.06778517873731342,0.13339140558612012,0.011060328510797005,0.13246248120272158,0.16522313625603924,0.04985886351185827,0.17682715893432205,0.007585124525598068,0.026611729894746375,0.11041823779736892,0.13492495259856122,0.05471717780841918,0.1684496464337959,0.14265776864435717,0.14669392665404515,0.14879069126044658,0.0014699066004987338,0.06367429503041015,0.19421335209265525,0.1303445448355456,0.006519590819126908,0.17777006972891593,0.15375065343163566,0.0578535828052864,0.16864398355543475,0.03500094724307592,0.1157880996514278,0.10955061441746058,0.1545804996297346,0.11739454600631237,0.1460551875899037,0.12717930795965787,0.08252557415393723,0.04038294846872863,0.04165146505610371,-0.002081039776805539,0.19383199991694058,0.1655294601077612,0.11724772863764146,0.11320042122294263,0.024687173084131785,0.02375895384357013,0.08659187893708621,0.16413442822664093,0.022057239903165982,0.023139884435464317,0.17938024484914145,0.1929575998884699,0.12209213430495452,0.024757369564899052,0.1768394328474238,0.1522699305277183,0.014821362433950816,0.12879736322155058,0.16145646712814588,0.09834539986953471,0.19031148242044213,0.022396585501144702,0.14733877697805262,0.08103086133405432,0.03529540537558153,0.06962644996256256,0.08972164812353906,
u80,0.19400862673837532,0.021709806775200045,0.09642597543737448,0.17732425805774035,0.14251305187401375,0.17035340255138273,0.15960004349664944,0.17983553221485823,0.1476685207498428,0.11645818856460431,0.17850549661513568,0.1705174872036359,0.17238256562026993,0.19257977465768447,0.13495924608446638,0.034077694937712615,0.010100757915512312,0.0636484105815357,0.03905227756177768,0.07136837913328323,0.13858222119806052,0.05078806920699204,0.16004544126852221,0.12308392624014618,0.002004354321936,0.14038940162209423,0.13529919265283666,0.10153905584084896,0.09894676617584935,0.04597443918798372,0.17879046262018514,0.0863715447221385,0.062017049439169344,0.09371737184468164,0.04671510613484615,0.016034617070581073,0.062185199422962245,0.18278408890392284,0.18605483399753764,0.016232938463002423,0.18078345931354917,0.03834362650060174,0.16049819056677467,0.11581160154911865,0.031418371472473866,0.17497272846533346,0.0067867285423315335,0.0701327332915622,0.1798496452399746,0.012706362498441915,0.11886178275176783,0.1621208165741162,0.14010533970342162,0.017817136430213928,0.06198009820470916,0.06560208978888359,0.08623921064621032,0.028730915240291307,0.02303641271524512,-0.003964076462017241,0.21184450520792897,0.20249490791091515,0.0470423059025735,0.1614900674163285,
u9,0.1967612948424262,0.1500312275290038,0.19703276834662034,0.1192765963801462,0.13301621289680415,0.018290022418286964,0.1056147830241403,0.038181108983998645,0.028692605556113776,0.161167561052407,0.10230682232344195,0.08234012583300213,0.07197737396317903,0.12013485023436324,0.060217127803805136,0.02503798205187439,0.07980070431168837,0.077175966843517,0.1749666832946734,0.10356065968683761,0.11827664268599765,0.07937302091335073,0.23047276219777976,0.23066059635443115,0.2270043595775336,0.07430605723176213,0.14385766821609103,0.20209988399376663,0.10575338098803815,0.0428739551912052,0.09382854375180691,0.07907840124862332,0.053965641196736996,0.1990978771804553,0.17548371258104264,0.10599708703630452,0.11302454713857124,0.07277173464363702,0.10278492049453646,0.21474572420705818,0.18217774393050576,0.14721915269826466,0.07347013650193701,0.028178471674781873,0.23723931914995017,0.20966521072391714,0.0923637249674039,0.1737056429615884,0.2102551534386051,0.12775492948292463,0.21188304321705392,0.02948731230055408,0.20078724598359168,0.1289720000459322,0.01017497855396474,0.10054488396354468,0.24093471446721507,0.02997176098444049,0.22655282935489707,0.13241885527004735,0.03982905324474897,0.05548877811673705,0.023358315249060402,0.08972295865588684,
u8,0.18584442668076379,0.18231810752423372,0.1711312234571291,0.16696052733965794,0.036651314421038333,0.007140143539211362,0.1829013116497294,0.028895420585519287,0.0095426240855182,0.08359907482543265,0.09431356259456235,0.007816018726943746,0.08222118039500367,0.05653777716845848,0.13416933814509358,0.139297260581932,0.2080107174080531,0.14435680420693725,0.04531526353885973,0.13176461658162544,0.0568999724519631,0.10276237383142914,0.09495107664897302,0.19843175591885032,0.12090268579557652,0.09754148873245859,0.016150818495533823,0.10602646724816937,0.15536441149674163,0.1297944721620395,0.1631707526212338,0.10060611454393273,0.1993907942153668,0.14284292292971304,0.16501219665987732,0.10072870015433306,0.10538060094905193,0.14965924675277442,0.07495218604354596,0.07387212438362484,0.08755674931965798,0.1354337932842315,0.09908126787768799,0.04487925137923428,0.11221783465342776,0.19583645229073138,0.03579060712552201,0.12571775202445742,0.18171935740326658,0.16651752607872722,0.1495381427784109,0.10787002377297415,0.10565905396829303,0.09546584644244036,0.021151730953627684,0.15315687274664996,0.026366986073864188,0.05599703376242484,0.11934516488376976,0.11977234779125202,0.1747022142806064,0.2004406661772125,0.1236119274829542,0.05033671532726237,
u36,0.16051212788349312,0.08365476566058054,0.14236323543162366,0.12888463627086433,0.14951847096846432,-0.009113094973261404,0.18620462861177045,0.09305220825119093,0.02501203622106078,0.10576233560715906,0.16644068870000348,0.01949348197750944,0.16187368573710043,0.17141545778669035,0.11506068175081188,0.005344069452973723,0.11113488044516438,0.001685701648865958,0.1095213077288421,0.15814613472197542,0.16318798390907951,0.09118349219994754,0.13844883189146168,0.08056983131961604,0.07709130361162242,0.12938296757907677,0.11764114269387982,0.1767684523078064,0.18547085720913728,0.13075935163801095,0.0995959525900303,0.159993819817205,0.017681482319757552,0.1445477011804106,0.11555139187426319,0.10802955510326985,0.08085510677171331,0.027661315084159394,0.10056738607851294,0.18010563346722025,0.06852178364757451,0.1050047207440215,0.0530616071629631,0.023710195129193014,0.12436672517698856,0.017601725667998704,0.1419815269857327,0.033023738239669885,0.10489681031394944,0.02182949745969113,0.010111758000169205,0.07512324222874764,0.0453219030082888,0.17877364294355247,0.17322954372410912,0.051682671935323464,-0.005512750688019343,0.047422336255252495,0.07302697571913126,0.11375578655180422,0.12587593431036326,0.183907561768656,0.17618134305640779,0.0844032379895155,
u5,0.09224370097307319,0.12537261175971265,0.16119427997929478,0.10094833735913113,0.03670494217700084,0.1427428863853655,0.04228456351140229,0.070301230263453,0.1586430416004085,0.18974013787656963,0.057264479216810917,0.12524444316737748,0.11442372059907815,0.09352879937998317,0.1780549008280842,0.19729435491883635,0.1434949619925538,0.09709011516757608,0.08880664164977617,0.14658337844772984,0.032441711626326704,0.1824041722497776,0.08993692177481118,0.17154339936063295,0.07834175848684365,0.08960222122830634,0.016876097455957247,0.10749242703173283,0.14011579307608754,0.23864396028610935,0.1776728075632411,0.18225945486404604,0.18458365393419585,0.1666202788483763,0.18571804172199205,0.19368294135022857,0.01687245702698275,0.12901125627554244,0.126602767533555,0.05342936887206473,0.02881043087880369,0.1673448045656021,0.0515546306761275,0.1422085041616146,0.11308710929287007,0.15669341310388518,0.06805613694353911,0.04155322616497514,0.16401168597710655,0.21864413428404625,0.19970716374381073,0.015045623777117394,0.04011298549763232,0.20936583329642572,0.17170308507161514,0.028334421363238327,0.1347302556909711,0.1930607752256083,0.13825075082636135,0.03725203998374999,0.17435887016277304,0.08253378992045753,0.1502748614730728,0.05357522465853074,
u4,0.1346369327587627,0.017872656481654786,0.00637819729608085,0.1164763043830437,0.11425251570372787,0.048470393034105066,0.09458677664826318,0.051292516478904863,0.054526560977646146,0.011401926212907885,0.074130755613631,0.11170925889342202,0.0912337627282375,-0.01486931225555541,0.12688743507537842,0.04317453767482332,0.10823139276525635,0.04531519861526745,0.08250799519414018,0.15010864283690004,-0.014081978388160705,0.0022171347497023214,-0.003074936017216507,0.14433245118528243,0.12774566957639719,0.08145128270514866,0.04014288082033142,-0.02089136036675871,0.03359686115226352,-0.015307718501633486,0.06591863774563152,-0.01691327907369079,0.07342197011799102,0.09206055028757348,0.10711993317366976,0.04145718901773602,0.09010472851616635,0.0044461301657637295,0.16230191536474983,0.17491864525179113,0.10560279645226277,0.18197970102356478,-0.017509414949754897,0.043013202452004705,0.14390207310008735,0.1810581303852195,-0.04430183499254166,0.1498605591925294,0.08660552775663538,0.16731535121014945,0.10278207814325019,0.0246458318806206,0.07702630529093625,0.1440537083641526,-0.0348439916040173,0.16514746609089823,0.10519658704951354,0.16118416198664492,-0.027403500851070555,0.08585772254607935,0.09895416576588256,0.19145888086881904,0.011222263616286143,0.007172014999968882,
u7,0.07986414750716127,0.011287118791864134,0.09920858615956502,-0.0020922687371602864,0.048515483230064556,0.18431552212248783,0.15181912503847567,0.13074849684563966,0.12693601473107954,0.17852600185695425,0.19355478263378645,0.17453023739615772,-0.007949291070145212,0.0868660037257248,0.19302797959226578,-0.0033752494495785834,0.15978913132800682,0.12246088103176984,0.04064381944126944,0.15235437496376333,0.16060954286047535,0.0028007226759381504,0.1258136230241493,0.11923097951583433,0.045769273835476736,0.026990565403824267,-0.0060567759445463104,0.02110446720259948,0.15639030467970638,0.0005414527702660047,0.12979813490470551,0.04904712435824027,0.15310196772107212,0.047780743573090464,0.13958915840786135,0.15954342417758438,0.0366237526936217,0.163737787637599,0.12591958267455522,0.041935731524872524,0.11737399996185227,0.004065064407881988,0.17064593719643523,0.01810774848615277,0.031096277581998177,0.1770255116595725,0.11846766267605852,0.03590285207264609,0.08355618185551568,0.11962458236327218,0.1175036193644404,0.1734493246794143,0.08739810718983328,0.04670959957593616,0.0532809230416631,0.014594121920106349,0.12843202932709818,0.1314379734309319,0.14315629465135662,0.023568927700751467,0.12615234480470724,0.16484466434515163,0.11122502030159659,0.1678830538559478,
u6,0.19146237422281143,0.11819679724307368,0.1698542170713623,0.016027868789383337,0.12128459367585291,-0.013416979563791889,0.07999673240507622,0.007937773070364957,-0.023348414543715112,-0.004230539714827517,0.09668622612386758,-0.018905618156875657,0.02576049644160576,0.023274307472801896,0.10564217639456995,0.04227602745838282,0.1646603809647704,0.20032582172152644,0.14179741883116356,0.15216053175064592,0.023641821438651192,0.060818596088327063,0.04399962456031448,0.1465419608543992,0.1723085930398425,-0.004487451899460539,0.1786647819788584,0.1806562996761274,0.08415114304173438,0.10105925804445676,0.1445512158751055,0.12312036649601628,0.052097699275932795,-0.02109832710722028,0.04016507229529094,0.13781475847951544,0.09000458996550029,0.14533545261954614,0.04841489188603084,0.14883484195154187,0.08470517911567194,0.1012873729730329,0.12881529782247286,0.016929336423061686,0.020591338795459685,0.11083298874085644,-0.014719256353681154,0.08748025880174094,0.049280002028398294,0.045061465166626694,0.20258179063877552,-0.0035273297668551606,0.03510218708028157,0.07946829608502823,0.19615721504450412,0.2071936623675446,0.221779509882596,0.060805048346997605,0.09242376360619069,0.041814028256693926,0.21974410409118417,0.1005794854861581,0.042286714111785625,0.009171334474353475,
u1,0.14746509083479944,0.010150782950261223,0.05292414343528016,-0.013443558598220036,-0.006961505971450131,0.11060595998078397,0.21386925104306317,0.1018522808942915,0.0820170064285718,0.22162652988720014,0.22509506234695015,0.1452159616998199,0.03407274028492663,0.11211521503703988,0.1189003688617062,0.1939945200180202,0.1350938039038916,0.12414482878937982,0.050309868251159455,0.09917046515510705,0.11853280936186962,0.10865499851602914,0.08670156391336874,0.16573550000377718,0.1337503293167098,0.0464037249015964,0.14929299083241845,0.146339978004088,0.08695431527961735,0.0561340124494909,0.07693192705396525,0.029255635600536522,0.1890719640900834,0.15516084775257408,0.10793742642987383,0.11141000675611389,0.18962405189859477,0.024395881981335236,0.035141394596962014,0.2126772965845931,0.1869450937353681,0.11593814765314273,0.15550347397926795,0.15823041636669938,0.11675862129403729,0.13542867399235023,0.022795028505265227,0.09410876758973125,0.03715149734312078,0.16359511686744,0.02510128974221114,0.1883728883906718,0.18923360893344582,0.2146408713713869,0.17444442283559963,0.12671219078606333,0.19987818455995351,0.19293965699091972,0.16357737051976837,0.05460947270923397,0.1486099610370886,0.046463656576242074,0.20083976313568666,0.09547740194769529,
u40,0.15073084603719908,0.1108912109525535,0.17524330434708654,0.15641605098360112,0.10143578469994276,0.16179110365200366,0.15787090186334105,0.13937893705665402,0.16369563530251838,0.16377172146927407,0.16677950379373302,0.06379138177133735,0.1816961855283684,0.12950546315408387,0.15489479981467644,0.02474697476497296,0.08609598113767013,0.03699663481133001,0.006601359828785971,0.015099287934187489,0.09191700435419382,0.018814403757157046,0.058077534532201505,0.005763664448868622,0.008681720660064663,0.16103074163155506,0.012674605010338433,0.12907627763533638,-0.0007165242421683817,-0.0004248692384592829,0.11650795284976709,0.0402609889621207,0.14940819119449367,0.12455945520743983,0.04196748950723917,0.07553590615325842,0.0979160673100867,0.1560028931621317,0.12202993031942809,0.04431306252019727,-0.01681365028711528,0.18333532617714488,0.13023855526733724,-0.010547432806606576,0.09847553818805004,0.03302275992995959,0.023669388980703115,0.12776348017559272,0.020569932287550656,-0.014932571409351397,0.14611842870489467,0.14755340673523754,0.007929537240252105,0.15178841482067545,0.1780907559420779,0.17258122324806868,0.17933801411914205,0.06414347307353256,-0.0049388406435840835,0.18104328163403852,0.03379144865731328,0.1735641510408821,0.006750111061147596,0.10656042815041837,
u3,0.19845144130168754,0.08818838838089688,0.17431004235110964,0.029270241870490196,-0.012852012232869492,0.18884126222836947,0.17165376917390363,0.07967992273962618,-0.021573078414183242,0.16397457944077415,0.2045692289512904,0.07709224512335296,0.09528557821004383,0.0052294568558490725,0.07183157667562325,0.1395452701757067,0.06993214115933266,0.0551279025471899,0.15824012588200445,0.18799752108287268,0.1638366483147892,0.12034536176569367,0.03148818647809082,0.05699651635576445,-0.029562606736959172,0.1906677803832286,0.018142220264705945,0.13711144192958516,0.14703467143717336,0.1027230800195601,0.038913123291822595,0.08658925822715709,0.027158562107483037,0.110391935763033,-0.014811723431897536,0.055519169255402644,0.017842474255025696,-0.015269298324617018,0.027127800432306007,0.028702607411540675,0.18114456708902196,0.04182943916698378,0.06124687002953525,0.025845412162960192,0.00023142428110017608,0.15133986668961733,0.12527422090916943,0.0020201015572183715,0.1675749184261424,0.029947038657634387,0.03519373079214465,0.14515933351281052,0.20827235649808157,0.05104526806261227,0.08726769690486066,0.12948608781514465,0.1748898331307925,0.054168609814477096,0.055035785157189945,0.05911629507983461,0.20695063787413892,0.1360605452301623,0.11694239993549599,0.08553964229081629,
u2,0.0217973348777287,0.04558065049805582,0.11318965640151317,0.015613131691926704,0.08432654781545505,0.05965353340944567,0.046388065480386924,0.15345289703002668,0.06145594161036471,0.12780754506752004,0.10413986031226773,0.08547025747890241,0.000336587644193486,0.15618995845514977,0.16735240563995327,0.08680069235988691,0.00649813261772677,0.03820545872104316,0.17605012712275553,0.015567024927006753,0.12545227288772312,0.031340426305899435,0.17138288113347028,0.09839150644054509,0.1370284232019834,0.05892941794686102,0.08207003643774828,0.171545378878685,0.15873185628266825,0.15251631531781162,0.07368369063904752,0.060846535170987426,0.003259840021132252,0.04409594769930289,0.05553239837300921,-0.013732417712885107,0.15986674155161412,0.015271983457084725,0.09761909719993565,0.16796507404824101,0.168713599190551,0.17663945812865647,0.01791082322304448,0.08739589385825297,0.12148635685192613,0.10438675323966622,0.027579670660751694,0.1414102767954085,0.1173541753470856,0.040498258447841114,0.03649968782310058,0.08297346836001762,0.13357966989077252,0.04518738773611298,-0.014715033144731248,0.11105315042536824,0.0852915249423988,0.1393457630701407,0.03750231240813521,0.08524005426200545,0.11094094905830687,0.18910642912783937,0.050026918778660896,0.02174054857128818,
u19,0.03925883525391903,0.14283461130204347,0.16713116053528848,0.022591090610220202,0.17611256248475204,0.02448023313223975,0.022064755128555578,0.029741380325434285,0.09867854776870906,0.05125367705360329,0.10140021724688264,0.002539039431696552,0.07325845839045177,0.21338645170647264,0.21864187332261498,0.1454205635434478,0.06501445494154509,0.20798242876370174,0.17256066266844158,0.02790451303312777,0.05121548560339884,0.01908850033518511,0.10015204055620955,0.07535066367279458,0.1743232803122516,0.07230288934106592,0.0757471352895915,0.01676378833113763,0.21228936835049947,0.15571528521008046,0.1391214826498298,0.03711663773553929,0.16230343568310185,0.17579892934042846,0.17703926352367017,0.0752343796554299,0.14499746417885392,0.2039086785569667,0.06864550379499762,0.1242796054759614,0.16362159468759044,0.012393181809532838,0.06424285652726695,0.02259348062731898,-0.00032047569601194884,0.1353515687928324,0.1470455927271494,0.21203647297675698,0.2167220836588909,0.17726484462189115,0.008014741747598416,0.04345592697135946,0.17403024566495115,0.011096402959244887,0.09769999596150289,0.16555582126106747,0.10010277643523675,0.04318869723834847,0.05723170659138542,0.00930440175003582,0.049439685497459855,0.055274975202855015,0.062349468775899385,0.00013180707642938895,
u18,0.07640727318234859,0.21271877320198498,0.071515118236919,0.03973519047331757,0.14114335124916247,0.1830705652603471,0.04746769445215062,0.10888135130603102,0.06684311387019884,0.005877831650542118,0.0612651599740329,0.06136526238597629,0.17342687043654428,0.01609311891431114,0.043976221351201196,0.06369914357885877,0.05985580168714387,0.1707428341137175,0.14987194142861415,0.008796892576024479,0.045066439839645665,0.13088620211710686,0.05605200005939065,0.1317467378738908,0.1912523755288039,0.03042960183921675,0.028161984155746517,0.20133627820024388,0.20050712988411662,0.14375839038999827,0.16023925364430056,0.19408875019969968,0.1496253617995458,0.22369498797661005,0.12676755995114466,0.02148561835507942,0.019098239038447984,0.10498650688403063,0.18777257222508814,0.12663377206609727,0.025673049523578684,0.12192860836634431,0.19640780206214412,0.07546121880973476,0.23440847648446608,0.17064808601071335,0.12639927891955252,0.06984264680842064,0.06914126453824956,0.03807196575404226,0.21469574818090287,0.026659757823174996,0.03256993513647012,0.2642988590580459,0.0030454073924274096,0.2226713528292837,0.22302792839339872,0.1702152966650501,-0.013747939101810271,0.09850611931375847,0.04119086512411318,0.16172675022635172,0.013305193163931415,0.08251874087188885,
u35,0.14671962337068267,0.10784876760780035,0.02431196523639813,0.11139772525380325,0.08116073359726322,0.0845815928966181,0.016112157949639723,0.18146648294401935,0.15279073423770634,0.11076384628706847,0.015038714156585383,0.14585548788211053,0.15411926058523567,0.05075164437078388,0.05938416385359759,0.09962384849607872,0.14741358346428074,0.021781507864667402,0.20720633500168253,0.16859254406254542,0.08694761703003288,0.08157026105119673,0.03370980673566992,0.11019613814478355,0.07165478680026209,0.004295487382739792,0.14955222535405263,0.06379564913072093,0.056867389541039697,0.09053084027441059,0.20793759031742406,0.047687382421058036,0.1843435671241438,0.10191109266058108,0.08346473964683289,0.18683564744340797,0.020157870432640213,0.04323463705176122,0.10169352987732215,0.10867900646703298,0.039235561767083114,0.19649960496988284,0.08177542351177458,0.20789223577936308,0.05227149731755515,0.12512281805956668,0.150973510230371,-0.018811482218545075,0.024734260752848708,0.16965322608303138,0.08643910694109856,0.05318784261406883,0.0009109755516291616,0.1185451754612221,0.08060281483162324,0.183819965256968,0.06167115128235641,0.17711248983212038,0.15431110880690407,0.12876083524479054,0.04232808078392106,0.1511134594955243,0.04030517904630837,-0.002864956068873847,
u34,0.07048090096585714,0.23894794929040952,0.04051130007325556,0.001348577325181625,0.06480871372770901,0.20396582418432713,0.0014056754037562312,0.2358263505955263,0.020061306209820433,0.018951139885633756,0.14177127291130712,0.19685837449875393,0.02313846525718844,0.2324607112864495,0.06462131035817152,0.23807541199301918,0.02533582380950613,0.08810188104438138,0.1926039309227063,0.08630794672322281,0.008037484677031486,0.050217153002731364,0.13306541210916917,0.04666897598466886,0.12280721147252263,0.06127122573542805,0.01579290974018863,0.07438132445393872,0.23791914389533084,0.035242845387416497,0.060367517529138506,0.08898512109074706,0.0403544683155205,-0.0035211043477379475,0.18209959536999976,0.1304984278308921,0.24677094551011922,0.015609755054433455,0.11021134342080462,0.22963877259474502,0.02420254940837136,0.12129808255986524,0.05971128746969708,0.25237486450246155,0.013498146168691261,0.03319107816101452,0.04205663081790904,0.01295888887720522,0.10130911072053411,0.09277373684386517,0.01980714798026286,0.11817505518117681,0.05741185207638395,0.15215243914933343,0.11661927015310652,0.09417801704482004,0.032531719392013554,0.039334819365762504,0.07053004544389144,0.1402985567320168,0.08191250749943532,0.0010270646734995652,0.11590555055384176,0.09075455263470976,
u33,0.15841552907974388,0.14371520305717322,0.11437857396935841,0.0042032547346110795,0.028007607345497655,0.21257060417688292,0.060029544929147034,0.12752185813907183,0.05245260450770467,0.027552661456284436,0.07566342767789422,0.16708209268473995,0.2094470240511577,0.19647291066967362,0.02318196081513135,-0.005555925575770045,0.045869854445745296,0.016432551836676693,0.17377047997512343,0.08143192993035146,0.005249017463735256,0.07502817889854842,0.20467913631879847,0.06402286469008181,0.10043896584814271,0.08309471418415741,-0.000509105172877576,0.10781252124661495,-0.007844259102082944,0.015261462467824763,0.16627421701396466,0.1492128696499183,0.1162562625578525,0.22037491489633795,0.08091854975257762,0.06513588436301022,0.002085169139831293,0.09231736895442491,0.06682081157680149,0.09803851420613065,0.21456962172592015,0.019868032672074515,0.18278821234774142,0.06816418106238634,0.1406543349418511,0.06936153958717789,0.08593211712939716,0.01954554265859406,0.09357077011895922,0.04895039539026865,0.042389976534929166,0.1346192101185829,0.11381696569274444,0.035529869913434764,0.0178925913430383,0.12186535560046148,0.17329264181676324,0.1398347912877221,0.07416105632725448,0.024204683356583188,0.1994774922233422,0.03909165216024616,0.014852844239525424,-0.01481083760618889,
u32,0.08393469540211777,0.13193944950898834,0.12224740884064869,0.08943272405111603,0.02121442647036317,0.07998699898051782,0.18172050268875795,0.16756089305911892,0.10052255709203994,0.10261625411746257,0.0400298461013254,0.13784877777777696,0.08785906158370825,0.15554925040997303,0.1107415853632642,0.04304744793895106,0.039951611044522564,0.18168477240462474,0.07431186907874125,0.18672052743499723,0.15838341132645029,0.09177087999792578,0.1765041480158739,0.07022394430186653,0.18087505505321705,0.17606351137745935,0.18963760299847918,0.11124150332366056,0.11492117912238008,0.13962830615641195,0.1806417884790818,0.026654264880391753,0.14759979328942288,0.025047934975938362,0.16889434960202837,0.17794264930997228,0.11049375867447853,0.058460737588688826,0.016012838112203037,0.11239806411595489,0.1133956390077488,0.012834477341989243,0.048773548426562736,0.06398968497728934,0.15918218781344542,0.07577366137214074,0.15886824414327386,0.013822435184514868,0.08609278169860114,0.009910661065245185,0.13050012618544365,0.09419356061953407,0.02206148339050978,0.19265761564479023,0.1087357774163205,0.04793950598351779,0.12943016215613828,-0.005897158063182247,0.12399483519000745,0.01283969073296172,0.0012726532640167606,0.11518988332729665,0.10641630985966846,0.062170766060258356,
u31,0.05949980878908132,0.05898429239892764,0.0586680494569406,0.04033445164362647,-0.01010353752932749,0.17407561306239283,0.15045916301799414,0.04109743842630503,0.11817543764796094,0.0735241345207339,0.05848765794339706,0.021077866560307315,0.06452604066401692,0.013064921186457077,0.020006439113432785,0.175029394629924,0.06728990720697323,0.023616955265691214,0.1467673788741691,0.13207116444378503,0.10486613297345232,0.0944191257106627,0.006975722661595628,0.17562771302159605,-0.014722088824656296,0.08897856711929043,0.18400538689515628,0.1865365540019147,0.13108478348882413,0.09428848583603464,0.08196805848530966,0.04781553787608002,0.11051461056304833,0.11085563988205624,0.11772249232382466,0.024805983602203173,0.06507895323157604,-0.008579966635237008,0.1365577026421793,0.18367636869199935,0.1532285186690334,0.17403201270632684,0.11520609042234758,0.13398751198828995,0.18017684320520824,0.022282174395699596,0.13774048286832616,0.09811791283052305,0.09792588668750128,0.12239330748198557,0.10133135996981488,0.1288084260458314,0.08888948594808828,0.04715167707315178,0.1468102232496358,0.17525870124181075,0.10951209052211096,-0.00726500416876812,0.17770021205965997,0.1744614576903594,0.18922827996002786,0.15368803541614706,0.1416731390620195,0.18250994720308883,
u30,0.06030097464157756,0.04215234864641267,0.12713374953755002,0.15720147077205726,0.03944196755704041,0.13809778384951976,0.02308908764909016,0.1047675422689145,0.07349395631848717,0.09051968225637864,0.14040851179917244,0.008568915008905227,0.14622447679833378,0.02778073948968862,0.2109984605025465,0.09889916159019266,0.20203216126537352,0.07072190658568354,0.026625050043099955,0.14859315947141494,0.1586794833895105,0.19309711062645613,0.075771006649227,0.19872346372087973,0.019910810765506895,0.021755003751645706,0.14113496920794644,0.05246061523048401,0.04939465681893764,0.22700925839506922,0.1775836385649916,0.11063097964457508,0.08137943444089772,0.04634479233294713,0.059606590564152497,0.01915878696170075,0.18065416912810114,0.05893901158962656,0.01706231421182544,0.07571060642709207,0.0608669662896583,0.137602356982999,0.0034154156117689807,0.11781821821165706,0.11300552995834064,0.11673338779373425,0.17532553440910714,0.2065141761445145,0.21284968932012296,0.1956169966266427,0.14893219044076123,0.22313715619240285,0.08564270734084427,0.06620918819414641,0.029395577032614497,0.15600298698057208,0.1336177307872658,0.006909712127718395,0.03631965719701588,0.11170424463967221,0.1959513923499643,0.03595434022627251,0.09731790556001482,0.049544252050403144,
u11,0.06631331588802702,0.1564422145750765,0.1749116308408265,-0.023472509237640275,0.06899005458707115,0.02989794244009634,0.13340775953366554,0.17032010191791264,-0.01236276297164109,0.11263433479021909,0.178343102935057,0.11034360195387412,0.14233170238340034,0.053202169476898785,0.14028619294988895,0.13818535753476713,0.1295342678331753,0.14754973110838399,0.06410902676585088,0.15555528434500265,0.1050791001356581,0.15354999580753517,0.02070119658049051,0.1785570628072574,0.14715011712091317,0.030653367302327247,0.04987262250664487,0.015229981605381865,0.17684149693915754,-0.0007785415755641195,0.014412162195268346,-0.023821553494701247,0.006726399473198725,0.025910340176089987,-0.026785707751601363,0.17179517121865107,0.10955131374161439,0.12118654220549524,0.008336833494634112,0.09754450501993174,0.06688282365447283,0.17482819903060323,-0.008903026092932928,0.04584363102455133,0.0552397230790196,0.024847972160739903,0.08175066511073018,-0.038530351112185494,0.17050817113564673,0.13390450420873057,0.08740760831190945,0.07859977744952155,0.06617384097023578,0.05931828278091332,0.18633480679818734,0.17797130982109868,0.18743558125580284,0.06751869462793525,-0.016950828971929552,0.09535366462456203,0.07569797078374406,0.16713156942365434,0.0357568341412785,0.07728721733709758,
u10,0.1171944560725606,0.0781891339520415,0.04283372858226585,-0.006868936057197184,0.04160541099034813,0.09289968192113077,-0.006199490571647568,0.13558129555947268,0.08183200455612503,-0.010218341051522027,0.013518720859955362,0.004685869329584083,0.09147437677136093,0.07705756500916894,0.1876520873897489,0.11104311716309336,0.006639371653783982,0.051056566484187965,0.15394591213893524,0.06532949011017684,0.08377571442394975,0.0757818314490183,0.18861890395985217,0.021911485796332442,0.12656279406458334,-0.02683121524891066,0.09399857334247089,-0.022239464150712675,0.1098587506455241,0.14796871441654677,0.0060159166421234495,0.04636909880353097,0.16954872802624274,0.028916818880795253,0.11416735878634357,0.09295878899125547,0.10879647433888982,-0.007026092639651078,0.11671738216819455,0.01990811492556045,0.17022994899208446,0.014436177133862145,-0.024578142916024795,0.1610428114099891,0.026216136451993437,0.15570066123954218,0.1505159104271849,0.1397651240103181,0.050815006224840864,0.15241226999115298,0.15556356213412662,0.05188339793741496,0.11897831084869546,0.03718972511608877,0.08011727037155116,0.13115377401691372,0.060914935162078715,0.14998950256730995,0.10077224921066778,0.06595324485828062,0.18883493228001602,0.11304007187921114,0.08690927987052922,0.0540448428472621,
u13,0.1666414030740167,0.14556711970075337,0.16467498970143424,0.014225999079388589,-0.015540130979674655,0.14634813760988688,0.11770997471518829,-0.003731521475830648,-0.007729019488657194,0.17371129524074153,0.09449751833773957,0.06668596420673448,0.056573442019958085,0.07707904395546185,0.06708481191376146,0.10765035311854558,0.046090763984419726,0.0756891907602256,0.08883032762599802,0.12189742796590307,0.21923536890721984,0.08120997221041215,0.08728844428554636,0.2163668958805073,0.06470198520502649,0.13377842210813748,0.12227309363748379,0.2016564046189915,0.08569423989208373,0.12010735945173916,0.06802299947847311,0.09794273056832113,0.07978796140457446,0.13674477504026186,0.1803871379923881,0.021468466386098603,0.15945544162920633,0.14066682013900358,0.025792063525417536,0.20479249604496674,0.010648214446464705,0.2110742149279779,0.19188210284134014,0.1869534956245767,0.22433117091458332,0.14856637520015048,0.01342075018274242,0.012148207695576216,0.13015305054692272,0.17366513070116074,0.08599774480377495,0.12981552654102899,0.18454332836999993,0.15448394292548293,0.09374143758781159,0.1542480783607348,0.09878463552071907,0.06903757952631615,0.09168339817848489,0.01671629175661076,0.0656712722344881,0.1806680516005054,0.02967515910900952,0.07494094328281536,
u12,0.17040883666763368,0.11814754086982704,0.04301213417649085,0.0285989470320288,0.08131544905290695,0.16537453230966423,-0.004244423584560048,0.08238230633204634,0.03668828458529213,0.13582428907478103,0.1735836397941422,0.15018327828309352,0.07186430600405637,0.08970913614892022,0.02750304681406216,0.08409663322475677,0.1316727434401487,0.08891537924891114,0.14637773630391818,0.03099664910419956,0.04063711691548646,0.06894666522429142,0.04032236059846711,0.1459814452707811,0.057612023546192236,-0.027749238204900193,-0.016197937321027478,0.15709104475536062,0.16378232858304298,0.008987769806635345,0.07905158178196671,0.06064061785866655,0.1352807140219134,0.1440680685104146,0.1429885772513751,-0.027929868690399283,0.0032659760286254716,0.16400898320276056,-0.0036950762142224144,0.12250082495382059,0.1533525285096225,0.012770509515020581,0.05344237055014243,0.08056883148731692,0.07968457153678782,0.009231770305600722,0.06106332884252973,0.09255244133099938,0.011456188617707449,0.17096354366858402,0.104916948596219,0.14128291176412802,-0.013804526840281661,0.1713966787944941,0.13636942276841454,0.16090925442558957,0.14651706534959186,0.007624903218088198,0.07792736735433389,0.008179190572548548,0.16180592764085974,0.11040647981955938,0.07218006887492352,0.12280563495958464,
u15,0.10163448779178808,0.07543509227596328,0.08386158400342576,0.0008088484643049775,0.016027433726648815,0.14937350208830108,0.07745776158918495,0.11628812931472285,0.07390382172646606,0.22176769694782655,0.060410337440650975,0.16498730015202015,0.10191978232601386,0.03568561107745885,0.23201607574082564,0.24259608336000033,0.05826470108094824,0.10462477803759657,0.14952432683522643,0.21651153431921202,0.22607102327185938,0.1657422694860513,0.08193447567687913,0.17974776432168413,0.021066736162499936,0.001873605531395663,0.0322941477651978,0.2081653408939988,0.25075966172667685,0.08672213768577336,0.24377495963373932,0.20941323540577306,0.06678812744829128,0.07617753088342674,0.16561454751189061,0.0037743421074861077,0.14605867875681436,0.028274121036073317,0.23571905095793141,0.14627145510752396,0.1314231681952144,0.07964583942861521,0.12816148130983798,0.2298626745091633,0.14824629182041205,0.13535083207695425,0.010375977264921154,0.05364194461523193,0.08272160488878107,0.1578797179960745,0.0445375794302395,0.057329658278220966,0.07499533176186816,0.022797582764983445,0.057267958720344035,0.04562699431588968,0.26497533375881144,0.008623191037812434,0.01191209641411269,0.10018029873709035,0.079438001180004,0.20780326274582106,0.022545104930542684,0.03886769138161385,
u14,0.04884491462377834,0.16075297204599015,0.17769711764872212,0.023979025487395614,0.0016329809977876004,0.13750561179928447,0.15348152557630348,0.14057467545587282,0.027993890696837165,0.18167766943085673,0.17905757756748567,0.03920079099541151,0.03381950190387486,0.16947606482547617,0.11922362577849509,0.14866055058345842,0.21041666910300086,0.22938409706147644,0.09020370098052663,0.12058424635620192,0.05761560209086645,0.11322489584129833,0.22963786822643514,0.11403707976384511,-0.010688412009067103,0.05706465489902409,0.16184003508811612,0.09098140966237457,0.18463195347211092,0.06613120643755308,0.11049906785694032,0.10583222150006699,0.17234999281399652,0.23137337885427303,0.20431910453872992,0.05216328950477157,0.13123752017959048,0.04289237053129481,0.04993331691184521,0.20054882274418387,0.056928861106356386,0.17673052215713592,0.1304053894635475,0.21543058146609032,0.04532326843693979,0.2575201353038035,0.03180229009247313,-0.01080994275925301,0.016547543290078827,0.20876648136385592,0.13467957465294442,0.04728460537768532,0.1147540948942195,0.22751771497094928,0.16459909834615946,0.18991070598034612,0.14112846621603145,0.08655939694420622,0.19840421901203414,0.14954530111709746,0.1362009830900798,0.1809578517225586,0.09982857268757095,0.1906550319477081,
u17,0.06211700648911503,0.06444922528011413,0.16611393607549824,0.009541611611264395,0.17725312458119882,0.17460009310633573,0.13349799470724966,0.13756587460837266,0.08506441363612581,0.030349531069538044,0.1703248244711478,-0.02098411839615092,0.07432796142553527,-0.01401575073283976,0.12054392880096944,-0.005624304561674129,0.045668535334236496,-0.016150988880757708,-0.000783198998896773,0.015832508075100872,0.17290740353905362,0.1714352708666391,0.14437248955173218,0.12569335365281348,0.17910525262209823,0.023424153148502432,0.15926281023471875,0.12165874469322172,0.1625625331480239,0.13282745997689094,0.019508488083126826,0.03206388056929758,0.011011262988979047,0.06223909916048339,0.11773023788950483,0.045568070203708684,0.043378627157912235,-0.010542684667959738,0.17394970646390823,0.08727817931304038,0.13433059602476405,0.07027383543575068,0.04119526950088808,0.12564354477860662,0.12127774203557845,0.16765642112782475,0.06048234754292961,0.0650692834498361,0.05122692618669263,0.16886449037845716,0.05769256801345337,0.171345651713645,0.19286456086585843,0.10021835216270333,-0.019668390621353272,0.13670552792682641,0.11993021013379497,0.05371206090166039,0.001132821521488708,0.03854684554496871,0.026710715813698858,0.17235400321940736,0.04340491498565616,0.08339153572886279,
u16,0.16784466182613045,0.11941891225963258,0.18722069416692808,-0.02733014715802178,0.034818587641216044,-0.004949771056877329,0.03423073093891807,0.05641120203915847,0.07183531458146648,0.13436342393429168,0.09367916145875212,0.027458253482763612,-0.0017979934489388192,0.012541647610888293,0.026623903925433408,0.144883701515342,0.15550297422222495,0.05819873887808067,0.060872243443153215,0.07751809335349423,0.09068123594188042,0.08453284420381868,0.17612701548511003,0.09279374803948301,0.00781421867118885,-0.003820769588443097,0.12466570558210238,0.18756895454459668,0.09919805604170005,0.20496046900826123,0.11575330376272128,0.15072573249654436,0.20832141153976158,0.16283507240014874,0.08152329575074983,-0.019189911820734804,0.07414234954321436,0.0306856141101561,0.10048157224718689,0.035872793765936745,0.003096569490166048,-0.017345783319762702,0.1507335435367181,0.13189764997767117,0.004747597599043976,-0.012338044456434038,0.052588043436238116,0.04574788720805781,0.05909061844806214,0.01707827762179036,0.19189557693988907,0.04948523155433765,0.043901682724591405,0.025798022986104365,0.05492174640583743,0.22142332223055625,0.011264824530573083,0.14845465347154183,0.011972484412630782,0.11890604223355986,0.16911286440928117,0.1416017272970064,-0.0122007016156564,0.08300928681574327,
u81,0.1511306811027818,0.11181151876198543,0.0938659903820251,0.21987617161214176,0.02485848653962402,0.09125221844363823,0.10440543908152505,0.11768749523695213,0.20904465260692814,0.019227072272450418,0.15256220092631026,0.08616236184689414,0.03309302515917077,0.09841779327536723,-0.0025847248592241676,0.05383325948525204,0.0037960699103292608,-0.003518100037937741,0.1006490937254271,0.08253985719739784,0.030814902198495097,0.13577044385585355,0.0766078172931733,0.21835281894838363,0.08182848983205039,0.19752275669279556,0.022408611352666422,0.12634256385957282,0.19141179975870654,0.17672822513618042,0.11841322827321103,0.13412523707011562,0.01695994398525658,-0.0013476491388113717,-0.004429502316892809,0.0674890261016842,0.2155702405218486,0.01640455973458049,0.023472647600537244,0.1698884726966289,0.18705508006260263,0.17963966903940007,0.028079318890772132,0.00632467756457213,0.07850965171417952,0.08359777446171586,0.008029221986225384,0.0010600721382345655,0.14440581912835582,0.1891299406951186,0.08752820095219403,0.11985740473724733,0.0025254878873173115,0.13123979273977693,0.11407120626458254,0.13295445201950754,0.19433973721311298,0.20540559661052257,0.1790144311129267,0.11976166853918002,-0.001127557367891426,0.1688474766667812,0.08363452807561504,0.17582848041658547,
u79,0.004474006438001327,0.17507412833620747,0.11119201695675869,-0.0027844918470101027,0.13401044287573904,0.13814468830034374,0.12409104273318469,0.07026741846034132,0.03974352549511379,0.07488022746262243,0.1267436625794435,0.1557333503359569,0.054228799904594394,0.1472864928639035,0.10457343317442355,0.14779137437786613,0.11238677449540106,0.13818318374856403,0.17632749248995488,0.09088662737748877,0.20289066418156307,0.03242233351538869,0.003950973452027616,0.097996589168818,0.06625878920651489,0.12730419573603835,0.18968659018196424,0.15095502621681534,0.09892751440186072,0.05839724421345129,0.17258977172019838,0.03576597212719801,0.08422018624301116,0.07198800168134373,0.08455123831871199,0.08679283778287558,0.17796889655509493,0.07540312023670269,0.17340588123018322,0.14496662356391718,0.12087418962274611,0.05539439285015279,0.10120575937717846,0.09442203121552145,0.19209758010670677,0.030994974145564867,0.10366342980333229,0.1307462084021453,0.0996431052980423,0.024146794848597906,0.19874030424065892,0.11045692789405476,0.06354235673172048,0.010669960608947177,0.19704834531932555,0.19962262918291054,0.10484630578752657,0.1461288406391483,0.11702950327318588,0.10100516678911234,0.18489569513428242,0.18523411399820433,0.04583245224038834,0.11162707294107274,
u56,0.10575164169759609,0.17157263711986917,0.02115719188948233,0.1607142256492391,0.036529425415743576,0.11586001944334756,0.015449435864551561,0.12700756960631324,0.11365273879745072,0.11828426075927076,0.12477254961486506,0.04956874659715735,0.17781750454837283,0.13799227001440934,0.18164109924155983,-0.016620688474046633,0.02483159751005584,0.06342671978642998,0.10816332895882959,0.04696399364316468,0.14434239223505316,0.033027531489810726,0.12600501441716536,-0.026474711851805572,-0.024583164080851982,0.05729021708416287,0.14072043166587783,0.00483422779203454,0.17816942435339803,0.1856475895459927,0.0372019863752276,-0.02177735025804349,-0.01972512736100823,0.11303087523613994,0.129569710374597,0.025025098468901955,0.06321657611533957,0.006165513303040312,0.06061157386046198,0.18347175847929356,-0.011201101673166838,0.023089811432387797,0.0593763457999107,0.07289112047770481,0.06430041368749853,0.020317491513515164,0.04445944484966678,0.14770765971398706,0.06732043167532267,-0.012840665252020508,-0.008226163829004015,0.10872519762383082,0.15220450797373097,-0.0036958913057787163,0.07673811226055552,0.059241635094586756,0.08584796262251772,0.06232637874724918,0.11115549179097074,0.14811260970344098,0.18840889535070768,0.18198236810805424,0.08837891321031721,0.08188968818114631,
u59,0.13853314294198926,0.05421428063108225,0.13932677730803172,0.07312284270149873,0.054217203358333806,0.14081792944742405,0.16075548391662736,0.06693891508180626,0.06028833497709877,0.122535185211018,0.023785923128105756,0.13969960103790655,0.15941862171188145,0.12690058646332017,0.05456735535608806,0.01645911921437529,0.11132514829096007,0.0981366610929757,0.06865068140986728,0.1276434859032523,0.029086851710293942,0.1101097085971692,0.011093929318942921,0.17203704388639832,0.11523681522049761,0.0435138221170252,0.114430719609056,0.168685215659429,0.027928342396919267,0.12165384705131083,0.18865927024882975,0.046101300846971824,0.12043193858963179,0.00739828165046392,-0.0263831773959167,0.12478141302681238,0.08914226596304872,0.08970279246819458,-0.014217733928549267,0.0987262623618805,0.07641302628331864,-0.009201204001561618,0.12913993459770665,0.06803549769920104,0.1820116038693305,0.1652724684112072,0.1385086988556279,-0.029143746798943597,0.16259519157452315,0.14490868236985985,0.06171569948916254,0.01050474301974746,0.1488388439100431,0.0436212569943024,0.00855430010300006,0.09424860371834463,0.033324449945984935,-0.031197005503439155,0.1592309224783242,-0.02803668666521411,0.010133229718366945,0.0035095687193087287,0.045080056214273224,0.15703903599508165,
u44,0.09570519987725892,0.08029015438752812,0.012151445851335716,0.14226905811920368,0.1564641304567126,0.11538105381201659,-0.0006066868731476896,0.07495193861405604,0.00673457919731495,0.12234531493716681,0.020947214784137677,0.12052240937565609,0.0007291876681415514,0.06163434967136508,0.1805061554372736,0.1713797125022054,0.17434085781030567,0.17437905941996662,0.031225658240497056,0.03518556329001542,0.18955096378696673,0.20485714379918235,0.06999261506400772,0.07379488086304709,0.12000713990117895,0.15898077566788435,0.05181093989100433,0.19049190710500646,0.02303450183940525,0.16299912689876025,0.012329508802236848,0.009158495843715028,0.02399339700454637,0.01402393016190105,0.08604912066727528,0.09370625480958741,0.1905834427823659,0.03557261671858262,0.1370915665094608,0.16704628530535642,0.05519064165366793,0.038564480941142544,0.01424278543241089,0.18928366774982136,0.17420462003113807,0.21402511897404863,0.11799915844947259,0.09573412933895979,0.006676691177519589,0.05574934689921625,0.08830988046980302,0.0826443768231918,0.024905726030428628,0.12772377197433227,0.1396908037445928,0.09206612919238442,0.1284140004001508,0.06697452420456027,0.11247237533032416,0.08274651292235326,0.059063940622124014,0.06243914329847546,0.09613014354702225,0.004806971022045287,
u55,0.07212573648012932,0.028777481648155655,0.0315503320656424,0.20574142426535671,0.1770376632700093,0.08403943437571143,0.010613193055716813,0.007887942928069559,0.20574592306858278,0.21803679481432667,0.1066665231648528,0.2163948955662223,0.10496076991415286,0.20954124546781744,0.09413273497761976,0.17049905326294426,0.023263229631907575,0.01544884020118565,0.05254211876506813,0.06851609904066416,0.09238020838532135,0.02247560473687395,0.013629741836534948,0.02671320380340171,0.14797483235800515,0.06773581053787645,0.1574934452207152,0.17572044692261446,0.03551898677012246,0.021023934252365036,0.11102956009404732,0.07511926362017882,0.20712388344960617,0.1619206427050627,0.22365380503276977,0.00724305867281072,0.07406700075625225,0.03846504791640761,0.1452321482610241,0.05980010116147461,0.11287468730067013,0.1487113170512644,-0.004199329858283124,0.09717038356039864,0.18707148977904015,0.22533073918214702,0.1182422656479598,-0.0010947625103008229,0.0014887541448562862,0.06939349900345945,0.13553806466791862,0.16870280779443358,0.0707789355392942,0.12655687357299183,0.10117627478657178,0.054712879221986324,0.08077485293210067,0.014622511840762582,0.06918615021111796,0.060118879431922435,0.042173671332231946,0.15053639040235614,0.07782538004668223,0.20319652399237625,
u41,0.18697071203453916,0.18250698318996061,0.14893962646209397,0.15002922682643743,0.06113545778624433,0.07365758230453769,0.17704461377872793,-0.004664924620775554,0.00955905953340607,0.1788017060022793,0.13291044110518127,0.07510860705580535,0.11361959622165495,0.016278005859546165,0.00011378901188637534,0.07391997710804414,0.018252663228429,0.08101876018235503,0.1896955050197,0.09901966173883307,0.1825478906116212,0.054994585794529156,0.14200343419207168,0.20350087388607188,0.061601018288635054,0.10312836002251904,0.09422733031313192,0.1518465807844752,0.11862036708960058,0.2134130193196155,0.19195285181462104,0.14469106826802042,0.10407971796249456,0.0898289581355197,0.04276727935868233,-0.013272509930263802,-0.008404174801508173,0.046897003841495165,0.16328407360206498,0.005504065316026852,0.18605632282805643,0.10659163156853897,0.0897359499854947,0.002684054025180612,0.14573534587396608,0.20717261970609496,0.09842283065966409,-0.00906577435588506,0.12664556699197363,0.12598688075827016,0.06996081049227298,0.003421603223770675,0.07648846667472452,0.010348343813435258,0.11012939683317283,0.15502156865536734,0.1359215127332201,0.01609680846461563,0.04020233793018477,-0.005583594861599156,0.07007530425885812,0.014173229234612212,0.13463457964789385,0.016999124283900567,
u57,0.15641153594799875,0.005231375064246146,0.1704000918092025,0.029020982733431927,0.15291219860224778,0.023627791891447317,0.011258398948455225,0.07779360623391961,-0.0013418243520626617,0.00719207236306379,0.016891175249593448,0.168295196737708,0.1390504278908414,0.10091425223724916,0.07505140126036648,0.06121004932789013,0.061265041100971196,0.12800324870742225,0.1130764436400437,0.16297252010790225,0.07823835260237155,0.17098908591277878,0.005062266962063177,0.16807056263670114,0.06387192473703733,0.1589660338099246,0.12940457386016246,0.07823354450473927,0.11812961908301678,0.03137314130638375,0.11073040720807065,0.07917578159019474,0.08310129540298142,0.07965616260030571,0.1369810900085467,0.03349802447940816,0.16988070926334192,0.09027029883027296,0.0015402346259107982,0.057033100764814694,0.14157844562471306,0.1359850823250183,-3.3226201537792084e-07,-0.017750320117773288,0.15560460591883843,0.1436384373445856,0.12206142965336203,0.14594656626020142,0.16465716258748642,0.09664693524164612,0.055381993549998655,0.17875714015418445,0.14224047208077698,0.11703801724969436,0.10881028598273478,-0.011513178578240094,0.01662999630599102,0.11217369457569064,0.10836318802881667,0.048155598840106735,0.1792146624459737,0.1653022716754472,0.033189860229977566,0.1528615699123439,
u45,0.08555133170674714,0.046220443917847284,0.2222768036298858,0.19831519515952079,0.18688674511112757,0.13041402908790134,0.06501467882020495,0.16420523735872256,0.061384475695517665,0.15286174176911266,0.131683258214504,0.020270671250159692,0.10508402267805961,0.1742974102081539,0.21586356216809996,0.12112325996616165,0.01631658774475058,0.07939389515875306,0.10135040510364503,0.16656986586489442,0.019519102389599793,0.16942056802779326,0.1511809071682111,0.172578232916743,0.12875323193816815,0.11072122506971463,0.21221097586047158,0.13230482566334598,0.050035435636089996,0.01779235398724774,0.15538851136256288,0.1556328760408929,0.04069985718143624,0.12300560467461898,0.06708378956587281,0.14378481572467683,0.07318256659251676,0.09492875262669881,0.043591949153133365,0.03710214496246734,0.05035872981810368,0.04597764037615913,0.08127438548985567,0.09065357668276194,0.08811517535998363,0.1873556552983733,0.15741066785902033,0.12978975436001092,0.10311345791983755,0.046347874926590614,0.02018816136626922,0.0617062048869444,0.16453409403480132,0.059459420265809734,0.03347460063958462,0.19876466177147967,0.15572906950286547,0.2077810751207545,0.017576168209617445,0.20262789183991403,0.02703991084211795,0.18752360958578182,0.15660451844673498,0.17451722280065518,
u51,0.1505330293544533,0.01820848276021592,0.17790534980436876,-0.004271397393894995,0.075425317037412,0.054156249202060865,0.1507467137993748,0.09021504241705047,0.013758818841040948,0.04769514975405968,-0.009501638290544805,0.09872423217727382,0.09452757149958099,0.06483666070855976,0.04304064096976093,0.20802679170163493,0.04324525292922064,0.10858987202658903,0.15672638301612768,0.18696665342239838,0.18062567649873493,0.025472867253928926,0.17579572784719796,0.06916438897409509,0.09018273960637894,0.18250369258161275,-0.0010519863028315647,0.20235122559557805,0.03495455926124607,0.16076005312741684,0.1529482639242474,0.039046659324404626,0.019478869697087953,0.0918797837644446,0.017563629215568786,0.14552723314531452,0.16316159771881736,0.11553804523102432,0.14130117644613444,0.047084979626791076,0.06627153940416423,0.17907950144289028,0.05402882862949424,0.20458260337598808,0.18949962832799827,0.0006530576832663933,0.09964395235252055,-0.002336996834692825,0.0051674334247496624,0.19372522023498254,-0.004336711226565632,0.14811063959199375,0.13620889636029165,0.12854006718988953,0.06516977955396135,0.1510108504425973,0.07033567306517408,0.010247016498281688,0.13635649560942853,0.006614879381094075,0.06293682319173073,0.1709976832174833,0.126581934760134,0.020177716121991,
u50,0.18576775215134014,0.19458199479598393,0.013069963896346435,0.15004050628423748,0.11798587391354351,0.19784380391163758,0.1858313785149981,0.003356088060297664,0.010973645817367277,0.05590530595719871,0.12039474753332181,0.1167810502658491,0.05681389631334815,0.18146073052065856,0.15907013309013113,0.04198779959657653,0.16590216487270257,0.15464135961204184,0.1180063951923133,0.11595591571768697,0.013220909943587204,0.09270452653801624,0.0726544917998987,0.07704765280121667,-0.01115014131528455,0.05129407910287545,0.10117033742210066,0.021563724947955557,0.10295049173989625,0.030194237165392743,0.03399301748647502,0.13806421223792892,0.07237119743304946,-0.009021349644214688,0.042373069415076674,0.12711055215839184,0.13752146042026234,0.15700632056197947,0.15995822052351735,0.11250254164643941,0.13502001232723485,0.09827598963564389,0.12624247916237027,0.06874102272080194,0.19902695262211334,0.08964566569664309,0.027113400596447287,0.16303347695544385,0.009415596358855282,0.14993231730772208,0.1800866270102151,0.12026119021395557,0.11613902837096834,0.019928617028381678,0.1704233279570126,0.09168475475196136,0.17625530117915067,0.029509600454525466,0.12002536522857526,-0.0003471755485853712,0.09474473595384535,0.07593330654012795,0.02280514362378974,0.19777161448369457,
u53,-0.0032446735366861864,0.07585401889189741,0.05211320093693012,0.18801128866864045,-0.010103531248930674,0.02824870664475924,0.12181795767280226,0.06014011562429456,0.10229924720206027,0.11169707024674934,-0.0045640123085389775,0.05812781543560591,0.10747596820015935,0.1992066523608265,0.16693911442096218,0.03937709456687476,0.039958772180021945,0.17256867602573142,0.14005730735577746,0.13088207962356144,0.12913769720518492,0.19701953569695707,0.14207991048014695,0.007645380367936097,0.03174634456072765,-0.0012559380702617633,0.07465798616447632,0.18196076330232394,0.1791761032814656,0.09649463381798627,0.10924739075480433,0.16756521623560078,0.061605530603456395,-0.0008190134433816517,0.1403780592683325,0.11971121758721379,0.15147524143768543,0.07423980188100619,0.17388219080837813,0.07874268132777852,0.012931804367748408,0.17226954237599576,0.07021634366286521,-0.009721199313508025,0.10994424700352891,0.08796422350454666,0.045515629009566065,0.1410121221246744,0.1552868816722747,0.009401766616569713,0.18526069845782595,0.1982782578271146,0.18632566182183574,0.056217350445965694,0.049033417250778505,0.19359431392696602,0.17448046045525453,0.011256079437724843,0.09712539155545369,0.16748406118102296,0.1410994748780634,0.0525346021393554,-0.00020466374003945317,0.008888920573544378,
u52,0.20195106412484212,-0.005537856784388055,0.02517941367435359,0.07393756997026056,0.10441702572762529,0.13382031732480185,0.0589259015536925,0.005830307455207465,0.16186658248288427,0.13568221083847115,0.06086834690964085,0.04698926871480083,0.05526878580872393,0.015195371639336066,0.1342841419374581,0.08892248958385172,-0.009241353351234652,0.036760656331003755,0.051077344169270164,0.07830169895585667,0.12577336200912367,0.17107505309643228,0.16119109418964742,0.14356045242228144,3.699158083116242e-05,0.07224052052281751,-0.015687290530284295,0.17236361927764707,0.07065355071197525,0.07754968252853128,0.16271497523628145,-0.006143190722329366,0.004519363740163186,0.06225583069925372,0.02334925263386843,0.028557288206527396,0.11686913686441003,0.11474766031942935,0.024354575515037988,0.03824411412739565,0.11938314450443274,0.1692752733356895,-0.03018502243635294,0.005233547584859947,0.09900718351424541,0.2000959437986022,-0.03069971965420531,-0.039244808690945654,0.033611828837118385,0.15318337913518276,-0.02666751980087273,-0.020409570691536767,0.026378403457562354,0.18863968170594908,0.045873062167747794,0.13263490675068618,0.13053653239753268,0.012491000869256117,0.1496832053394696,0.041798271009444235,0.1392463500847009,0.06627404733699005,-0.0013336866223694656,0.13213635868446338,
u46,0.18417697030941346,-0.012329982345526317,0.04880648501664267,0.08246432422617576,0.053939487372713084,0.20078384444361438,0.15205594257157007,0.014518909917145396,0.19811647853073724,-0.014029935350338047,0.21260942351676007,0.018988149373745166,0.10369243911157949,0.13582291593913814,0.12442713712312924,0.1282434923201776,0.06254159351954094,0.12146475810167227,0.07466903005133813,0.06618290839669586,0.07493947251945086,0.11874944570194704,0.0649855491276892,0.07458011857602748,0.041084579002625084,0.07516144426067976,0.15066832350379528,0.0663568123029571,0.05434325841010726,0.13090222773743482,0.025384495362056926,0.10708181660077438,0.1894148105510313,0.16797328185545962,0.20095884341489534,0.07062622262144642,0.12566249901637774,0.06474884355335422,0.08142775548268802,-0.0012840954737925454,0.08369589130511258,0.07642532476958673,0.02626952392623694,0.1392804216347476,0.200549584284669,0.07863270420619453,0.009782337832231609,0.020568363771586853,0.008099485453258797,0.15519834357925769,0.04672892379550977,0.03647047704512799,0.0063637390976582124,0.10918058114492962,0.10623911655042798,0.081068241729003,0.06582862091147973,0.03346100607066991,0.2006249299182453,0.1433016905447755,0.21418989996747148,0.04276669190812896,0.1443655767871288,0.07211548617828736,
u73,0.16837349992605286,0.13705126384156194,-0.002497461617308148,0.04862596271405548,0.07489233457201928,0.033128880438328914,0.19292442408784866,0.20576563004210774,0.09457565514397628,0.002947348801559229,0.16303032898073896,0.1476449382332522,0.1572785462882611,0.15870709905258013,0.1509382134535154,0.06289940317094879,0.12170478464487791,0.10645922209232021,0.12531433121722715,0.09556740095463244,0.20405221389077788,0.12105488426585509,0.1800101754574819,0.025207209521575614,0.15103721397556358,-0.0036138622512755245,0.009246778953734184,-0.004091814501539724,0.05058373740408167,0.1383826478839221,0.18847331278480567,0.06676190754956551,0.07652060266466251,0.08635006766470334,0.0013726530680755434,0.011822092767987827,0.013940353139241846,0.011932496897252991,0.09835894958220998,0.1392806767584821,0.1746134584199323,0.03579551365589268,0.20316656534507396,0.06489256941326738,0.05704633244168436,0.1647808448019203,0.16794862550492756,0.1344955810564514,0.18953875414100643,0.045883875944454595,0.04046729183254883,0.017421960289391716,0.11359418453790697,0.1081187033905885,0.06785927624417838,0.1389061048339761,0.18418957617646387,0.14725445493357867,0.09165721973985334,0.15513831099103043,0.045780081613266736,0.07050232888845485,0.1952965179688033,0.13647793600198224,
u75,0.018040374472327467,0.0032370453560548918,0.1843558929399088,0.060284075848221354,0.0056762246533864,0.19856548901349913,0.20802387286121393,-0.00040459204035459283,0.19522089118891384,0.16284007426777805,0.02616033501104403,0.14704217538888656,0.19840414659246966,-0.006389107784210081,0.06913115173604635,0.13716913255239366,0.13246327718512543,0.2061564153234543,0.04867370686605972,0.020894766077417415,0.07272766709491241,0.010903625440081456,0.03693835541627136,0.03063684160218596,0.1008656611977153,0.008407440542603457,0.17315264030953523,0.06746099215587394,0.08513536312633,0.157741612907755,0.19134213265269573,0.17430947487907475,0.06733015624845226,0.08374612135286381,0.06299690516771903,0.0952848415804076,0.021412712881011816,0.06911316450482616,0.10440531952282756,0.04693217745100767,0.05902016260702938,0.0335785750663643,0.12848616359940582,-0.0070505849321797626,0.18194248515003134,0.029913702501023643,0.023705879683532216,0.16966273704381804,0.1309272513469693,0.1820472933815749,0.11943485585656906,0.17689456274796747,0.10404257065065894,0.06353754777682276,0.21427054289073666,0.06913171945410736,0.045175099324166454,0.20747782006441026,0.038923832648157346,0.0335046935286791,0.06632825361872302,0.1701731464910728,0.0477376649223124,0.19253606005277357,
u42,0.16212648856976636,0.020864097512217218,-0.012904437658272204,0.15708974996042963,0.07150746753895365,0.13825893413502988,0.14308259617585153,0.08652472244599654,0.07140479329268651,0.11386969375972651,0.032070630572478775,0.06309479715340499,0.09914188685676331,0.16058406582623078,0.1318140330972297,0.04481407392771877,0.13364041901267587,0.033453092433297395,0.15218514942810554,0.13103007718684798,0.13718773857138788,0.11290460261909593,-0.0010200760476769585,0.12327809290335942,0.023623678728421367,0.010580624851523763,0.009772679362992484,0.14968302101191486,0.0548414467911279,0.17292077518134255,0.014278084350678299,0.16640328788200945,0.018462424495922513,0.04158060123931689,0.16181372827399437,0.061373828749538055,0.12960362346962764,0.048679969029743565,0.16457019732199185,0.10404689871837468,0.16141322846620462,0.06171225049255209,0.09814810895739688,0.10238580826275284,0.05619577548084327,0.17778973674688014,0.12295800123581424,0.0842089210088455,0.06627419777143889,0.10048510988537311,0.007896233797271333,0.14448093706958426,0.0891235617741417,0.07126955925565075,0.024558877588773016,0.17411502957734704,0.08716356118778233,0.1468846829041259,0.1645437795639435,0.17578366874763238,0.08721432231189223,0.1774593790917094,0.10101310705918289,0.0691151354182773,
u67,0.012689651114403741,0.1855015209571275,0.1925729329830801,0.07198878385746833,0.08423613581904299,0.1901832305737448,0.046505426758125495,0.03895253425780228,0.09705796891979795,0.0238823851216718,0.025452748237991506,0.023132326182668562,-0.005638498495321036,0.13497215316554684,0.030060209947677937,0.024096244029492123,0.20754701766788508,0.19253125435584098,0.14949733209876181,0.14106221501472566,0.09337376363323142,0.18461952171276325,0.010434534513366211,0.00502781025684408,0.09445718680956304,0.13725451214632017,0.0011975323508804899,0.15776538090366873,0.14960863539566427,0.028611433633970944,0.09145920461919199,0.010814195266832196,0.009100179617238623,0.11070641080750135,0.08098257563921835,0.1722283422176949,0.0451864995880583,0.18045081333740606,0.042777685830388226,0.1620145274162181,0.1339867837062335,0.018417373809008878,-0.014361036988505075,0.041884884573124656,0.042029548736322406,0.03193128689981837,-0.011981359144310129,0.06954349002948085,0.09012211614145026,0.059331649681019956,-0.0036843466138161366,0.16582371195986506,0.008550162602702634,0.1635594789633054,-0.006394235302241683,0.1706382330699781,0.13767343319414962,0.11440877244692005,0.00919642604959143,0.06474646949398245,0.10081047271441954,0.11063779223899411,0.18733490677308295,0.19579170209647942,
u49,0.03400318991288241,0.17346333139742104,0.13522298157541407,-0.016824482841366614,0.17259964832770036,0.12202376248757571,0.08372007418020118,0.1311008251582317,0.1531391865727234,0.12347889701895537,0.10866733233290858,0.11899007681965024,0.047830064662663575,0.05895535015774392,0.14011818783200988,0.07430304218884377,0.19182456723509755,0.0785765823847177,0.09180447908407681,0.13475367619319603,0.07818247025155162,0.10789963482232436,0.11241090750352391,0.056902914345377704,0.14663711767492232,0.08645750018892132,0.016661244726615884,0.0024892588615364857,0.1711607122893603,0.024703793560148,0.17896584424166492,0.1183547843002486,0.03834682783636992,0.1549094744132753,0.12311647704057611,0.05238206095261905,0.1898989010380384,0.17600850923480668,0.014591773483802683,0.09432281482082883,0.13402946244280114,0.11002022445591662,0.10947709929471706,0.1390691505703293,0.13469187875024863,0.08497194822203422,0.16724980861245917,0.04641260035834742,0.02078936990465268,0.06181109994854841,0.13437976890016654,0.07662912131444541,0.17830112065489545,0.012530942398058695,0.05704603620099407,0.14496801715358343,0.14537008073064506,-0.018222238225697972,0.011467940559579663,0.15017803210206504,0.12629781111602864,0.09057192579365304,0.068427236733168,0.14530660894438205,
u70,0.0613873949330579,0.1059954675098949,0.10641913114939956,0.1324336529945685,0.19836070505434503,0.14331641015795896,0.1554510079611297,0.00944652978556914,0.07638650443040497,0.08793156477005692,0.11426247982858038,0.07611650296480764,0.17932560583336768,0.08865520097828208,0.16306784614490843,0.18143114119382497,0.03803108845218037,0.12276770266174383,0.1967246599314928,0.20425121208137437,0.008734325054791594,0.09186095111651278,0.19506628488928307,0.11938260966141646,0.20323150308287743,0.17618747776724547,0.09190708538461863,0.10286030004618305,0.08541188269712867,0.1268224431276849,0.15828199718846325,0.021817651745937593,0.08699885891813586,0.0913223174550727,0.15219600593987045,0.03964820558423698,0.13863901371424042,0.1959839912911639,0.014714486056014404,0.2168153286976234,0.17559166689518474,0.1770056071429594,0.12418119208285015,0.08031094066568488,0.20367841869490003,0.1296225095927321,0.05244959422384098,0.03458205074432371,0.048234613298654194,0.04914730113739428,0.1953311165594815,0.04873143764777666,0.08132040774704545,0.1509598929459148,0.06323947593656544,0.06472808048564317,0.18098173824500688,0.07497018525638625,0.09618274327054444,0.12955892633781002,0.018143909561364132,0.11320960014694204,0.03659166969784644,0.17364846112019502,
u47,0.02559858077553542,0.020436792950339167,0.14698956407424182,0.03485466363034038,0.062490366228584455,0.11168513411922747,0.12876169807528748,0.0359925386883155,0.07602934531140725,0.09215364019742324,0.09075634451383574,0.08992197643280027,0.042684876185658534,0.16063484742548054,0.119040638196103,0.051318693030774326,0.18299588641888287,0.12386868124234475,0.16848343101197136,0.025441929745802568,0.18335506554590006,0.08454223246727122,0.09144758502963198,0.05712006143133449,0.01887576279169014,0.19445768920094073,0.11044674589541909,0.19255326490763638,0.1047805444427402,0.14106469975110675,0.019852477800910196,0.10053432893724266,0.18935432599043706,0.1737536200307373,0.041346035485459405,0.18679706479508468,0.12879896049339273,0.033352602742693326,0.11550199815662461,0.116497239479134,0.12243644875728069,0.1260117934570014,0.16625324246790343,0.19025577236503202,0.01703795776053745,0.1280852861187273,0.07581615435259244,0.14333034229597344,0.162076104237721,0.18068354178646603,0.1624760259205221,0.19158055507161073,0.002810545082784155,0.19048282049058957,0.11664624911955936,0.1467410696143711,0.052843925224025305,0.07996274981925479,0.05324732434831316,0.042325591489849705,0.10258237537655586,0.010456403246541837,0.1564946822101991,0.16047318682542244,
u24,0.12742248795412875,0.09975431036194786,2.8853524813951567e-05,0.07934239702512848,0.1098722365299332,0.12871580578560352,0.1861168550599334,0.08615119415738652,0.10040904246721155,0.06517012657105534,0.06187860704127233,0.2054707740693877,0.09237055536568502,0.18830071017785877,0.12089129190302556,0.0621967546434072,0.11637785188786058,0.14049773484521086,0.017782149123041494,0.04036983830527792,0.0006531231594324889,-0.0066112413765966665,0.04746263277949777,0.04506484610638697,0.08977101291000347,0.0727548803665256,0.10307116772820608,0.20760644054359567,0.20146930597983093,0.12939570504051778,0.10499216847318135,0.1285743147320984,-0.006101928097600128,0.12459154736721946,0.1836908380037874,0.10270812503628535,0.18696347479909517,0.047293621320160704,0.0892956539404548,0.16646312208197214,0.1916763599828302,0.06779871120472553,0.059435834319583845,0.08291078326614076,0.07340892361294202,0.11588911459887727,0.15634940802311725,0.051250759249016745,0.1864814540102385,0.09433391265409886,0.12997584165576512,0.08058836047768302,-0.00255929310810648,-0.0026399924076538884,0.17446473788181618,0.15102821029665475,0.14985134725347907,0.11633825361801055,0.0832119668901554,0.10245963962548554,0.1457830946093097,0.14152363148261013,0.028216207211044134,0.13901413507755178,
u25,0.09307527139710907,0.0520018845117483,0.021116969663000664,0.10350347863756136,0.10713060990433858,0.06184411528041032,0.26815534549350484,0.2439959912335523,0.13876304385298033,0.06397536974736064,0.20233158473671756,0.1715821254181279,0.10754415803644385,0.09026857270616752,0.2055644789033116,0.23522914494936786,0.0567364187581093,0.21921257303782518,0.17468879361207051,0.09244129798920546,0.0425019889007097,0.03757020439405612,0.16624861281317913,0.13443507036239394,0.20515618885248693,0.08147200232807343,0.23075238484006444,0.1983114779175881,0.13456169715032087,0.13569831353962555,0.12112683910777867,0.1440677461502651,0.20919095722498227,0.08107851984629418,0.19048651402090422,0.06789130083872688,0.12163607525916836,0.19644117616517276,0.07052467703792,0.25682093268715367,0.18465248179988542,0.12080087291161941,0.020005218056374372,0.055119705621422654,0.22723075085315175,0.0708014785265924,0.05872729285531592,0.042648464556335634,0.02226537845370498,0.21787328063506936,0.24212477934179927,0.09970042065310836,0.2559379934376408,0.09013194985419982,0.17729344157038965,0.2507127065146107,0.2707949374663169,0.061554869215999175,0.06710463008294927,0.06413809523723862,0.15415764338657809,0.1547110905625654,0.17268195791752305,0.14568293611469887,
u26,0.12514531832848258,0.10072299159646413,-0.0034792896984886914,0.1405893032564626,0.1668021996276635,0.11845990011254795,0.05913193814739874,0.03473357651407416,0.1425165365237772,0.04453240289110369,0.0850649099474909,0.012257291559241103,0.02042192957973942,-0.0010570965500883997,0.0713766466122045,0.06623517220036576,0.12855932259859293,0.0831691179502788,0.10794598535269682,0.018667350983449488,0.056419478090304516,0.006524512270901293,0.16067115929782586,0.12502141751923979,0.13480242300642933,0.12465175953815621,0.048310120017575925,0.13199397684400996,0.0989595365751464,0.11151257631631392,0.000713917338977491,0.07457274657912849,0.11209872283482168,0.15542772555917617,0.15854898365744916,0.11336987649060389,0.08901458051110292,0.07369454308769377,0.14972817059503182,0.17252343656494892,0.08181458219365792,0.09676307549972762,0.1191879389119622,0.0179888851328872,0.17531645523143832,0.16171619197275258,0.10852949727405663,0.13797559726455022,0.16736131281389835,0.1391024150609873,0.012682245276167434,0.13464851105344489,0.16576749636270025,0.1453316432543458,0.03429822511680758,0.17432901867720624,0.044904869204893894,0.135579113259741,0.09745366634474671,0.18208030223530186,0.07257689484639923,0.16346526845244413,0.07577255135855848,0.01246870709590089,
u27,0.13443529436513232,0.10003453862016363,0.162674689054827,0.1467662418746541,0.12006754989733903,0.02825373055788407,0.18040222467766776,0.0070837130499130894,0.0009836536252146395,0.14146005084461674,0.12841456729732378,0.08674525191059373,0.0024057287847514203,0.057473149236102763,0.13170421735761004,0.12479643527929249,0.02712452613651081,0.11505921624103595,0.02173267126657556,0.1829605950992446,0.1444373381491088,0.037182013163524916,0.011249634689733804,0.051751414785459256,0.034017425303909284,0.05060422534093429,0.11091704921229115,0.1388017516117714,0.06649218632886349,0.1606078226172882,0.12985440400709572,0.07592820273349486,0.17863800766594834,0.19310319937896075,0.08776340360092257,0.13020165047890023,0.06263867043955379,0.1442667422423846,0.1654375504349613,0.09899900956062842,0.10375305781375888,0.18371200445388158,0.13952458356858424,0.16967012241829993,0.13885616851998994,0.09347787372290962,0.18023119266576215,0.13012260714330257,0.01784623688947171,0.1439498242260954,0.0008263259504087871,0.07333258917714806,0.1753278391321916,0.045767276407547436,0.0059035858185675924,0.19681658095130497,-0.0028210393127054735,0.15730897729243462,-0.0043679032128387365,0.0236532312318068,0.12160723334320965,0.0714981805869325,0.02367458330197778,0.09231301392720605,
u20,0.1795605974710623,0.11544623244570072,0.03581680544101746,0.08051379018473079,0.11625436503254626,0.04440413497278178,0.1212559976995645,0.029538900016638708,0.011493354903347344,0.005644752322131438,0.04108969512537438,0.22298236312148037,0.0013848222234706046,0.21569910260631034,0.07705028748526731,0.13191083729714953,0.21342517234633604,0.15119306266950144,0.1396757381231361,0.03469773592118407,0.05439922369135154,0.14436822673167218,-0.0032812668748258226,-0.0049841068254531315,0.05226069028430048,0.02463518275927739,0.053979402078199915,0.0013467621252107429,0.06040349082626415,0.06737473591009552,0.10661216634732486,-0.00900132385336983,0.1607156418942203,0.03284018198272233,0.19477315801171197,0.036607249651597965,0.20270998211874275,0.07287105538750302,0.2257694859418742,0.015081037710836713,0.013798063531557478,0.15752797285841133,0.081217590650212,0.02528007368911671,0.23241945080834495,0.134464453514326,0.08084996496087134,0.1643503666231587,0.10999089989492408,0.17435993828475746,0.1804790032066028,0.1607534588251137,0.08821751116757917,0.21813596013405895,0.031094586041137177,0.16405600711411594,0.0822412575480563,-0.006602013665091991,0.14213522743693435,0.012747893596659208,0.040379985556950944,0.0920222081054008,0.08827822626434072,0.150079224315361,
u21,0.053036154762285355,0.07481215801109117,0.035454076322105434,0.1426012452682788,0.1101166057751398,0.012250098087578447,0.05390079697474524,0.15442633020902707,0.14122986793676845,0.20080871984033385,0.10063539903050983,0.21961516213598917,0.14545731811864154,0.05881563497581442,0.016696354950821564,0.023144662744685546,0.10970156810554155,0.13376223049945662,0.14468180641993045,0.06608061212838442,0.202644820758283,0.13282674098575495,0.18631374998108652,0.14098350248227126,0.2031783088389652,0.19538926293248624,0.12358006032095448,0.007581712155117559,0.03917396741783099,0.10134591683338331,0.010539923704458805,0.13018075874388002,0.07253277758989492,0.12946848714706652,0.06374268073774919,0.06625958706253592,0.034439602487461654,0.11630721650857503,0.19155598813903854,0.17139643814584568,0.01459008070731345,0.03591592510436337,0.004121380755692367,0.22111383748915897,0.14139018640860893,0.018963052855521786,0.03880724780676882,0.11242210895662089,0.16380621502033602,0.11453247082171848,0.22014177446661443,0.16209029921222967,0.1269113349918497,0.20602933680129695,0.07041223460444544,0.09500003413890382,0.2126649978500608,0.049399850313819445,0.012885669841583796,0.19320219834210173,0.11022515352438225,0.12604602511357724,0.13168247539503392,0.02695539531202762,
u22,0.05038148362329782,-0.014508078847431567,0.027582130517358878,0.0948553161030623,0.06236797708999865,0.12471080031254136,0.04311168999935886,0.18663211594149065,0.08439982926095886,0.08008737144570593,0.2123363642358909,0.13729900987872135,0.04832346538168016,0.18893729571065698,0.08364834267578462,0.15551234731850463,0.18698007773111408,0.10123063497626879,0.04391982218568173,0.0062784045229381255,0.20422920351244803,0.15375776808230554,0.19393542136806305,0.09952056068791204,-0.009328213542325747,0.020362501184789484,0.15571066968246436,0.14703800286242857,0.12573808714102777,0.19419685742496048,0.038744047978029224,0.06016534783254901,0.01823077281124615,0.08457380365570637,-0.015961525437423612,0.09558714658369123,0.15229543614153268,-0.01887962868277935,0.013749749993759676,0.11035666957843157,0.004520612009691576,0.07609401794000892,0.01685889163095409,0.05672824622818811,0.01999074855306186,0.12749639946077018,0.004732829726999738,0.020556628078082135,0.024047848246704487,-0.002795751858285044,0.06003711660652018,0.045022730052806936,0.1406102666119744,0.1516243239749568,0.09720771405771245,0.024721861605830942,0.19480530794200318,0.050816383497907965,0.2126603518061775,-0.017115676306952175,0.167854034887908,0.16001560071914742,0.0066843699944419965,0.1086173223479941,
u23,0.0168229687133087,0.1043148040320315,0.0737687625073745,-0.039276627464439516,0.040452730404676354,0.07393881406268475,0.053956130117431444,0.08935942281382998,0.10775201431059828,0.04643250354489822,0.04709643948958226,0.022187368857120877,0.14121540434104993,-0.006471733887246784,0.07188245752294098,0.04233821842931991,0.14947941196284073,0.05030493320083466,0.12071758097978193,0.027277784864026187,0.08885550009380364,0.027119190382297438,0.01594784172705887,0.07161595379202225,0.022695827687566183,0.009304161360148989,0.07697714826846996,0.22167170380291853,0.030889803501318144,0.1529497549952294,0.07802545948580882,0.18327052810827468,0.07784185822000896,-0.03359049693868883,0.026036733563435797,-0.009442395434921811,0.04424204158590437,0.11910487102694602,0.02539668251675645,0.0368203516109839,0.03943666772718083,0.1901008590443228,0.02645886541048024,0.042603409706729274,-0.0030788698766873045,0.07087144520615829,0.05964169557071602,0.04374325475248387,-0.02928061488003353,-0.0021864807534641203,0.17494408293025296,0.1821058320971762,-0.014277834840800738,0.22191639973766406,0.1735573133100957,0.13986854706016144,0.056860772498006855,0.10237625541077819,0.07612053878502609,0.08856401461637031,0.10886618307779543,0.11160182192469685,0.18933398400412277,0.1696560217876231,
