u440,0.04433633432277793,-0.010296889047329304,0.1744416579764285,0.08941008789858963,-0.011014769707741711,0.09424510995455408,0.01765488496199318,0.12513763423243218,0.11109315600115405,0.14425205106213673,0.10066900020692504,0.09188859732626975,0.16993194625642233,0.010627394361513259,0.13636572541526087,0.10942718819148306,0.11914485277388831,0.08466721642045809,0.17994570398905357,-0.010881997832337235,0.13510578781496652,0.02965953142311045,0.08649459158559974,0.12952556964199713,0.059427456888853175,0.032218281527480686,0.14259111033460653,0.11023067213776687,0.18149638447401398,0.10858962543493748,0.04028714612973576,0.0677355488297395,0.15162222970572098,0.1732880056101298,0.12154064888284226,0.12269154500369275,0.13561728501405465,0.14630919971696754,0.050105928731848326,0.1796693885091067,0.08599038960778933,0.11501877558205235,0.09097728558736803,0.040254537811607684,0.16395647912811834,0.0236798384308557,0.05756507092629414,0.021856466065436043,0.032603005890358264,0.06811418134807937,0.1785927708572075,0.14805415221045232,0.017280374058389773,0.18249215907597827,0.12449211924606882,0.16105510597568698,0.11258030034611267,0.0214795860494496,0.012247726096942252,0.1669447628072057,0.1507775980803754,0.12804620861791105,0.08097139962876185,0.1291010155098323,
u768,0.10412385977083594,0.14868279999723072,0.22212551277521259,0.14628562104951226,0.019409618169155398,0.10287071099735579,0.10474039247902937,0.21758854175704792,0.09152370766994666,0.06545698633508869,0.14465860350527446,0.11360430775380308,0.07672674253877639,0.20358116452665045,0.0005794207839202513,0.13094219164705728,0.052812464938314485,0.2217934116858819,0.007534047728449038,0.028419249944743562,0.22307817904407842,0.15706523330353656,0.006629008828793754,0.11063470496610084,0.16704365374031188,0.2237464750443044,0.13329327227295584,0.09836240114186426,0.0398267339926689,0.20316817882990595,0.02515175573723449,0.0587703943492623,0.11112655605043929,0.046973516458918015,0.06168337315716101,0.20841461249473972,0.2215089509204049,0.02081397748972299,0.011728799660441897,0.019912756117413343,0.178603507836733,0.1524306694978148,0.10749396900394456,0.18645046841163762,0.05968531463665398,0.012802568972189659,0.10896985223859425,0.21660557403839717,0.03061665145165426,0.11269090331827006,0.02122077968432667,0.12331808451502237,0.014077512708192711,0.11208949427721057,0.20645965252612875,0.08220434290778161,0.042829090847133516,0.061339518605395785,0.0986818673665457,0.10742888435376091,0.07211330448893366,0.07618239180348667,0.07818656919151619,-0.0005454675698896207,
u769,0.12303170257655738,0.051322050360856096,0.21401763138726337,0.0015656806220112102,0.0596815408456155,0.024301850683833684,0.12295319217050044,0.15384773975460245,0.15373259695248823,0.05715361055839626,0.05798829006635638,0.0030161727180246876,0.06374335076063013,0.19183402369156843,0.18139094107640555,0.19124619265215048,0.06973284281138359,0.04851493051785348,0.19841624047177056,0.13985177334871288,0.06459619671374749,0.173643796227849,0.03789274184803323,0.15721213914886303,0.15500779867356895,0.13768963320323124,0.12572296851955095,0.17037477949745025,0.009790413912944785,-0.00011035433569691576,0.01570633556498627,0.0009732233664345646,0.19495413062778716,0.08362857105120017,0.11029264006579825,0.044612911831589185,0.09851379631085586,0.1156105572300485,0.07684277635671964,0.14024457314476507,0.01802861385321687,0.19310567608191473,0.169356982585517,0.1191570922566902,0.12271182668775497,0.12570925562667276,0.12534741607308333,0.14175055411357854,0.08365504402563015,0.06716843375083131,0.2020046481184794,0.1948012836736687,0.20707514740965902,0.0670830251593405,0.1907070721292251,0.08938862690385399,0.03491108228326051,0.06499749217310737,0.07370919343176112,0.15802105527219687,0.04781477146124908,0.20381748123638047,0.05447855295609608,0.05313178272942594,
u767,0.18695003672200491,0.00489176649111116,0.12611383138144083,0.04921116144516432,0.02828486908820363,0.07062115896445238,0.08940484839935463,0.12706652685167927,-0.00029674934428330094,0.2240217440672878,0.025720233679777153,0.1536616201445501,0.05683571979502167,0.0248342560645932,0.1579648099508317,0.11018772425855387,0.08428575134872274,0.13969236452640663,0.026847021292845403,0.15607901387785095,0.030718637726580133,0.11874535739675988,0.05551026809195774,0.029217112558065916,0.00017345691665134058,0.0232276523009792,0.06077027782562426,0.11531963481946447,0.14606715309372184,0.10066190505641583,0.2133379436576672,0.016238339002410788,0.17885164222867944,0.12132925180802248,0.06555572267471614,0.05060878497227089,0.038397449806229174,0.050463628011551125,0.053565481546788404,0.08705546025840033,0.06716301257247027,0.16063217696223128,0.21119482555142632,0.15387653487570907,0.005975007941406112,0.010942985252024015,0.05199477715312089,0.21879112122785938,0.22228378956134295,0.06243533664119632,0.17432146781133412,0.044829107323851265,0.12853716224417128,0.05767677502012221,0.1386214361173052,0.03799051562959366,0.12377835067860035,0.14058642157114332,0.0922752830631173,0.038846175635584713,0.12733450036297006,0.09052320151426559,0.02841891349080008,0.16399070129930532,
u182,0.21024227945078122,0.05971907932261933,0.20145167324175714,0.07365575937150555,0.11539141510132277,0.08247389096166884,0.11747253797061902,0.0408790599312188,0.14121343815162973,0.09676772744281766,0.14489244959264408,0.20943755472051054,0.15846048542161387,0.05042295229637004,0.12265933158107667,0.03239757818204799,0.14485220296708498,0.0384801159920971,0.21929957165754796,0.1574863215800336,0.13349024875075924,0.03522391609124258,0.06793461022575226,0.09867707477682118,0.03188049056320703,0.02258586402091191,0.005070815216036677,0.022907578778066852,0.10081058882887761,0.0774096647980338,0.07926854198913395,0.16544992692182126,0.04555292049074676,0.1277942918152428,0.02555087876810418,0.01567974749087059,0.04509433146406316,0.2117307656943297,0.2154353098065256,0.16081054498960545,0.07258601573219761,0.19834264934392296,0.06869253141604828,0.15366458982703554,0.14298606093331453,0.14182431548894425,0.17338361047119472,0.11600539617108657,0.15934306356214187,0.1113489934318014,0.07129844016874891,0.16723993422735786,0.08943268436911644,0.18795280020922545,0.02498618715849236,0.0038499304633215405,0.04255861354419417,0.06727528023794144,0.08019455331055833,0.010971069740940483,0.11528747014375372,0.20418577771537028,0.14725796977036767,0.09215726204451857,
u183,0.014658604893799403,0.06052407505196998,-0.016527045475606465,0.1176644065408034,0.14974737710335614,-0.005867969908244253,0.03181939726909186,0.009654611152549007,0.17959693712391714,0.12575174672169212,0.14454460686637607,0.023495244723832017,0.09668928456849725,0.16089653729583386,0.008399105597560342,0.12312270429023557,0.15045085359307475,0.1975829238069781,0.10491915986935516,0.11545474376212207,0.024681876143722786,0.06567990795825868,0.09755716502860075,0.07799109394541502,0.1477577931471539,0.16584142104902833,0.05554774107843459,0.03366109343950423,0.0238826873470866,0.0821574951701437,0.14111908668268497,0.07934921652280048,-0.01479004411107545,0.19336642391940884,0.19485326073172138,0.0037972566832845597,0.1581174587403927,0.13479332566292399,-0.020537248894621375,0.02921509040063203,0.09137456886478078,0.03902519538866767,0.005983777243401115,0.008342320321042686,0.04598012290544164,-0.004256022211760675,0.1744242926789124,0.0608836695253691,0.03546140066867422,0.048158790641104766,0.16709696872544383,0.16731059819524965,0.09612574741996184,0.12216192456296648,0.18430591065838262,0.12755772334399573,0.03726169284385714,0.166770374817592,0.1646675190711883,0.023011544062089186,0.14764148695371718,0.09101659548624802,0.054895948403276676,0.16342923816225308,
u180,0.13123972396419156,0.12275002172054934,0.16975591139865223,0.02742336248522767,0.18750728796677513,0.0021665390364887373,0.0655545206753592,0.06161393634256715,0.22415888210812845,0.08382466364236499,0.07996272560978916,0.03889058344030062,0.14643911728711104,0.21021400400437756,0.03146543245305741,0.22228756046418818,0.009882589594186593,0.09712183339509659,0.19936603795407143,0.05640116560902429,0.22494190202246642,0.09184807165902764,0.08546734056386926,0.023816936501366362,0.018680582774481397,0.024451288363648398,0.19484649651128724,0.04224299680696541,0.03813153283401409,0.010374945163350451,0.19055741225828401,0.12611206683286666,0.06639982848045226,0.18331193887942576,0.14770656532171128,0.09564310852888609,0.11452044767555927,0.1697996990212711,0.0975307789670178,0.025554614107202774,0.1513634419005869,0.021049404709317248,-0.0006585104189256804,0.17861318891435313,0.0020643451124405824,0.1655679844546899,0.1757878504490984,0.1550114512905045,0.044365277772931054,0.13428703039926823,0.16315155815752924,0.022649245219277372,0.06784934805526184,1.0995313314156331e-05,0.11128223054905607,0.010512098799878565,0.08818654364451972,0.05328722655937881,0.01459532778283477,0.14844943714940362,0.21292189650168164,0.11559081391330771,0.10090804856539917,0.15833707235663064,
u181,0.19197319995504183,0.10882091632549461,0.012092327491562142,0.011229166426608704,0.1273717446750252,0.1431871470390652,0.13451760073353575,0.13655074542472379,0.1627526577463537,0.19508709191593693,0.051388802966874765,0.17461994739214898,0.06649623560848048,-0.00023456010664128419,0.04949208080790519,0.12498663582326593,0.09552544283143735,0.061709388302798984,0.10422379043696074,0.028299202802345297,0.04187173003597767,0.038588770399607675,0.1162550462564317,0.024799337861082352,-0.004619287324410186,0.08339204438587594,0.12268237695384616,0.19197833126275737,0.19567531359129142,0.1926933843163465,0.15765223701683787,0.19177492694038392,0.15122344086156916,0.04799480771925021,0.12358592334108011,0.10932840450199852,0.04635343983719165,0.018387722119396637,0.13281840795792374,0.07665450009305066,0.12447557373912607,0.03550573803993091,0.024937626593169882,0.06596544134775628,0.19383412824598606,0.12023116598472008,0.0972855383992998,0.10418053500858812,0.0008722514454424954,0.17270543353970957,0.019718819390207826,0.1368945606612509,0.17494221503115504,0.09700521043216692,0.12184344736241794,0.1482491123440051,0.04824431965556479,0.08743816811508855,0.09120721383797446,0.10811372394742307,0.006310069899593996,0.15030774684592824,0.12951067014794132,0.195039738532371,
u186,0.15571237116828254,0.13980091294865352,0.08357184424383368,0.10086809256488397,0.11249205512972922,0.15268145166726352,0.09186859654063945,0.1365280424995601,-0.017780271966747984,0.18058589432669941,0.18536071364598242,0.04458820398421362,0.08108620754566266,-0.007067938713360902,0.08107539962136515,0.18716799735716064,0.11806855274005335,0.16096269244141911,0.0354196453589928,-0.009545837070781943,0.16681317517022742,-0.017206904719587062,0.1671072657227025,-0.009138810775032783,0.10575491592759435,0.0415070764234372,0.036416336034997,0.009319762183291029,0.05426914323984556,0.05474842784733796,-0.00019546534948751944,0.18904153421634526,0.15176091639457145,0.19552570645558107,0.18333554686503908,0.13801191601791193,-0.012884124465150545,-0.018191189799302242,0.01828754081166928,0.15889381414398596,0.019181639448587383,0.04823795602254856,0.068999783120696,0.0025813963488856293,0.019175721845553023,0.044206777903132675,0.034256076807685235,0.08759235399560646,0.15750985864950795,0.026224510730517816,0.1552882417336122,0.061712835602450715,0.14838997690096598,0.11205186107494537,0.16572233960825195,0.1777071513099022,0.1071340265828584,0.04135290202805297,0.051099234768587666,0.10297335728792165,0.12544910016859145,0.0738420221256239,-0.013776849675716518,0.007998176035327131,
u187,-0.010090853949911613,0.05676216051113845,0.05164178483729965,0.13363835217489708,0.1455254029871255,0.13092525326406854,0.12163053874606436,0.02878309255926489,-0.005014173194441575,0.05623977822590679,0.1330456749218937,0.15373033547903084,0.10557000242270191,0.1121139834358674,0.14085968703005333,0.08362313862927111,0.02277567924263055,0.10541113598342147,0.06357055792647107,0.15650758235944942,0.06889582828179464,0.05328494592649915,-0.0017619676622880756,-0.0003201063812271017,0.09217922032588528,0.07725115762850468,0.07957115305254606,0.08926818418718957,0.10610850341240428,0.19166057298578756,0.03215435006033354,0.05456967661230008,0.17656110966930824,0.09734740611003766,0.06985803509362164,0.12415234422866994,0.1389755333535609,0.1258159886356306,0.013239037027853045,0.15439586314094653,0.16182911385789892,0.0575784740582333,0.09003838255439804,0.11596381998904215,0.18575984999372933,0.1453780458162916,0.18378649667438887,0.1314159741236608,0.01802138401581292,0.02859969179509941,0.11823476512350059,-0.011345055230406702,0.1598169011669202,0.07966956222319865,0.1221043982752593,0.1701588370797845,0.18455430556390867,0.16635665685657394,0.1642334055265923,0.048001962083090384,-0.012468592104971326,0.11030881283688003,0.12051818560514233,0.05077031174664069,
u184,-0.005357967229593157,0.019440688509902937,0.17545969708903378,0.009402360577953982,0.0826191485112062,0.057712346207131365,0.14833503905698983,0.09368905518064058,-0.005352884464519854,0.17271802129571023,0.054193372818947,0.057792735312697296,0.13059986325554793,0.20117618956289973,0.20009323272333973,0.03467397772113766,0.18569112617394648,0.17650458554398143,0.050777505158422095,0.19378619743225367,0.04054059738701376,0.09993593608010293,0.04248844910999318,0.06899625460236644,0.1448792403065105,0.19776887604421228,0.018629461169131306,0.057483965159987126,0.08218173525755289,0.11834958360598943,0.11670721137981993,0.13882517638589326,0.16277247303741377,0.1127603985395304,0.015992716537307366,0.12203434743945629,0.13115378523189525,0.10220485921887078,0.03910444230335949,0.06326345652244567,0.07591407676925327,0.20023741993759933,-0.010096537531468367,0.1506673839598831,0.13601249877683733,0.10476270583713175,0.13932149831857218,0.13019650741461572,0.06201726260877237,0.11737046094967163,0.168009975147557,0.122940709502458,0.043400007527497654,0.039870502521615704,0.16741945653472157,0.06655675681919533,0.06189403043966533,0.10135664103683145,0.027059975146498393,0.12018491028948855,0.13504352826148575,0.02541604592322673,-0.006718878986857018,0.11791767581520772,
u185,0.029490746675800466,0.03447449907162894,0.15479962076182924,-0.0034388703516813946,0.13072457517530883,0.08753325167727947,0.11453979536265874,0.12659727237738116,0.19781976353006636,0.17712350762487467,0.06149586107131169,0.004037115810484605,0.03820128538542986,0.028013275805300226,0.20606823778697456,-0.0014556973517366363,0.09961525071997951,0.03898510824743331,0.14010154434795763,0.1472037581452732,0.04471732220941315,0.12697061541810742,0.026540745085095244,0.09476020602175542,0.1890166876415316,0.19827336771711576,0.21534886316885235,0.18929347423363546,-0.0007483097559944524,0.04694068071973496,0.2132949386805721,0.1790224013437883,0.01795976514901368,0.04683349467618447,0.07158378659702838,0.11686875034419181,0.14722707313351852,0.20126068926558366,0.013888053181054702,0.11855161193258683,0.014901608535018544,0.10204789193805355,0.10575404670458997,0.12193325355794203,0.011118422515148196,-0.0009190187568117421,0.1731562564627282,0.023710604220297575,0.1607871040286474,0.15817048201625344,0.11389830933269385,0.10132225922116668,0.02617642763661145,0.16751518812065738,0.1499749234986052,0.1255029267779461,0.03466983957685288,0.04439369864038587,0.046510857297197256,0.11153540456231638,0.20422082001634012,0.08137626597726498,0.21056259156221988,-0.0008902043975181049,
u223,0.06144440102297469,0.004473255569125292,0.1079441093556226,0.12573108864427912,0.20328657047307808,0.18240653081211705,0.0127565972283372,0.005649780677141171,0.1877551934669655,0.22511605634801865,0.072077903981394,0.036686912570732325,0.12185991074030719,0.11468496112140772,0.16758965865574235,0.027025251969686036,0.02334652344258903,0.11471527459633198,0.1817607039097483,0.2122613758830717,0.041353650536077584,0.13494494065217633,0.1781242152017284,0.013326117866741882,0.042955902877738324,0.04317546689185038,0.06676164103392165,0.02400573403238357,0.10989516890605655,0.10043570671867262,0.15649598847134497,0.19894901196884335,0.11189389549304059,0.0004345974901460071,0.13228376205686068,0.056296973065647384,0.17625677502778267,0.14322021065304294,0.012032948222286056,0.09838771398221169,0.13950138405730794,0.2192017750541834,0.064942265929579,0.20682585102262513,0.23139305311845085,0.02296293067953619,0.11709754150752641,0.1437063728315257,0.007786417910506319,0.15440496933916092,0.012088384149041334,0.13910739282511927,0.00731227516439396,0.0333373569145469,0.06725882611024939,0.07226803483838289,0.14240863798199122,0.1632190485689272,0.015630456184016775,0.028530010053939174,0.19635909650656275,0.0874577212237987,0.18832763581578052,-0.004119821337873638,
u222,0.019546088918374418,0.15284348073151371,0.0006682437158380074,-0.008068264401969142,0.11599928244888473,-8.56535358539895e-05,0.10233958582244279,0.11981679914984938,0.07327818119421603,0.15754232404336843,0.030622235007324666,0.08950599276808875,0.13713509071293434,0.18026554230750913,0.12404656405105836,0.0137292871203418,-0.02457811620454497,0.08304267526168793,0.060152004742478934,0.03670098440774093,0.13376023551255037,0.036483012404442884,0.1741055402016873,0.14326824405821695,0.03090694440257377,0.131478796327385,0.10944667364123224,0.08472017353030034,0.18112036556600167,0.1846964539083886,0.09512636646079072,0.03406387699000081,0.11401744256161542,0.048365241179640854,0.007798213490502006,0.07057264826399133,0.10658856157152224,0.16187351250321128,0.11566348146853571,0.15442632145370488,0.08185650100943813,0.07667638075093508,0.0641906618215822,0.08461506702109357,0.11328787438057798,0.1569674563082867,0.06047432707907514,0.16580903630814592,0.11885449497184916,0.09103873281331391,0.04634369586611196,0.12671530758393965,0.09442606965556949,-0.0023802352024888543,-0.012652741469299674,-0.0009742832404980562,0.03203967195922959,0.110780840808262,0.187278189110819,0.07129412769946802,0.114293289434416,0.06698580548725132,0.12390781270266034,-0.013088769910040323,
u188,0.05897746890739308,0.0328538887902382,0.1930005124421078,0.19784321105942487,0.0902543579789415,0.1613953993062512,0.0891025943016604,0.054236806914884673,0.04163111817871341,0.14625719266857226,0.17611309930547472,-0.00591551030245957,0.047486458616073,0.008135429096801828,0.13185787793071527,-0.012715548429755856,0.041878473928220555,0.03502005467492295,-0.012573493776329624,0.05433166947408603,0.013776424870038545,0.13122099264327816,0.013053560346847671,0.12461316243240537,0.01850797697483407,0.1570682970065324,0.05784810029501269,0.03604139642509781,-0.0151246791953934,0.10785958593941404,0.10253980515987936,0.18359838243041707,0.16249023370025062,-0.02020053228377912,0.117684755961234,0.16461662985083927,-0.009822068764949832,0.14981032605340655,0.1863374414277905,0.09284546144467337,0.011196784970417959,0.11793975564379605,0.1544422091239421,0.18810561044891533,-0.007931040769075458,-0.018412151283736456,0.0913095830170325,0.1484231372583997,0.1904191193387686,0.1702408812294361,0.1909810721071073,0.06397036767100887,0.19253600654681907,0.024761135445179147,0.13100953940190105,-0.008488827349664774,0.158257902403749,0.03844264584764094,-0.01456254915511261,0.006103686269321577,0.06074757414458748,0.07890276333961824,0.14046003773229837,-0.012183959973829725,
u220,0.04517607469826174,0.05629780728061921,0.010697408615313401,0.0940889093178732,0.004935569816340026,0.17555646457007842,0.15309085069131154,0.15259348210749624,0.12293852718885892,0.08083675499629031,0.1585399684888218,0.03633227673582169,0.1657360405493864,0.16439565950712376,0.1743251483544772,0.17464254078084304,0.05344793258489154,-0.005643197176053323,0.1437821481778649,0.026064810235060517,0.17470863717433358,0.005712567138006391,0.003930778888773195,0.023302293646697992,0.038998040733871885,0.0366468042558732,0.028029863513490218,0.014730247874694626,0.020181701651996616,0.1447928266409557,0.18164089900992975,-0.008276492092806315,0.1766053115487962,0.17810569033666762,0.11918566316543881,0.17233694063422342,0.13648378999836347,0.057467308725717904,0.1147740984915854,0.0034451743691678925,0.010361900266740926,0.00670375489699871,0.16428254462734196,0.17841051047655,0.08522179546172791,0.03359541694644444,-0.0052790054983402925,-0.010521011162514833,-0.007480487872815,0.017393416312914602,0.16919159574277245,0.09054768886024396,0.1472601699245486,0.1505632788758504,0.08693055143479565,0.06247754504566723,0.13965908612144629,0.14252927258743747,0.006516261327796352,0.08312096315059295,0.010173487142717815,0.021570328733525736,-0.01896099681118725,0.12446066780217158,
u227,0.05637845911172236,0.1803109142246302,0.020060547512186094,0.1625080006436177,0.01051682496412166,0.12463079125090294,0.04379787955738662,0.10628966518957801,0.17527130035235527,0.030876815146151506,0.06646505958013946,0.0015378162677070777,0.13453334153050367,0.0329275126683634,0.023458914836785173,0.13457998313976188,0.1530465271986468,-0.008219321814109485,0.1917312224205604,0.04649941935050473,0.05723567516564513,0.06209557504177441,0.0037600723508973066,0.05517880717721342,0.20104586315315978,0.06514176238918419,0.13897718215088367,0.09212653226531407,0.02511108029453313,0.12353198626275057,0.2137688635864688,0.10732480289861455,0.0667813979481552,0.13393989252512212,0.21738163243327835,0.010282149834996934,0.0008755526771696317,0.20774025180049238,0.06600936300407458,0.059989510990010125,0.14783014361855715,0.012358865337045048,0.12084544111591373,0.02765281747518763,0.10236975639812146,0.013588688267736371,0.12402354269113701,0.019927668918314552,0.042138598010516386,0.15445784743575353,0.04191777275035974,0.011756137894667371,0.16213964336863187,0.16143230676630685,0.18972964609516932,0.12125787813276034,0.09237549078479827,0.20966286491339978,0.11599858107964041,0.08720823162712239,0.15265862279280354,0.11648583677697064,0.2104998046252258,0.011243893867237197,
u226,0.026216102607783065,0.14593040854556644,0.007012856910004965,0.002219840034133833,0.06948365742817153,0.03551936829816494,0.17020217087346365,0.04836332618129318,0.11501189009969413,0.002205038291455615,0.06397436520182996,0.06885415606614846,0.013473066667267164,0.059659420584812356,0.06165371845269813,0.20338424436256916,0.07349420467507241,0.1542246716765124,0.10741363007993847,0.0015462042195700998,0.12407046759138737,0.015140280465614959,0.1740212230259191,0.00955441232782788,0.19773463600580818,0.05046844141530253,0.070065914421261,0.2083785362651655,0.07517363375996616,0.08520749890704468,0.05870078049559447,0.19574312753299739,0.0665294956328477,0.13619672898972077,0.1599154864310283,0.17054620583319505,0.1784270714537161,0.1951192787553055,0.027278324566286708,0.17133983322640012,0.1907759356797596,0.11639297105088682,0.0633767186909532,0.10893380560126811,0.15683838930903204,0.08554395614217436,0.14871776907698234,0.14886761026709153,0.19085040478007403,0.10605416281888996,0.11200094664393419,0.07275063860674018,0.1549983292095995,0.009394663026803429,0.14800546348819987,0.0971673021881455,0.11971580041712115,0.020313831228496247,0.11230993435504456,0.12291369418506833,0.10634589749330092,0.07981817004253845,0.17117908173087037,0.13018536115976936,
u225,0.17718594946680585,0.09220594511577135,0.15065267937702045,0.14852381678978027,0.15501152323597306,0.14776095895214328,0.07205425808552748,0.012674232097355551,0.13369223857575938,0.05409031761569441,0.17127962875369182,0.19281656967481584,0.0683732829562347,0.17489481279694208,0.16683895593336115,0.006810750956823576,0.1298731619859801,0.17547707678452837,0.10560862075260483,0.01780062676826767,0.18949398594477895,0.10241427787016723,0.08703825077809445,-0.00031811044777228163,0.1743529721534875,0.13532141325554864,0.06943887282566703,0.09887091681031773,0.15670551893952822,0.13386470272854678,0.11199855558079086,0.14771213374902462,0.0729401480866009,0.01191540470403606,0.12335182227808167,0.0893393155597855,0.16969205711528512,0.06578595239613962,0.13576113408290305,0.07722646302275582,0.05649384819297737,0.03064794457728754,0.17099753213344746,0.10329284573667005,0.1525512876742534,0.08767116654125397,0.13953150489198185,0.19306528070042084,0.15384111646669144,0.1381079332432903,0.09030712320430619,0.09380815457736132,0.16213003362551204,0.041285985163270235,0.02718587675338044,0.1880638896693845,0.11793930274826153,0.10815463999254456,0.10465736672960538,0.05621854386784668,0.01151833214835506,0.09986475919469436,0.13639577391690547,0.15970114455388118,
u224,0.08557094182000999,0.06650601837837607,0.12670567354464127,0.14756712978803987,0.1555239899593776,0.09023836114363916,0.1273934715866707,0.11066310728407534,0.15644011498830138,0.18021894957963436,0.15526234827638002,0.02650906822038028,0.12146304854178926,0.06979637994872197,0.1876568070006158,0.17295557205835488,0.11952085811436738,0.1736916258690816,0.021788793716195357,0.048532644047910384,0.07410297542290849,0.0927755687961013,0.027552458502583334,0.16553337201933588,0.17622493477856999,0.11217557083237732,-0.0007919497881714778,0.18603809200394147,0.00697277566659163,0.07083780242316705,0.18399434261080025,0.09016687737135558,0.0353296934579844,0.0806576394876383,0.1588321194407192,0.10723887198147786,0.1703631762022127,0.06539359217196997,-0.003126729081761847,0.11706042705394146,0.15420781888548052,-0.009650701804151509,0.13965073730856672,0.020303926994484515,0.060105110924901284,-0.00909441050951825,0.16807668132341647,0.15261307086579112,0.005187795876988631,0.0923566560140524,0.09629575625972546,-0.007846817728232033,0.14434590846720344,0.1557188244275296,0.025009504891059242,0.09462621576564073,0.09970995943005218,0.17336568938140803,0.06371690885814414,-0.0057480552473286334,0.17843975521473862,0.05995452922903721,0.08191784120120317,0.05974074695377885,
u797,0.09663184854109848,0.0008384386803146614,0.012633392432915187,0.16590476924610978,-0.0014314175376968765,0.009643039591682851,0.18159176975923072,-0.009150684165493287,0.04031694039699411,0.14998892722523793,0.1904921927290984,-0.00466603566864332,0.044541392194164885,0.16451207109686763,0.08805136932158661,0.002080533170509804,0.08743668054584741,0.03816798459099459,0.10564196978332198,0.16613220030341647,0.09211494799987209,0.1702592059999729,0.046358486511054724,0.16684495961187554,0.10793971670432018,0.05011009597254681,0.035737019467852606,0.04202099573004574,0.18435805627335264,0.017589841802191253,0.12590305570850838,0.11250671491899439,0.14973603359416932,0.20518034314111394,0.20603368197437316,0.13010055101241033,0.15138487379545723,0.14297040901569263,0.01823684184141552,0.09172089578086896,0.16710835439651103,0.06500747902031201,0.02262684249990481,0.17658519068656253,0.11543911494142388,0.1926085660641599,0.008115381104084187,0.17871232696276124,0.11882608059350407,0.002132896372181995,0.1476812486101777,0.10550526714701623,0.1680789660072418,0.007454394699425601,0.16898824687095643,0.14884063663271252,0.023369328903305713,0.040217149767475736,0.04768439579533071,0.10390796451309044,0.08978386313588893,0.1280535715062329,0.07543425048927278,-0.006749947849095395,
u819,0.08870847861200319,-0.014122924147970712,0.007057548164814679,0.10082197786764019,0.12389957292598815,0.09558596110366027,0.17766543661279094,0.08465029148183657,0.042601690584154604,0.1280306151228257,0.07694608084451736,0.0994397929957342,0.06836338963883057,0.00839284576457477,0.18424301669257093,0.16762504178366722,0.05937449574767962,0.15074761100521034,0.1145378229336227,0.06957531954216452,0.08662183918994242,0.13847342062997467,0.0718491032804253,-0.005936365379898731,0.19398185804810525,0.02165478439042595,0.1495967494110093,0.065883385595515,0.11634030718092064,0.16288525381688507,0.020692978358661927,0.1705888633906247,0.1546953622541893,0.19173506537857782,0.08820475624274982,0.10926060100208072,0.14917528572049882,0.18426711155733047,0.16401962449242524,0.1277234880621854,0.17329429472309135,0.0031301049155995093,0.07566534816840581,-0.0028577093246797466,0.09181985351056614,0.09465362904545808,0.00047892488704910776,-0.010667684979424871,0.027341453797274068,0.05465514220892433,0.11738104218916148,0.04598751622638482,0.19027509440368312,0.07472949282677617,-0.0072782729417804675,0.13245160762386135,0.18079524147861917,0.13208795872810908,0.001563672409610208,0.11533961772548303,0.10378796861619352,0.06886292632130248,0.0980466289255243,0.06587448380368736,
u795,0.19746096190235252,0.08570343732936977,0.19275113702688979,0.04816610953167564,0.05464079002307362,0.05354396397031452,0.14606508916722805,0.18331769342749188,0.0779543006344084,0.10624859567685599,0.18782567149229684,0.035918900651789314,0.16966296524163307,0.012198494313055698,0.16372202105691464,0.008334950080363874,0.06440101198911177,0.15737371554936083,0.14310166034233454,0.018165935073875792,0.0974695016805338,0.0321520457594549,0.1556291986090771,0.09017196847728438,0.0979181625727353,0.18509906367955659,0.14598328711461941,0.022587877749352867,0.08863984559595046,0.09805684279398201,0.06792867622200126,0.016144012233384984,0.18357213339998515,0.005122056888770523,0.027621496651015015,0.16476715376359802,0.03277826876335561,0.18224259399161422,0.16778756086878993,0.0908315332235599,0.19682828820620585,0.029904473519452742,0.08913397321547177,0.02845435312776303,0.039496213281651545,0.13401235449069326,0.1016369702859067,0.10019869117367725,0.1966970531452066,0.05482893687489062,0.022357778584413155,0.16617715963784543,0.14461679055903953,0.0844245808150712,0.19610852567607664,0.18428920131866325,0.16800318029267933,0.18013219659396404,0.003651279576237344,0.13661693657786833,0.18811301324541405,0.16270051504360622,0.1978434049574214,0.004640332128755413,
u794,0.04195828761258478,0.19044745712286504,0.2027572559364613,0.17834968214504948,0.08428012078365993,0.18404235452230933,0.04316312092416109,0.01680213327699339,0.1424840642048997,0.020148773987673802,0.19742920919135887,0.12777562885414312,0.20448430348977514,0.14213503785477097,0.1671621612465729,0.04450969184526603,0.1205242979782025,0.17921126779277685,0.09373946148366218,0.034458687396298295,0.046455678747118936,0.12729840541150694,0.09785238999113416,0.14076333338026017,0.0752762452530393,-0.008145309231137678,0.04751495221576143,-0.010955186339747933,0.19778228155546107,0.11636666515613207,0.1853182021590183,0.043816551272222656,0.03546094449971081,0.01565388766171823,0.12268477277925223,-0.015063361629685563,0.04055440016494425,0.11077291472110762,0.16252018537777563,0.020954528750513804,0.04869934792733031,-0.011968515653713865,0.17176000537797176,0.134571848483146,-0.012773548349822963,0.04037318106061077,0.05205850401655147,0.16650484908813123,0.10462344828086236,0.027084903059405068,0.09875864064149688,0.12245086320893298,0.15119894425720876,0.05310544216585617,0.0985619195776214,0.15167164735385003,0.029285915042183124,0.025504331499612655,0.09773615003248398,0.046976538946346354,0.06663227641561932,0.01458599400930657,0.015417185095649297,0.16506981110474744,
u793,0.06367474638364336,0.03772421814523713,0.001816496798672224,0.15661965100162778,0.04227858031794684,0.1789705722705782,0.1714172974755984,0.2100466971473617,0.19017749777845577,0.0788392708887542,0.013489074919252225,0.1750314908706216,0.05097573327391192,0.09964355142279471,0.1500093740051086,0.10836919998325238,0.0064623468873404415,0.060954691065567286,0.155965102116834,0.14277104946214147,0.15129329861147875,0.17270993018514363,0.13939580300853444,0.12517633767556255,-0.003385019654894692,0.2091308005592942,0.09401584352313165,0.21162163396788913,0.07718482570754343,0.11787706188827705,0.07315448270621587,0.20008062710679167,0.06884314661470102,0.038047034265804996,0.08665753142288891,0.1252464822615048,0.015749788181619435,0.16889588107186068,0.13313196912656725,0.04140995300490583,0.14667383268725162,0.095425076139544,0.09633336598293732,0.1334214204276022,0.1695692013737407,0.20331981565486584,0.049246214606496516,0.09080096057819705,0.005092122711190733,0.07795225584934441,0.07544166759119472,0.015085745798373823,0.021240767126045116,0.059622627825779095,0.15047908673647883,0.09597794004673257,0.18920635956482443,0.17394914653328597,0.18318552298343868,0.09376440795097221,0.092979836223343,0.04024636025771669,0.06448726542446911,0.11798180960565986,
u792,0.0793193943351742,0.15764000749406903,0.1655785728353979,0.018403552010582847,0.1598091689983134,0.17733623738733686,0.1527533501085464,0.08754231051689869,0.03077003024404249,0.1652934660108264,0.06226369145211273,0.08724462750923502,0.03513468273159896,0.14901801726008604,0.14941753249197562,0.1699560528815854,0.14569406163189905,0.08504771176486027,0.1492885989754356,0.10516125085288919,0.027321204981935535,0.1255726407058934,0.14056723587385808,0.1094396654535952,0.0700479901694719,0.07648123919218183,0.12992770801814793,0.12809835647307646,0.05036248035202573,0.055002222650066664,0.1920746470912798,0.17017153748590683,0.06298426275685015,0.14400936064747993,0.1436317980321991,0.08725789814184286,0.1635165529139885,0.08406988758662029,0.1583123981642619,0.023896466124576448,0.188490713500328,0.19115035270465852,0.06556078047438911,0.024566867222605628,0.03647154833735287,0.06561268333408962,0.0996157441921975,0.1869324374443877,0.14041064196731792,0.17544859534533325,0.04948077750843501,0.13268649425079423,0.11311818761736184,0.11619816616266497,0.025542116538722508,0.16373317467384332,0.12108456743367796,0.13607816938864606,0.10849665158212847,0.06638463597518404,0.1880378406735638,0.10693617627241511,0.19169268373662723,0.11925659299729872,
u790,0.19665987512459304,0.17971684629224272,0.0530534082959921,0.15430315487801208,0.04099195401807124,0.09520183574446207,0.1394659310947367,0.14221996361992886,0.1813390507251118,0.044759737082579354,0.09266315269337583,0.20250452481787307,0.04208910668709565,0.19419337281196092,0.01839852221968685,0.15598840932047534,0.13080030993044953,0.02716059657968689,0.18251859470564538,0.1421727247460667,0.05162663840062434,0.19937076881049245,0.07795748975820208,0.09808887881136046,0.0756250007215417,0.0412114496506051,0.0913252158071503,0.0948918733675279,0.017926299760077438,0.10037213948752671,0.11763384797030535,0.08006513611545812,0.1373223036614475,0.12603799548677733,0.04675164376232783,0.054894426575667836,0.030684069657064657,0.17711576732532244,0.16677190365997271,0.03372770442481741,0.13535846430377965,0.14202790327730558,0.037701537399739436,0.11051222432409659,0.07082522765752375,0.16863473405944282,0.18432595601151489,0.10537056786451268,0.042224560652018246,0.049445529902227225,0.05143232729548358,0.019006047017393696,0.20026611192631674,0.20527253422449862,0.14647462068097694,0.1088054310842101,0.14415644129028216,0.13326824120206146,0.19165234916108306,0.16005927203271172,0.11475664777881571,0.1253139283485587,0.11226803580879735,0.005748651809639644,
u810,0.193555188325699,0.18414157267370357,0.13848245587397318,0.19598827668800883,0.07605713749914372,0.14757784579913102,0.096772685485035,0.09113471075690635,0.053827565416428615,0.12768761040427962,0.04512329118505926,0.19855314619356995,0.15700056735754933,0.11313884304547707,0.1782195584983488,0.02824472064850299,0.1403317235296842,0.0021185793712139864,0.15263256959254282,0.004678378539439006,0.19501218125359526,0.1550943798464493,0.08093431513759895,0.04452093259049238,0.06673990947530416,0.04016934717756407,0.15163905028390715,0.02323799224587449,0.13555735117753784,0.02399734577439139,0.09284840398866022,0.18649969560022323,0.09562378261444444,0.0313102458698985,0.1593434787227237,0.0045284144658006495,0.12552312175222985,0.13288357911438167,0.19783539649002935,0.15219404453797128,0.07233758255962039,0.08088215885954753,0.19894604934944013,0.1729614179500042,0.0006519979398842856,0.1605061360020962,0.05806468088418355,0.0491141027199744,0.035290165744262456,0.02515799584518873,0.15280385761098855,0.18659606905332776,0.14239429510436508,0.15576654538662674,0.17280511379793168,0.07591575839695573,0.14557127887958013,0.06302716489015522,0.006651182707699986,0.09059474396755897,0.169134795094684,0.04137106742013642,0.051702248181895755,0.08325187008568724,
u811,0.10947502095316912,0.08247569498039065,0.03034527094760325,0.04908425070842083,0.025177855136506506,0.17221753179072205,0.12241224578173263,0.003162531544604215,0.045282513566299656,0.00803903928438771,0.1234375536005171,0.0078676990991297,0.053809523839202206,0.15754237784286046,0.18840894424166138,0.16952002870192903,0.15403805301168594,0.04181190882785667,0.12724001831909845,0.16841299519152886,0.019908256870152706,0.09029314400880005,0.09704856168133393,-0.0033647458710724353,0.02321673022738731,0.036435451333777555,0.010045253345284577,0.17100055745696582,-0.009517276739715693,0.19104980859453094,0.09773656924957116,0.029906902811689094,0.14465906260923858,0.17975623296661586,0.10270031872394415,0.1370708241886326,0.17192252923902607,0.04777412229137577,0.010099714865880662,0.03617214797268347,0.1789751411111824,0.14400617648841676,0.04103221954148648,0.1370193173718522,0.13054821695679805,0.05820842712983308,0.10037019397940233,0.18160109597143662,0.0006564249754944691,0.041114630886279355,0.08388279172720242,0.18598561352853527,0.003083613730001014,0.13874421622157518,0.09825602007506043,0.06358751326798273,0.11796166362302951,0.07933713116810746,0.04195550908990429,0.08334543982226823,0.12013146265118302,0.18622855073906544,0.13594169670895057,0.1397111669122726,
u812,0.15694703651699976,0.15571306929482023,0.013997737616459853,0.2010321185794183,0.10664169689756238,0.06452545358484761,0.08758088964169357,0.10282471059039451,0.15154210609763127,0.18588054420376315,0.12340213693086874,0.09449466316822062,0.019740611580490095,0.08094263722018091,0.19660910160788164,-0.00020160689014644845,0.17231342994673457,0.0964007201345841,-0.004811155621367896,0.011498106130076237,0.1030633337608889,0.05124239061484962,0.08343517383914534,0.005831171738436176,0.12624955979805,0.0016900865348893567,0.0378783260339044,0.006629546838615668,0.05161723554405737,0.12048337076843313,0.09960547557941224,0.168659177425827,0.09512919679741613,0.025696005189845023,0.08486678072065079,0.20058068052260836,-0.004899729960123655,0.02131711987386877,0.1942186637562946,0.006878666984888114,0.023950251332273933,0.19884164887201175,0.20256884194268512,0.04995825453314597,0.08928260857159734,0.17652279540917723,0.08541083440526773,0.15358388316197197,0.0655703983523679,0.05680673006048583,0.016982359609870955,0.19110075069990287,0.205022012500207,0.025567367135150315,-0.00814085465195989,0.15258918526680532,0.0866690817721981,0.17622737704044072,0.07844891401824157,0.1806828552519243,0.1681133489387064,0.06239441268525933,0.13697883119685242,0.049305680718456486,
u761,0.063096830169761,0.16705497769328373,0.17169717851060723,0.008763607993460704,0.011388429479835116,0.15943526382344617,0.08398519364362554,0.1518724392137688,0.14421720519386425,0.008610998806289346,0.18118911397331192,0.18681788116242443,0.03126867420126489,0.20241134346694453,0.06372845315013875,0.022367325938815873,0.1610635584285439,0.13019400564914518,0.012437181787861486,0.06549900284431862,0.01562279533307799,0.16921594247366697,0.12904405011188824,0.15326131205968685,0.07222940726952394,0.1263376476339616,0.18429426161418921,0.03443116118257901,0.14725399830265834,0.04031312259314751,0.21394325776478626,0.1109100479614807,0.18132637471189988,0.16359343874950855,0.1788388233705893,0.21554135882533132,0.11468690172808857,0.10588952812018784,0.028034606170755823,0.0019183407719080565,0.08463658592965198,0.03422594713497549,0.003432394647376224,0.028345925675424065,0.20665688894618753,0.07466352036507606,0.03865260159120787,0.06134571501929366,0.17205745181362872,0.1980252752312097,0.06335852095841885,0.007893627143834825,0.04708583383264903,0.12326595410183937,0.14648963401465548,0.12722948591675337,0.04701458480153597,0.0324981057134894,0.019306785639772134,0.06476898223278496,-0.0012985297016826136,0.20937369781027523,0.19168628630394707,0.19620160455823374,
u815,0.18190337558157618,0.11109411885135274,0.0961022193225976,0.14958086449030514,0.09858200111802987,0.08469641568868126,0.1830587556686415,0.020827837332949767,0.14535524607749206,-0.0043945909183553565,0.016875223530441855,0.1753938446830751,0.0798850865231479,0.118627338311694,0.06764250925941422,0.09559368010097531,0.03821108216941551,0.1402420325585884,0.17975347234136763,0.11307216913194293,0.07774134127357205,0.032459012712434544,0.06649073490708379,0.01952679242653574,0.07038312563844425,0.09164927862435368,0.03154047208804159,0.17219300684039765,0.016380484026158514,0.07670795268471248,0.17642447394090802,0.06938475333845232,0.045861462714957335,0.0819821484202679,0.09091346936364884,0.1370625047633032,0.15946718431543727,0.15098635154189755,0.013924033508642141,0.09393967742881705,0.14906171483852618,0.11043696915788451,-0.00022348079511303365,0.16013798886933348,-0.007746228077845102,0.17712096660433554,0.05639488966398702,0.08758990714032812,0.0712587395928409,0.15475454830831978,0.1483997822995417,0.13244262697475553,0.12499625880599474,0.01950275558847381,0.1292436642531079,0.08817949440280107,0.13241478990577768,0.048346816895915745,0.15871005121985443,0.12720825999441837,-0.0028563684239750324,-0.013399143141777406,0.07454575530593234,0.05020161065978789,
u799,0.022575976367425154,0.03150393392940796,0.20513483540429792,0.035109468954339314,0.012200027969845218,0.1901364832937881,0.0891960489107777,0.1436632813233101,0.002238753187205344,0.1141111304742411,0.09563629648911308,0.11297610803789711,0.19680947981979083,0.09163996048961412,0.035563866221714174,0.14116678825885956,0.09951207956423491,0.06623612296791884,0.14280971493707867,0.1453313911008965,0.049885340667885,-0.009015027548805635,0.1671077501629794,-0.008580921426995184,0.15044001508948057,0.14328690264205712,0.08867036644720912,-0.0038490027938525686,0.011424671393370982,0.16630210947383006,0.06354690351422161,0.11096125958868527,0.12600339826459886,0.025524138371204444,0.14891827692181225,0.10833066243132508,0.05643823382725966,0.15047964119951285,0.18501369781141574,-0.011857117415748766,0.1040669969714584,0.17290785148182963,0.07071908876644033,0.09210023840013341,0.1231549236659511,0.002200106582922523,0.07170424386511264,0.1529252539464793,0.15827634837883736,0.010128123000365908,-0.00014747996399628487,0.18535530450497117,0.0917657746817431,0.14074660454480037,0.09085527446525725,0.0958795184624517,0.13739689540267516,0.11998149772077726,0.04071454335873629,0.11618991602103573,0.10351023232675284,0.18514893556734438,0.08357434924013453,-0.015429404519408496,
u817,0.19404391165898702,0.1452437523831465,0.07664466436557699,0.06456894975979131,0.04418604336433994,0.2013138493363332,0.004105897807011865,0.02219671401913147,0.1398394996212316,0.03330416514474935,0.1804944367368476,0.17193389717271956,-0.01367329101253627,-0.0007246168836893981,0.017662098906258337,0.05796046722978375,0.20907474496803152,-0.006866708183926475,0.17259535098922874,0.10282637672541185,0.1612843384788539,0.0877651597077157,0.06113688168090674,-0.001652825470456624,0.06616783604395374,0.06910550762066522,0.04035070715680484,0.11119311486517237,0.14782313627404403,0.02728167282378784,0.13021919548772942,0.17820378822397887,0.10687612312817256,0.19413879086923766,-0.005438468183212588,0.14051153853870568,0.06490817287264766,0.1595088279962914,0.04800775669065685,0.0022566547844517244,0.03092081076668132,0.16053508075246856,0.04629749809817055,0.052466767267424906,0.079682775062815,0.2128066796425475,0.06738736349787372,0.023362384914648933,0.03336507354095452,0.06100080183820333,0.07785264505828844,0.14734696200717856,0.11812701468837435,0.0619239523272512,0.033786797472899914,0.15747060392071094,0.021748863597576776,0.016222199051081677,0.1275183251219249,0.19567918674614343,0.06937996787552321,0.15870624531558652,0.18910374191764653,0.03128944342746538,
u2,0.023569600353543538,0.1070221659568274,0.15400723182478537,0.1404931416997894,0.2158807554068517,-0.00415326892971714,0.1063507622299622,0.06246533297983627,0.04453248457926394,0.1833903868589866,0.08719372052080715,0.10587773010322414,0.16051957422844657,0.10396236166958842,0.04610660350334464,0.018354286046555174,0.0805887626590612,0.012597146222344337,0.21349045886982304,0.15878750082704454,0.021813017861321067,0.12893424442468535,0.2060580246719112,0.14618390185103178,0.12569947454960545,-0.0007267865490792435,0.10645022969238623,0.02859064357268974,0.21271942728237894,0.19345887566379386,0.12912270679339707,0.09026086268163838,0.08590113082830046,0.0857452456131288,0.006834493775212557,0.10781670348076272,0.1270709811912439,0.12956173762873338,0.21859564821442745,0.12949272121805347,0.20624619476249242,0.04551289583071214,0.15917326818817282,0.03293101760553562,-0.0032941008852136375,0.17761518996748077,0.02113086940910491,0.13942640346862026,0.018951116576148678,0.20323283367005784,0.0017477041496641646,0.025809009698508623,0.2091546395614579,0.009780854106449889,0.06599411792308459,0.07587546487303136,-0.004776910382786808,0.12174318187769341,0.11150925963915204,0.12637753499719945,0.02761047510754986,0.010088714936184741,0.11391815622922098,0.19459355670785153,
u951,0.02052180242341549,0.14397798886770655,0.019008309388988003,0.05102679026977523,0.12852507691874596,0.06990520151430187,0.15477260077668267,0.09577017776092782,0.032196053112338106,0.10519974742135567,0.17399986269768666,0.2019163235202194,0.09584713647154992,0.21983162997868774,0.12558760011456793,0.052168308631119424,0.17310075242898434,0.15314753333355613,0.18766160809222754,0.1607398644087985,0.11066560988056325,0.018119795758120474,0.09723368975522284,0.13409136557141846,0.17495813309020286,0.17627057535621785,0.09431224992110922,0.1317773843409257,0.039158757784508294,0.0404922857720588,0.10950975058844548,0.09787802355572602,0.21657941445674084,0.11338716169581725,0.1099798024800142,0.1558737928458566,0.0827267841509309,0.033776554563527496,0.15790899085557944,0.06765050192737987,0.10659009792987234,0.16167439962161187,0.09899526336341882,0.1112301913251127,0.0957716165643,0.05475453267498212,0.07707280064586276,0.18436825706148352,0.1424068842758633,0.14375600370301508,0.13270972249897636,0.1512173017164163,0.11155358569260897,0.030365525378802764,0.09655683007764265,0.04018700185861832,0.1292757746039339,0.08360028512655397,0.11541557720077139,0.0901424789199125,0.12097709796285552,0.16145282501424907,0.1333249836839582,0.21429683248016132,
u250,0.10104757192109233,0.1983857421476388,0.19142959741886412,0.07637286151228655,0.014430439633602611,0.10874897470006754,0.1466989517327325,0.14985943496575665,0.011529136692711273,-0.016376411892214043,0.005427264339103439,0.09007434536818218,0.14966258705576027,0.12068770352675613,0.10503039906400603,0.035892983305829705,0.1085018554654514,0.12696925685959803,0.11752756579045398,0.048784078161405266,0.12845189302926016,0.0899112166259389,0.06779840668419489,0.11895721033037014,0.04008782104219654,0.04341798796084421,0.13457016983387018,0.017520623553567927,0.07972680554013109,0.1145524290937593,0.11966777172747815,0.18671570503110382,0.10412819605513264,-0.013421457546318571,0.1230224144458937,0.10451716631853018,0.09501074500417787,0.17251125700432968,0.17405052434918297,0.07179171519883765,0.20143606234513653,0.1020203905962275,0.03229945926885079,0.004492362758125594,-0.006091185233220446,-0.012328582968220063,0.07684903125746173,0.14736171914298243,0.031639618974758296,0.1998163406419092,0.004884870977620349,0.18341160118804078,0.09780435152062318,-0.0001926280876129633,0.12808480440864264,0.003405500625636835,0.0424039463893473,0.20018934902384883,0.1346629666254487,0.15418181352165872,0.18967440260826324,0.05465024742044478,-0.0007183278652546018,0.11999367344672004,
u251,0.18505972801183743,0.08387985676326336,0.13567623166868603,0.026584963498648667,0.1938552443115159,0.03286594913220938,0.1021777429403598,0.009238901154815975,0.11333925111594866,0.06621733549201092,0.12761702200779806,0.18556488111312788,-0.0002414041700234687,0.08462033403471977,0.1516982201423004,0.17660676775328754,0.0528165874834542,0.1680840020737253,0.2088977509763707,0.1724083503210397,0.05002826890137219,0.1588450107472569,0.0887592811790208,0.1662805055404172,0.02321643635465685,0.11068462051663087,0.04818960400199902,0.011031942876174984,0.10166387253655652,0.17735558834933482,0.0935191355266905,-0.003511962300917579,0.1441594489834112,0.1834248120256845,0.02889694950311338,0.14644689110648262,0.18247956250847033,0.16198531948699407,0.09371970110633007,0.08736155580083073,0.0479260158356008,0.05615014694450714,0.018922724230778506,0.06088128143827578,0.08047457499312827,0.19472753620478206,0.014525071280488716,0.08434492208529436,0.07485252191621823,0.03218980700060008,0.16192396457423602,0.08672039917241955,0.163655546697374,0.09813171213187817,0.021334244007778305,0.10292485860006317,0.1760726628281561,0.18882447026002167,0.03400137452904574,0.08886687083699758,0.124459796798904,0.20568820739768814,0.06892957027121975,0.04456630409610348,
u568,0.15627364037312927,0.1537490644090758,0.07297695230440682,0.046854205457463646,0.08265398957225113,0.1675412613591307,0.15337840801045227,0.19057118504483367,0.1820670614975992,0.009923588655997323,0.020371736909031032,0.06957329129738285,-0.006569657292995308,0.07501764009070118,0.09772276435188003,0.12978597755735616,0.12208861621021734,0.11424981348201131,0.006814246132997234,0.19381367806009261,0.021943564470479383,0.06383560984684822,0.15254103619061332,-0.012146848434385769,0.19247704534950652,0.1410691721142997,0.16924110095972414,0.024161911409707998,0.043637424215300265,0.16035376853340327,-0.008312186055076304,0.1844834043938977,0.04090565886902378,0.011690886440161362,0.08390488864864024,0.020976911328275033,0.15461740317140582,0.1326390424570513,0.07365308444259602,0.0904516577936265,0.17424389354509218,0.19333965438628725,0.0946683933466496,0.05305802707865161,0.15580400063448308,0.059937595416850224,0.1611046475392819,0.15575112563228743,0.08865444471610824,0.006916328677512428,0.12758266334481533,0.014486192964188821,0.020814999486901582,0.13159843164998455,0.08959827309593311,0.07767790501965104,0.048478553846509904,0.0626402029886417,0.003491004933006634,0.07228201289485589,0.16771656520345085,0.12463041790564451,0.07198374805827913,0.12238333683319871,
u569,0.11343253771260359,0.15650741403614915,-0.0035836707728036286,0.16817092080305346,-0.006096026782739575,0.13412913644668714,0.1256155151208511,0.07445924800331032,0.1323958773698307,0.144634947392495,0.06402121733526543,0.11791256326721472,0.13235330037561271,0.10091773190170504,0.08540571617303655,-0.0007875195033072956,0.10609903093057328,0.046391871586829544,0.07218287883708896,0.12078672245199476,0.13423849444620883,-0.011944410485377767,-0.015182015544589422,0.15403213307639277,0.1790579597743777,0.01593685102532878,0.05582781124068855,0.12593442984628803,0.03926145368120912,0.1882032994424471,0.18444283457128685,0.1126416185783699,0.14869468623150114,0.046330474510829986,0.009397431103649313,0.05913102618170775,-0.013795194193955612,0.1087595712835591,0.033781973320719215,0.09240601499976347,-0.00620540707553341,0.03658367902628276,0.17188337771186982,0.009023788047745153,0.11539272111250999,0.11720470041154434,0.08151944444847907,-0.012600734200175287,0.021128497417374482,0.1098712739626941,0.1842785164155064,0.16891664858078545,-0.0016358459253173964,0.17068117233079355,0.08383334991410694,0.10731578298111652,0.11728184345247288,0.19841927401195783,0.05713845393755649,0.03392313093209829,0.18339444951872463,0.021612499946717094,0.19451204495549995,0.033973249438203706,
u357,0.0937495924245828,0.1313584085346309,0.037060539553021084,0.1196528647012888,0.10350581420427715,0.011263048517276905,0.00930462302059398,-0.01216228069036504,-0.014046559587443885,0.052420851250944867,0.13967782413175012,0.04810538439749184,0.088309869247955,0.07328304437005555,-0.0033019448098979467,0.07346717612541137,0.1252169422212492,0.01787503255200334,0.12404153629813636,0.16292628171348084,-0.012070170808172142,0.08607106196145317,-0.02158830716448563,0.13986496072443658,0.11955950333282094,0.014188851127791885,0.04211834247614554,-0.013024747437002627,0.1938356993126916,0.17588410903216664,-0.006764033084148601,0.15283451979849783,0.14260808492691568,0.1869898066721232,0.03776423711568591,0.05306287635120227,-0.01565824858492764,0.21890773260457402,0.043128483104749364,0.03211608835455236,0.1530715561894841,0.2223054362738479,0.08288070378826902,0.1546869546772676,0.0021858085840207636,0.016594074644005707,0.0043282196820521165,0.0905438614393891,0.19503488514866502,0.03758083985849059,-0.005722281082584019,0.16752049499146254,0.00355347179751986,0.21921804664230027,0.17630261185896584,0.19499071253237057,0.1704665441758528,0.06182811855182761,0.10650217188687565,0.035158939008995305,0.10979709036146285,-0.010601575502092692,0.08360698426968473,0.09377813375168248,
u356,0.07937083760287918,0.09589293927417299,0.12381517993269629,-0.00010399541337038704,0.1114003422756012,0.05749130494106315,0.06498724460019245,0.10833969686160427,0.11053140627488814,0.03323657454320549,0.2033135436223863,0.08324223074095513,0.028320997954537987,0.1051225330614394,0.09654184721130273,0.14669400022795162,0.14556948269516723,0.14426613578453276,0.012077203363449595,0.19096051521623864,0.10194803455531996,0.0755246022938301,0.016914230254052115,0.14183353557555187,0.19292317895024585,0.17722652305026093,0.031293151655003654,0.05625200217139098,0.12572535666775883,0.17206407019347844,0.006328719036416211,0.10509123270300309,0.010234147654145764,0.09242999715130577,0.2033033855438616,0.13469254699567224,0.024759870937051644,0.09675061551106766,0.1990553629892578,0.13560124907057397,0.18892174538911058,0.0008707961182132371,0.0633797320356843,0.046741606904440264,0.08067561068179596,0.08983220292675015,0.1992548178402589,0.11682763845412349,0.021581454421979705,0.19007401281533903,0.1676750318267144,0.09155641308158306,0.18834330499908622,0.18489593607934093,0.022955199181840125,0.0902286330142432,0.1624586839820597,0.1751802952619198,0.03970168418248734,0.0954330217489568,0.1892801633943273,0.140114921546905,0.011547261626694207,0.06885944782624286,
u355,0.08366686986418753,-0.0005968924590702942,0.16461355867201166,0.1308410909291824,0.17929741003383298,0.018111002337265522,0.16770534735789142,0.02267728636717025,0.0004729310412304396,0.10438807103793732,0.06571744373297658,0.002911523518169385,-0.000858583250707872,0.08971091750670378,-0.016562829620678714,0.08815233142827847,0.032683977827697795,0.13981061730226835,0.21018202721616944,0.1347846815017454,0.04865247200157154,0.17491212698904168,0.09417961236167416,0.11739788341612616,0.047498721120531086,0.19408803737026958,-0.002526575907625039,0.0663454792077413,0.01930369912004389,0.09467064230017232,0.07949034509571225,-0.01113387069639535,0.10381904677502944,0.024724917870624502,0.10089844819726727,0.03689123364685632,0.1506620648663124,0.06784159936864795,0.19551286803284237,0.20195922971294397,0.11591693312934671,0.10480523692825962,0.048121979122297924,0.054006547046573185,0.0681790446422197,0.14393609996860007,0.06826940843414687,0.20182314179031555,0.15574164369241,0.050007721836414616,0.12719857387800668,0.0894847035850031,0.20136494383813464,0.006122756784815577,0.1399059767950895,0.21501411043902438,0.0070809711261032105,0.15609457723469744,0.03134142724347123,0.09307587964321429,0.13091299572478318,0.022640596147571947,0.060060355960241944,0.1262170578042118,
u354,0.05944290146178485,-0.015870843646017964,0.16131822357397027,-0.015050971589828063,0.16236756963486046,0.08161159562054801,0.17726506356258642,0.03678628509304603,0.15512134981984688,0.15272928658955776,0.03455177052938626,0.06408266421404304,0.1553895338367464,0.18165642998747736,0.08707728291489267,-0.005106459710952199,-0.0002194722848734377,0.11739076983837303,0.18546047765824236,0.008053026975805816,-0.00019337768050032493,0.06763629593423647,0.018786233144742096,0.06681564767132456,0.05911098469460548,0.00434647970135513,0.1821525952808117,-0.0074314079633832466,0.08279799960264524,0.06895969061299383,0.08113658556511845,0.011752589533373327,0.09231829479488657,0.11819771828827473,0.08853639361092838,0.18907161537557074,0.10401749401783872,0.015901957915390445,0.16386949968237793,0.1385844944234395,0.0748524687763822,0.05017253620736455,0.010266449104236474,0.0837264226533631,0.12979485024248766,0.04607745995097003,0.19835659793064564,0.0018106884367732573,0.07595473903890897,0.18599329068020914,0.18898440199514382,0.030904841325683507,0.16888742969837484,0.0016628822886701306,0.04273918342459366,0.08960581963208222,0.06253962893001258,0.07477072187596769,0.15361736569328374,-0.016257236153478922,0.10480793895278198,0.11800604111240484,0.10670767350792296,0.1812923737505802,
u353,0.1796152309085811,0.03843570709336004,0.029597453679221654,0.0031684482443623545,0.1878735620652783,0.13141200316439058,0.18887822245130112,0.06326277957222186,0.09037696908713931,0.21041669462031976,0.1752129358033176,0.010008806626444154,0.1213732344274732,0.08837310819053128,0.13498279943823072,0.18954075942896814,0.16812386367774507,0.17175824078909008,0.21492542561626493,0.009717999202586387,0.18931869179875896,0.20460070966578348,0.10128806141586687,0.07557054550803605,0.03020070754169622,0.13026742397448582,0.10785531677365749,0.038814630805596766,0.0871353361488642,0.03266872642595151,0.0561691170405881,0.005800404449666985,0.0923486978148885,0.12076401579380838,0.1851387899279369,0.091655408559341,0.023762062799615166,0.050414289513091806,0.08526470882323238,0.13565803430232712,0.0342942560463055,0.01665932196263301,0.08416128052539572,0.13241730884283456,0.19545813701279124,0.1114598805926148,0.09444489335946618,0.18023659496535335,0.02625109213365504,0.07050924973872039,0.10009686071393055,0.16036817089572777,0.006680856463689604,0.023684729433259798,0.1389570518402905,0.19414479357258319,0.02668320530221395,0.20497678178894274,0.15125435061316425,0.18527896483632397,0.03562366851092312,0.05738339053124943,0.16252956512045877,0.08667392104695934,
u352,0.18674004830604238,0.17153431419222986,0.18642993738082983,-0.01010162971237471,-0.0022003262326496294,0.18086203298788592,0.09341274160010399,0.08675577639170463,0.08361042127135793,0.13027715056717984,0.17108742931439866,0.05452269757303122,0.11012923941741425,0.01717768418287992,0.06841363277111451,0.03662361888134618,0.17211479327308252,0.03809632032699189,0.17557979082854203,-0.00899894865240498,-0.0038374393503877754,0.14928364619177564,0.16466999932049423,0.15420540713959627,0.007998683013519976,0.10316094458870166,0.0921775456464082,0.1588151263980423,0.15819547487453114,0.016795344368014577,0.01733580893536605,0.08680197865722204,0.1517534651635572,0.1231499519403023,0.05664424685844668,0.1954705078904208,0.17626125221334685,0.18877337350942855,0.17548439208812106,0.020528284303090408,0.025929911349902315,-0.016705000637137795,0.14497372342341788,-0.013690759165080451,0.01869494889414423,0.09141085451417,0.15724055962874506,0.031748841280260134,0.03809728243630834,-0.010342105526807012,0.09855155974140657,0.026079525107333957,0.06797842423229995,0.030473899137473743,0.06774385616786244,0.1326406460454639,0.03260724935496647,-0.001959530280122185,0.05734748150286755,0.12950890892653275,0.07451793721585391,0.17052765373451473,0.021287362657385435,0.03037905447336959,
u351,0.15939594976917065,0.16888875472077727,0.008876880429640438,-0.0023711437910176325,0.1368838882830812,0.07758899882323168,0.07022983987103305,0.07250880312506815,0.11662431624880472,0.058365926997595935,0.1316920563381663,0.17348756963443807,0.07591849365209005,0.10477680256139632,0.034815530280303916,0.0876910213429598,0.07502639814316898,0.19183447426377825,0.006682297760072735,0.1455698193200877,0.12384432377936065,0.07163927236591083,0.17751951741966512,0.17014986736418516,0.03247933495203122,0.0007951115498334116,0.0014836700012509478,0.1683518421919018,0.06496938732395886,0.06654169660561608,0.030875299182822148,0.13326188872726805,0.19648869499793195,0.19239312360196473,0.12872120434652776,0.076063650133071,0.012159647048968065,-0.0014298964319751776,0.10060152356688708,0.1930818798074413,0.07640088212612683,0.03427441152333334,0.12187099656433346,0.004365699271962014,0.10120435211152289,0.050005984066844325,0.02176232058763494,0.10107540959931807,0.01082173950392797,0.20321518881803943,0.05884811191429035,0.19858031574247528,0.01406034504782922,-0.004316371051723912,-0.010584812761384158,0.07625512345310284,0.20316896724072467,0.04938463690215597,0.09165587504685324,0.026243386010353798,0.08962086690699048,0.013724940073878956,0.02361140273728796,0.17008854988995498,
u350,0.18588622271677535,0.010733343736049263,0.1840921583718135,0.02057455184262407,0.14789961338661511,0.0567689990727698,0.17146306848255344,0.06905295459867558,0.0703529311900571,0.009785141537526992,0.0557624189923229,-0.0005576181426482904,0.14106141589169457,0.0630278460561116,0.08272874159341,0.047909710534916806,0.03142327815464037,0.122302346790728,0.03773862435454741,-0.009841420493292983,0.0743291927123456,0.06248966628972398,0.030323682815736993,0.15955351897723996,0.16303404120587833,0.1326620326053955,0.04790886393299316,0.12662081716530502,0.19809570126426074,0.0289021936214587,0.15525336782190377,0.01613997346263698,0.19316114996954836,0.1941200581435011,0.12973047108099164,0.18540143827222968,0.06349172123239558,-0.008485196129437196,0.14372411895582707,0.02126071959590522,0.13028099051907896,0.10442690339535253,0.15141642056237675,0.0868447020640598,0.1236910424912116,0.07685174271343896,0.11621181883249457,0.018279546894147392,0.10444497416839398,0.15672087582862285,0.06157326919182086,0.09290389373475175,0.1652655965623069,0.043033671274640466,0.18919246368115952,0.09621957226511499,0.13144523109140002,0.1200485324109144,0.18881376893329097,0.09612716715132036,0.045464768674884984,0.10302986193469521,0.1868028568994126,0.0778718597683323,
u450,0.09626184948121738,-0.01181118822784181,-0.013428338309092111,0.023732292638312953,0.012761524730844884,0.15990930762557184,0.09883298507646962,0.047796721439008996,-0.0014636062434249674,0.04973895429786958,0.1804091133105543,0.05028200612630995,0.18303833105468265,0.06561420260930748,3.5276641702772875e-05,-0.00022277752495945323,0.05162361849941465,0.1762479901120419,0.1868192999645183,0.16539167485534637,0.020764657714569378,0.21009770331598396,0.11659473443743884,0.17669337304616078,-0.016202015846864603,-0.01862024141835317,0.0513184131315686,0.17894944456106945,0.18235501086187308,0.15387218684428478,0.1474491352359754,0.11811283039393533,-0.011620020992892638,0.12120384979322563,0.14166658291733503,0.041066972734770994,0.17962774979942414,0.07105926833335546,0.09882549544801364,0.04026571292209907,0.1531291601012395,0.19921948592154431,0.14977005735173776,0.07370447903085789,0.03453996380243181,0.10438460050096261,0.030954745243291164,0.023239230392484725,0.02287703326973662,0.02532239223298636,0.02282795962967413,0.07283278370515843,0.21040483613379232,0.021164953087154912,-0.010390969508353005,0.16280276369981955,0.08051113307280548,0.015138696210318027,-0.007745574099384722,0.1557743013079211,0.05531612146019477,-0.018314363188614333,0.02569039983398924,0.07216851687145526,
u451,0.041750686878623294,0.08886880050230997,-0.005224226275445244,0.06857672077788192,0.1912849117913344,0.17366465093097988,0.12664913012516968,0.09576554843356928,0.11313145007326254,0.14121175838388103,0.13751100012468168,0.15427777762359646,0.07418280254458294,0.14075474087413348,0.11890782343533796,0.104974655037373,0.14106817343286568,0.07955981234377223,0.05298581978603197,-0.009777876568616718,-0.0009068837297549925,0.018690369630938737,-0.0023491390395714135,0.00023736258476799138,0.01139483203414684,0.04287919994602541,0.13401228293259482,-0.0036432644566170218,0.14563025031192264,0.011556890574981923,-0.0002921536673227253,0.17043816894857866,0.04936984037613993,0.08197081740164072,0.1490648958399838,0.1634351323359402,0.016138594424543577,0.010447174825707877,0.013204679567306197,0.1924445165763699,0.10493634276738338,0.11965477784424412,0.026083703250382374,-0.016982182415954387,0.14354247104806886,0.16235100800786184,0.1235381729599906,0.1487219193923977,0.07021162348382409,0.08759216285361907,0.012581719708829769,0.16259255131008185,0.14904184410347346,0.14551380464266725,0.026067470575022116,0.1341697557477262,0.17984785782975063,0.06109093590909258,0.056302234890429084,0.10536466835715619,0.11976508122317299,0.1773251919892743,0.1570020092722846,0.13523106742575167,
u452,0.14896200423498887,0.06934722077057014,0.16124610026402963,0.00807744378809327,0.0005156248946999607,-0.006713111938551954,0.13049074705164415,0.03648821710753012,0.13136632485308009,0.1072067397516676,0.1479817420460981,0.07145975514880097,0.15365233345256885,0.20329072788131283,0.16964266741389047,0.15782040658731464,0.12732413892026576,0.08152825205593976,0.14055934206765885,0.01309081504655585,0.020929530051222608,0.06729912369723215,0.08741006362762664,0.19079440395792693,0.14077961604163236,0.16972559158901265,0.18992878490960477,0.04128857887143523,0.16895662843319664,0.17631872867473822,0.03546614300686422,0.010137710286302953,0.19530815827623466,0.07757430624271404,0.0019316437500869145,0.1505858809426502,0.20179554439653577,0.1242490957647023,0.12727452102577466,0.05502987697465145,0.10712235723092739,-0.00901188652294332,0.05719936964650645,0.1478392371850719,0.1604172173957332,0.16744453900683767,0.17759708090834359,0.061811191597268375,0.06036434711741435,-0.007512631101064974,0.04638175764639074,0.043473759489327315,0.11169041688454596,0.13214418962336386,0.1059056873083482,0.1341907221802656,0.0017503437580618448,0.08740127125375276,0.026246471973328214,0.05725132214857282,0.07839094597444211,0.04062105195261519,0.014345482809925054,0.023734384948094777,
u453,0.07161061499371402,0.12606715254877685,0.06907263453313243,0.13244145689868558,0.06494527424917691,0.02266792647294668,0.05251244946292767,0.04896657681472733,0.14792626298489817,0.06724454459069433,0.16293178845045556,0.17144244810496573,0.02631285597916941,0.006840629654029622,0.11764225658346321,0.0773443588242997,0.03754478305410876,0.06579053482535689,0.07980845438376795,0.1900565574747727,0.14445342972370082,0.18057603913283674,0.09055497366837306,0.13430571769384464,-0.002776992377504395,0.004157668583351492,0.0032452769135111023,0.1397337254725194,-0.014154055262831216,0.18848349484530666,0.09881578525791275,0.010565543927685033,0.11652355068764148,0.16133518781182526,0.025138936017757713,0.049272551565244085,0.15961268902504822,-0.0022481115998085575,0.011305817053337648,0.05674301895452467,0.09997812952119202,0.14220615874975528,0.00878053834718861,0.16224760669900587,0.08474935651886709,0.058909325922924013,0.01600230477137924,0.16553982753333443,0.04664233435758859,0.09155459166176665,0.20347445787681728,-0.0029532272093821454,0.17149208911002983,0.08337223469872537,0.19158087131756069,0.1574887740753427,0.1889607917000576,0.17672308068177378,0.057878781635099255,0.04962524127509736,0.09313299567463253,0.05469721139437011,0.10415010310385601,0.17857701072885543,
u454,0.03127392315149982,0.1315579627565424,0.025088598816597616,0.15344860584928158,0.14333554766395384,0.1539894815980453,0.17793534497541585,0.06412272108177064,0.025217535313506425,0.02899753346345087,0.18795268730460596,0.0637146316285915,0.19110217892317002,0.12990787861147932,0.16266534534258587,0.018240857010104767,0.178573090146932,0.02028275914424981,0.17139037852241445,-0.011529291226175261,0.09681861338007582,0.16366896911346393,0.14744511308018632,0.15318788906416353,0.06885448716903646,0.10628952644919742,0.18750058852222443,0.04534774155477796,0.11202779127398979,0.030559377891332624,0.011250038506130046,0.07130017750009328,0.03948940951494702,0.07774458994921969,0.13858493695637,0.18477157319612772,0.06085567681105479,0.003061435144370822,0.14561674177286948,0.06289840205704877,0.0023854951992084883,-0.016364237390385745,0.020771281879883165,0.05473989871851725,0.007788091759764811,0.13693630841423288,0.11733868658225963,0.10281725398350505,0.11827010573581355,0.1053723251801855,0.18536624859305809,0.058410329843158644,0.043540662123285966,0.19072537669653852,0.08976836403376992,0.11237364175516253,-0.010995490494859579,0.12683121265786185,0.030886660978126555,0.02938651332398163,0.007749493138137866,0.14288854152888486,0.12653619317907122,0.12740048473642424,
u455,0.09108763801872592,0.09676616049819346,0.031178535787641612,0.18100388975456175,0.05007918876358519,0.0292197552738653,0.14580489101433822,0.043907602446286116,0.16251735214930318,0.18037187510113478,0.05860535231777442,0.19030482799039705,0.11117316240117192,0.17351954311141768,0.15450581660788235,0.12616836586404562,0.06573469375208844,0.19765918079679726,0.10441435197317767,-0.009965009428062119,0.08624022788402705,0.19443084192073104,0.054925738664765356,-0.004024110095894827,0.1409105866910161,-0.00605130150834178,0.048488370178925815,0.1937678598107591,0.062158566768218085,0.08512970340639671,0.017189104518252396,0.12087507718006849,0.017060636205815785,0.07815395360594982,-0.011290289398660863,0.1294038301681422,0.08969306694473081,0.06070181218395284,0.0700166129674403,0.021725349578480255,0.18871579200582753,0.10172438515444551,0.06413869906937002,0.056175283494215036,0.14610607524227978,0.03574339616024062,0.1321820720208804,-0.0029715430317866463,0.10831990613452082,0.1276490289404737,0.01317329804077435,0.0725387697664715,0.170528243040699,0.19469281703659352,0.11715512584116473,0.11260903286091195,0.16899401969060948,0.08263090357620537,0.12079168374742495,0.022900594330144748,0.17817252027454739,0.01377401534923886,0.04162520800848823,0.19655469454170182,
u359,0.16246069631429597,0.1330520555697226,0.14699528263460845,0.011365364715549614,0.14003548487085696,0.15096418014829463,-0.009580832329508116,0.1306731848470449,0.15615291967370587,0.057445587764367194,0.17249878578710673,0.06861548827251032,0.14514952646516868,0.13664556086293178,0.023355347649526598,0.027811417146255544,0.13585493103065185,0.1796871820643637,0.0778269303975164,0.06301749948371263,0.18886042818149273,0.14600247527854582,0.0854570393674675,-0.0007222681345918613,0.08474140281472588,0.1046320720844536,0.155852563782926,0.01912891158289529,0.15236771767091553,0.09956432503190653,0.019159207044522758,0.16993116386398674,0.10744777748368946,0.053629130302515406,0.09608554364944459,0.1666170578512697,-0.000935901221297101,0.09498375786240844,0.1000776528282643,0.13599239838897786,0.19248434335390097,0.08145509999396318,0.00949744282412863,0.08393276523516398,0.04863622142496504,0.12531108089292606,0.05390302838921347,0.03519333653245246,0.10161077399588092,0.17713513592809224,0.0430716716862879,-0.013972038423418575,0.11229168151203085,0.13553159315747146,-0.0015550951274260006,0.05046995785309678,0.11936460418998837,0.04132589374710851,-0.011253980393265065,0.0313095723714702,0.173114522431942,0.12019200366512593,0.03146970978029845,0.1262054789261801,
u358,0.14743194048940625,0.03805258375739678,0.0769926938132732,0.17513751007903341,0.05286425189073685,0.15685707607728896,0.12934139051410903,0.0069532112094046325,0.0601879660016286,0.09412456354642741,0.10673156734072987,0.02372668417510028,0.06133155452694544,-0.022386912005501556,0.1455001185464922,0.12203435679215482,0.17221538840946554,0.14118020492031474,0.025198884142894153,0.17845936312899835,0.1452673437428074,0.06899858914189348,0.031208090647453206,0.15038494722292312,0.10519114000909706,0.07617617599428446,0.05069080055373663,-0.0033138488083564767,0.12253852633696667,0.1152583002197568,0.12399523361917185,0.10650590123824541,0.007042136010908363,0.09244873933404289,0.10059946199357657,0.09836987332137205,0.10966710160631814,0.11839131339555801,0.1414133684534453,0.13323458302320185,0.07198956854005646,-0.021784602150601535,0.033720718241901156,0.0864759680823463,0.059964300818135134,0.13930821153202813,0.02050862351044122,0.08060657259527865,0.11912950025515312,0.08313706501862192,0.06415848352827937,0.14741565655479527,0.07335197961913417,0.1361917960040267,0.09345384412476113,0.0001554209483183381,0.0159300059695419,0.16552999704587873,0.08461241277939575,0.10851609412925435,0.1724396800021085,-0.002743972129782688,0.059639114860351825,-0.0063178224273058685,
u924,0.14966631713599807,0.055006312110629285,0.01925806809160836,0.09535768587897762,0.2008054329812409,0.10442800832933843,0.01251379051996863,0.004666123729537579,0.18327732470372,0.01177701576677219,0.03829699502724658,0.013325212313912396,0.13773679342809494,0.20522178246424572,0.1713497298782277,0.1804007434926834,0.020628796764411064,0.07912949533295571,0.1911194447186983,0.06133136956313712,0.12878052455128758,0.11783559633011131,0.17400663463400742,0.054247125966070564,0.0005386496726189537,0.1975789109978615,0.09906633391894214,0.11972337929865291,0.10887001293001684,0.12482593856430405,0.011219572164021073,0.006030839782211181,0.1262111422710574,0.0973313108593829,0.0784183542618702,0.06800621484374124,0.1720363134257248,0.04634129694963302,0.07051422548194113,0.08117315667554362,0.07082463938175275,0.1980889843674284,0.06490645015714835,0.1512849099220629,0.02153102931526292,0.15410184908088972,0.16597037921299537,0.04026442976170908,0.18231522742456766,0.07519799407391625,0.13031991097769333,0.1592094541167066,0.1150267276328784,0.058906860063954715,0.1166260304904766,0.03763789631754244,0.13036255476961867,0.20420782394470677,0.18567578947118396,0.03266438600268477,0.17844034436795028,0.1861118124347427,0.1309898351704822,0.18372647809267464,
u925,0.15436993427302453,0.054974330018451124,0.16652858483782698,0.01626384096253156,0.09333928000855654,0.10914589114352406,0.11570386818495366,0.1884483398680932,0.19320473283345022,0.13024865973830138,0.1287132862297955,0.06589707147477368,0.12246044258940807,0.1607806413012178,0.04907569108262111,0.15433135430009615,0.15298218821591725,-0.011279930679986276,0.1351978602006634,0.03699157657099451,0.12743370459514397,0.03358530028322086,0.16678956456157107,0.16963397959469734,0.14711663522099105,0.1596552427377784,0.08442506708456089,0.15075259748490008,0.020570284735172185,0.13151216364567367,0.08800056643295415,0.15347264763704113,0.1819616677181448,0.09953677958296013,0.16557462329412873,0.056397230031699254,0.03960231739600318,0.025661916390145412,-0.016435710472446987,0.11079374230540773,0.10472076759805982,0.1483690728245448,0.0592616283967128,0.1855739220449418,0.12454460565248711,0.015019816001890035,0.06949390423506974,-0.0063618836608219575,0.06609591808309151,0.06973190052832798,-0.004634518769507577,0.1536935807205934,0.034870832929021676,0.12794782232002855,0.129483876328474,0.10558880230047808,0.061464518512814835,0.004138617823772998,0.059276874381702156,0.08733489969850378,0.08097589860969813,-0.011132650996608987,0.008172713196763425,0.00856415985663556,
u927,0.09421468962283101,0.030257602197339747,0.021034323837754932,0.11957108305700746,0.17509457383020152,0.15300266137352514,0.15121755835475542,0.09766006814679046,0.04707769384083214,0.1825572673268377,0.15631141180692204,0.06803497804361652,0.17218179383657864,0.1407119361991174,-0.014432993754019642,0.00480666249411441,0.14274451780018105,-0.01345547857408613,0.061638316931800836,0.02646454911872249,0.07551431196119224,0.17439731908542055,0.19763311928747496,0.17655679874146504,0.13752836458437576,0.046182842977705744,0.026810693110607527,0.1304774791116025,0.06169225978129067,0.09738057675868493,0.1409998970418274,0.10778706619756391,0.008030390911761831,-0.018507869240238124,0.13317859302387244,0.0994840690073734,0.1252680815348682,0.14218401231173322,0.011950590106393502,0.010833286745985445,0.19050417053615218,0.18635303204367829,0.06406105545919315,0.08479844169427361,0.05353226173469771,0.054765431538409716,0.104999734278994,0.11091789472836067,0.0004640238581523975,0.06872673749702868,0.1185629178497754,0.10180504794655149,0.15568606857799794,0.05237079656415488,0.14262089196395214,0.020429263624893657,0.10227330875508672,0.03349089283654708,0.1365924827395166,0.028661624790227457,0.043409292008985384,0.08243047396966642,0.13444557606671922,0.07796130406066928,
u920,0.14292207825045028,0.08974280354653441,0.04445213469233789,0.011643497333940572,0.0996122423703973,0.08176804982596159,0.014918490333981696,0.11790351084603416,-0.003928947246894421,0.1069097360543164,0.19384665928236416,0.1105547430505271,0.12516899792935915,0.20346627855380045,0.17565422674888762,0.13653050949921222,0.18906966736075376,0.1295219898527227,0.0016633390123335886,0.1555324096619874,0.020134910842948914,0.11954404203235162,0.0682914937956601,0.02492158712196238,0.13866167484717803,0.1292790028784188,0.049578657704106674,0.07544591575904866,0.17356847227465869,0.16726066594789532,0.08403035283499641,0.019782691948973655,0.11459937089729931,0.013494484262126155,0.09805509399388225,0.09536707513369315,0.05914175887065494,0.06318231693054399,0.2027495036921475,0.17460412080405327,0.11042214483851666,0.0697515989818343,0.05866640661638205,0.1676238981201775,0.03743956076220005,0.19892549060282802,0.17365898495564291,0.003398971955738129,0.10274420419947784,0.05869471315210411,0.08133003506412709,0.07132192487869458,0.06060266195326747,0.05793560571200031,0.048194066398087966,0.1299898495758239,0.1951632418016827,0.019611541856185084,0.048372962995487004,0.09765609913187331,0.19741078261756967,0.19518128986637426,0.05277864999646167,0.10464616314528738,
u921,0.15723942049755044,0.061918215320932585,0.003996854055933514,0.12536537543740456,0.027670784452986482,0.13477130015897176,0.062042638289695765,0.08183038929033286,0.07714859559571728,0.17394487154364968,0.1830217497391217,0.16400640005198522,0.06428036610627479,0.059184302816129464,0.10404950755654352,0.167709475418945,0.0826636613774344,0.14834604127372697,0.1663964180607714,0.09730767109645166,0.17138127608086942,0.0020519852484925166,0.11490524036165882,0.15211861093108228,0.03144529470473665,0.18210736428652663,0.06197095990785688,0.12664574959352573,0.16508560625352536,0.059267831288680066,0.004610011743775656,-0.0010922874220712986,0.0781708803507091,0.020130035890251235,0.007815366932206276,0.038018573786489596,0.14711578384168564,0.12953290613143445,0.17010047993446512,0.055910385004231546,0.013566111336521053,0.1675558472797833,0.08703138806747805,0.11648556734405896,0.1591399500840304,-0.010925249437287926,0.14100488121616078,0.07181179829952926,0.13445730101736109,0.013056887843355588,0.12660215543035047,-0.012358871361054942,0.15328592349020329,0.07886867093416512,0.11763318005163138,0.026724389588449134,0.016895774431790623,0.06456349231985936,0.14504412248000065,0.179035263898381,0.1715442705230578,0.09656826279991637,0.09719532509206727,0.18448890660604933,
u922,0.04343615042244653,0.008901133161664425,0.11448564272049774,0.09868463976588106,0.1977818775965801,0.0042583079172836364,0.15478701554463872,-0.0026486244533057255,0.008836047210974321,0.01237164781979172,-0.00545596130608709,0.1341204745197675,-0.0015355099011241879,0.0457475770656688,0.1144957000385431,-0.0012571885115041717,0.010170012565802826,0.12649863111842286,0.13890036899648378,0.015473970481117635,0.2290285874960549,0.004671055836246061,0.1493033639961398,0.1048854316690223,0.18285687003954035,0.039121161303817834,0.09397838902699145,0.02478238031516136,0.08495456482185557,0.14252121463063536,0.04210820984216851,0.17575539891697936,0.01704925405302131,0.04194156939297791,0.18361104304725231,0.03956117971106226,0.10926840184553625,0.1787543213001186,0.21496933592886502,0.043443806434578444,0.15181812009575021,0.16714672017313226,0.16997866843760687,0.08698627093847777,0.11296372565584145,0.016618392186188345,0.2334960571015611,0.10869276406373339,0.05083613889992147,0.18047564441947178,0.10490523550530013,0.041342591233952855,0.09376215671026608,0.1402288669740892,0.12456364326411694,0.21941096211809089,0.1151709481006663,0.1277830231518686,0.15533359820272755,0.10006146112274995,0.17496239787528223,0.07177166020405411,0.07386663424530011,0.16850238358027464,
u923,0.0742027638921322,0.04383786547655523,0.13277780818491922,0.1547144889709614,0.16618969305269018,-0.013730745734014822,0.030432509520802998,-0.01340791098392306,0.16702726213746888,0.16820903461554304,-0.0071995348655342906,0.09764418752985639,0.11648284069277726,0.12212559839020108,0.15893868573758851,-0.004498012993699071,0.1336089265065928,0.025885130245636875,0.08418068127071696,0.04634984704311295,0.04335676475609636,0.18404815390124873,0.10840027212440767,0.03564188528235185,0.05744919016324,0.06769170021158219,0.02079340770338473,0.08035798443976518,0.024382355218204647,0.18662535181421544,0.18553141903593157,0.03387209987145103,0.021041842697253017,0.1793979666000373,0.05876107121873869,0.12702330618970506,0.05101259089711047,0.12357776278289206,0.03691067367953474,0.10165631828754346,0.051642626363562184,0.16570932571904437,0.137679739487462,0.09063798689944036,0.17667842343590742,0.13607516227685107,0.1728998573641851,0.1794773011206068,0.08295970697355293,0.14856985355709296,0.1442860031259806,0.057562657747234174,0.14201655503996083,0.03556502178976833,-0.0019762715671543373,0.06338237579856638,0.15027596906385485,0.04616475116328964,0.14757507668922326,0.030965072970325257,0.05917815547046401,0.14978164933287183,0.15895882957088914,0.1629019306743819,
u258,-0.0031178559256227643,0.13062795271589353,0.12729742866940297,0.1819392432561992,0.033045063941195996,0.18385694872646308,0.1356153810155857,0.055966832470887865,0.1304939747247397,0.16688218702961727,0.12056739412384596,0.14177565680567009,-0.006212024746826938,0.03786979695258303,0.02834079896462852,0.1593975232671558,0.008949312793595761,-0.013751163758133808,0.1708606148316041,0.14813791655119277,0.030121444877104275,0.16794591515471322,0.10592668616990225,0.08103048461059864,0.056915283359018,0.10684787919343328,0.056882108503164754,0.02863763306026288,0.09209736288054379,0.17683736623103355,0.0927939547367961,0.17973197210626468,0.13522320444799033,0.1631025818020967,0.07524878682805072,0.050799318414657686,0.06156272228984488,0.16708001068785,0.0835673315630798,-6.259004384520338e-05,0.179166373812878,0.005328977078708692,0.0007856189383492747,0.16011638969674694,0.06662231393381655,0.12404426495163029,0.029224233723294184,0.17873952921741693,0.1007251458087183,0.11338678610366629,0.09791591381123517,0.09778317777141146,0.046257877974980946,0.13971600402520729,0.1604586969028211,0.040193307002442474,0.06836293887188635,0.11707001843750882,0.16843307559914045,-0.013030446919449792,0.16716145275912261,-0.0001433093045586086,0.0030674979364268295,0.0009658726470763155,
u979,0.13100878015410408,0.07053065639759205,0.0645108493642324,0.07586029518168895,0.05829473051984883,0.16789557104416147,0.07838618212507983,0.12290808677364902,0.04322495137484379,0.12938357556170638,0.11878361189767347,0.1368046301024072,0.14675525961332633,0.13793529379860026,-0.009648912605475278,0.05893569233408312,0.07522534971471104,0.10133708237586261,0.06590561940898146,0.0938506853993348,0.1326496046267802,-0.010784748726964317,0.04856839317584299,0.06819597750475576,0.039719901627998266,0.17669537897218587,0.026010324794488157,0.11351419719798189,0.03809770767837619,0.13270843331913956,0.07626007406638254,0.0922468593165895,0.13065058833421314,0.14051225870090545,0.18465392279410547,0.09805042795257422,0.1727776784068906,0.09746005187778367,-0.007546859429948201,0.13205194977113252,0.12334492069042831,0.014232086105157176,0.09411546947687324,0.19418625708729353,0.05158741497690736,0.01453463741149935,0.17766385638680227,0.09815606438997235,0.1081214551008079,0.08620179882567716,0.07408429713674977,0.09445434574089566,0.18637761445539824,0.1856903162156308,0.16596645059290865,-0.009741847881126912,0.09981376788529725,0.14660801861514636,-0.004565705992570442,0.03895721510922609,0.1524165421813415,0.1670789441874329,0.023638426554177555,0.18147715317997168,
u259,0.10893775891064295,0.19826671050219116,0.007518867632173816,0.03387084657185709,0.12490892931312252,0.19170958278469283,0.04160912769008662,0.11296480994292843,0.027394158858265585,0.18368146703090749,0.11145135699392276,0.14969380675973748,0.14438395400763343,0.09668404504994474,0.1347398601777237,0.07798445509995955,0.1563662377702134,0.17829566541980957,0.04606361750974897,0.10050325447668293,0.19931202052003266,-0.013925660005591324,0.11568754843368668,0.11576350661823055,0.17918750417802212,0.17641121101352303,0.06241581853481736,-0.012435161488542457,0.09488590913441,0.05282255653744255,0.1714979574659095,-0.008158032945563254,0.04363401916733494,-0.013212047687157901,0.06643078147353605,-0.011213079048368388,0.1744092507714933,-0.008269100038188737,0.20120842985399548,-0.0036063445032762666,0.1780802376743404,0.061256907178577596,0.030414969475595476,0.05446490026980405,0.06647654579951003,0.0913023068202494,0.08523791014536501,0.0948891068883578,0.10140285138424085,0.07695056316891251,0.11186553042619303,0.04007699488480491,0.03319711787851621,0.011771605846256543,0.2154541969441458,0.05370162919105593,0.14975946346735056,-0.01797688929178767,0.10655012895894211,-0.00860418208720463,0.18832368937466895,0.06904493438075669,0.07310021295539641,0.10039767282479627,
u658,0.12333377542740118,0.16750758964861462,0.08116679452476594,0.038154168103140464,0.12330268553005883,0.11883970909351273,0.1391918909686787,0.2058442117552312,0.17660545425425186,0.009201589625670869,0.08278322916308785,0.1545991709854054,0.0967128725423824,0.13034863134259053,0.18221467141882883,0.11437526285498846,0.07838882463511376,0.09962363699851334,0.17285371206160985,0.15745141944168559,0.06319838567722381,0.2046283911815552,0.1656983005972627,0.023711279314728575,0.10665642089070929,0.18110834810261806,0.09924810574993664,0.11004553575487801,0.0465907255622718,0.13297434661897026,0.055731414663969664,0.007709866102893036,0.01260489744490118,0.10733446653395601,0.024151647486459506,0.10611960287531266,0.008907706733987768,0.04404388442492735,0.14010468388984412,0.13042996317337238,0.18009839860751267,0.02377878550240354,0.09216446709382825,0.02785615082658548,0.11474559613424859,0.01421819293344726,0.15021766260399086,0.03479637174086997,0.025390072190627607,0.05917830341772113,0.046631215321332735,0.06428731421650148,0.1258145934839504,0.18673689635139745,0.10069102442116508,0.05509626547793449,0.09877222425179996,0.06762097214739275,0.031116442634666962,0.1899627993370314,0.19822086366154865,0.17049597845218925,0.07935657397513414,0.05914832301449519,
u90,0.012996788069033434,0.18806588099713878,0.08436222858176853,0.055716641363312,-0.014119849115587444,0.025111830821391595,-0.009421513854030287,0.013010792869379995,0.005660071195067272,0.16142795755593448,0.033597243226735615,0.024131465691926916,0.00016883950241433632,0.18683250197144136,0.1377014044568491,0.17278416382567932,0.05135185288238813,0.1632616937150943,0.06519334316701116,0.17115170295783622,0.007266824491035208,0.0920586529983284,0.048536843630977246,-0.01460328197293923,0.19508614669556493,0.14552055536023853,0.11012876515181483,0.1812394641689449,0.1926524794865958,0.15400413247793843,0.059753140321813614,0.012688223179735404,0.0796227955174574,0.08083523737528203,0.0811730489430411,0.043555146503983753,-0.0011080653669508498,0.014698937232586645,0.05594118505188447,0.1316959067136674,0.16727045637361507,0.02483616332950342,0.14666975169737148,0.17079863485664126,0.16458294634560355,0.1428584168869284,0.12680410529843705,0.022504629653759562,0.0747799739827348,0.0933683369486418,0.1224273148512206,0.02685318862613585,0.19461686340391102,0.1352961609495166,0.13551440747221008,0.17040850294677967,0.027760198580059545,0.17312297804405236,0.14329109487228314,0.03859104572709812,0.18665972359882887,0.06491480546378746,0.016737881702546562,0.04407747945345398,
u659,0.12477215649901749,0.06364240863528234,0.10469163810446322,0.04853981317127339,0.08377433206388099,0.08718679792970288,0.06835796591080044,0.07566696528764169,0.1054584377736042,0.09175017921680265,0.09802155315566895,0.05430955253890971,0.1045501258874104,0.14955512132466517,0.15917147367556722,0.02954741671434692,0.145495244148926,0.01895419686836417,0.1785274328200475,0.19374633715299747,0.18794492921469938,0.12445174306728173,0.13613925113962294,0.030812795560407048,0.06050846440323512,0.14550180585329223,0.055624002173005296,0.17850687209290883,0.08940701306327681,0.006812814056520912,0.04653732730131688,0.15794121992278665,0.026482782539651216,0.14845734409021988,0.06767321687402816,0.008643600411159648,0.13799577779618177,0.09959968908030055,-0.006332078605217926,0.15795281992738863,-0.0001113732922046578,-0.011438306179243891,0.031612896983636035,0.20368357952677868,0.1798743680451433,0.17714197827411673,0.08316693092452176,0.09680100423180808,-0.005567088492805869,-0.008313342064091782,0.09176332217260998,0.13631629458221264,0.03228615417846363,0.028501399522396702,0.09064018043383948,0.04166276568467711,0.20174854669530487,0.009876131375906313,0.2009867143958676,0.17740436372650525,0.0066395474385993695,0.1298328544802633,0.15008467083241908,0.11763284354918366,
u533,0.043526406825070606,0.059145110855183106,0.13618934597755986,0.061757067135177965,0.12586163353196522,0.16349766375080899,0.0700521076159705,0.07826597762686979,0.17737967518140957,0.14662739268912256,0.20507575896327718,0.05667630931023369,0.19379747950796308,0.1639394578605793,0.05381860408472165,0.028665319005482998,0.16692364795932557,0.07396301898413694,0.19029635281938384,0.006168918892408265,0.19757802797287122,0.1754966006185708,0.049531315473701355,0.0368143085376071,0.0009253341500446324,0.20487098032037115,0.012731837825600828,-0.002109781509187573,0.13377206420458573,0.05197355629816281,0.10559277665588322,0.19510419553653882,0.0013468992445954898,0.062040291467451596,0.17679141024210324,0.005960602817212646,0.15486409254139333,0.157848165979709,0.03275257513549964,0.10832829512065124,0.056728770393802294,-0.010751096802980867,0.02490109238523891,0.050875785614636015,0.142090404912972,0.06584397640179966,0.17699606692407918,0.14931103424639944,0.15644230752662686,0.005962585760285831,0.13323180751411534,0.060608306433512636,0.03991566645333648,0.07587378823894385,0.04918598757663798,0.000603061522999193,0.15092586414512532,0.03275641297728384,0.10716975108334632,0.18556979659972292,0.057975711406737296,0.03815051549875312,0.1289752495563532,0.16411098223570453,
u532,0.011587217696935732,0.17464071490721317,0.1606678420125953,0.2064589500334909,0.10730905617043313,0.10971685666624964,-0.010575535754615534,0.0400195798304164,0.17840063886195567,0.11125065379814254,0.07685453044361068,0.16868643824389074,0.07132524350100038,0.13003943942269405,0.004524743401336285,0.19697519636873675,0.123652243194397,0.021505071637614517,0.16123004899217763,0.007463924909214773,0.10093464331765253,0.18656695453908906,0.09407529673445889,0.05377765293717571,0.07613968129920622,-0.013409282010183073,-0.000965318813520926,0.14845000295312025,0.18671855977471133,0.10583844515231472,-0.005050516630683618,0.06980818092357184,0.0740968731090756,0.19626235229916325,0.08560080101406459,0.1623784659153513,0.019517399413801872,0.1584291002394414,0.14818561059877156,0.10942266680028957,0.061391783225298945,0.18726425903450847,0.032349168038056965,0.10850117173648266,0.042984098895945816,0.07297631656796472,0.030092359199727713,0.15912943604052845,0.012058531018003419,0.04518537581536799,0.067152148731576,0.1588756211818955,0.02827174213905051,0.057292980382199356,0.09781338808662288,0.18324008005327805,0.02649622606710625,0.07300610927076842,0.12838128896909848,0.06186230448382037,0.13068645187283698,0.11256289177385662,0.08082511031103261,0.03057792200059072,
u531,0.08351836726532673,0.07662334706395874,0.15037760097623806,0.08048044874924912,0.03532725727196527,0.20603738693920062,0.02888163923051767,0.04568713320549038,0.009426872296068435,0.14606109560533076,0.1130510090530887,0.01989001976162106,0.09463197625160727,0.12272352709938589,0.006513567436869158,0.08817386182148795,0.04247841905185815,0.1958355753283644,0.01003509610318942,0.1624404230335004,0.21006333528452048,0.052328578011746986,0.22052254296806587,0.22190214689154433,0.19403563846124505,0.16913418603735222,0.09624044372796335,0.08298334584307972,0.03264556964259184,0.0713980272758994,0.02599177139954883,0.08190744398222058,0.06743259337831209,0.17736529031104117,0.0011371368132699487,0.0014828700084768586,0.046842826637070956,0.07247001638089522,0.0521433439861628,0.11451720115867481,0.1671544217813591,0.06500297574667463,0.15031471230878912,0.1541498590848103,0.20661963904555214,0.13400616235363813,0.0168110162989424,0.17292521645969433,0.026109614747954993,0.12429532425101689,0.1796199951912756,0.08307651261392186,0.09456336877054788,0.15553843527589664,0.04230483158838366,0.11478776732428432,0.19303098321607728,0.09720311994476408,0.05962337065295462,0.19123740200741857,0.10729860286723741,0.0714662289126353,0.2058297680989429,0.20528793878784665,
u530,0.012084585825892218,0.12985275620843467,0.19148527419601996,-0.013258603306949088,0.05907506132040091,0.17525787930904985,0.01997967611716283,0.09311134366950005,0.15295774417666957,0.11378848334566817,0.08091171869500267,0.1144074340177438,0.1567228400577368,0.15796585474284014,0.10803368891345522,0.03426650076034894,0.0392108875704199,0.12227750435501679,0.07045482738661964,0.12675445496775609,0.09798520190712628,0.004429171066225407,0.07513850014609329,0.1639942710365384,0.033039594713805284,-0.016056986997129326,-0.002907742819967782,0.04679117309150283,0.013158365440498792,0.18040515161854292,0.06891913116389078,0.02144056053134714,0.16727812203333764,0.18910120096798003,0.0023038919401120253,0.061689989730693284,-0.019077471019513122,0.16001326897310203,0.1324223173924957,0.08758868514529762,0.14480127881453494,0.0016598525325763995,0.15449325392303154,0.11505773129127102,0.10542156486244045,0.14441968297456248,0.006676270189415673,0.030065568363754153,0.15964431241195237,0.12705049553289186,0.032264686009438055,0.01404012405593457,0.11671064378968621,-0.005926773321487928,0.03580013804568907,-0.0015164659825929383,0.04054871725564051,0.08982779308281771,0.11337745619552922,0.1522199399483457,0.023580577673063312,0.16885142886375806,0.12484808883323292,0.15142841394894932,
u537,0.16775934724148808,0.039450378105942575,0.1671037340844,0.06175890935884288,0.00046056723738578274,0.004923881229303497,-0.002803785516594527,0.17212792015093356,0.06354832936278881,0.0327061735099977,0.2264937100703376,0.11879657949298533,0.21105383957745424,0.06167294853998154,-0.011334179300115502,0.018926912298800783,0.0649552191534361,0.09805101323546356,0.06130663377612418,0.10270197166769439,0.08154044365115973,0.11688512563471046,0.04192950469996599,0.12112710777217028,0.18511009731278236,-0.0003870135466600526,0.20945704804287257,0.014994085840829896,0.028660102363324374,0.12099260633590328,0.1121062313584535,0.18734662047012116,0.2223558696049317,0.09872397891801375,-0.003927210924313835,0.12237846353860485,0.14325104933764116,0.05071807466923534,0.13196787192857168,0.011578003258741745,0.061559586832584674,-0.007125059649348203,0.21842901837838957,0.123676546791062,0.05819908323852725,0.1849098753904481,0.15367759663452843,0.09194346370334719,0.14389552803551142,0.06376615918748871,0.027783831873403813,0.009576467254675201,0.20553149306367896,0.13221857590955322,0.028565543926221827,0.09435325608064511,0.1107987498213084,0.014684089032811124,0.11976955477891525,0.054255897228487664,-0.005771259645343603,0.1696190034506583,0.09469390245187069,0.002921268094236867,
u536,0.042430221470332034,0.06067205544101934,0.0322777388353619,0.1631213163735234,0.004811656120558386,0.06243146215756366,0.004872832285031125,-0.005548486299926828,0.1451657840115106,0.004340365044584616,0.027427298762743243,0.048971309845059145,-0.013519234175877528,0.09120840158469624,0.06884802683610873,0.18416975293376253,0.07043256989529627,0.04770303208500041,0.19406690943744834,0.021832835061360863,0.12644468287134178,0.14431776250984657,0.1323056514883329,0.029831031122353607,0.039948919082399025,0.07041929472211231,0.04846923988444702,0.1607767634523846,0.07009448073079455,0.027214322795172757,0.02425465843642108,0.08887079976224468,0.03050533185927224,0.16946555587180923,0.19058805499011064,0.10932819495277002,0.08688667369476025,0.16738373926974776,0.19705567077775568,0.08090026472427485,0.1665059219637043,0.04880103479634207,0.18886400322199362,0.007063489609024915,0.14071410558750175,0.1600898891048209,0.024804721842655926,0.11653744943593042,-0.01008007147976463,0.1742244871103091,0.06890177953552738,0.17202487383686868,0.1856967480864006,-0.0014647654043973316,0.19861015879767857,0.20397129586687696,0.010506623654735078,0.053169653690958635,0.11370576096378407,-0.006292459135204386,0.05888209305352796,0.17758716273528485,0.12809249218174043,0.18312211713405271,
u535,0.19015877800974887,0.09743151975412104,0.11422084125376981,0.0786125076091287,0.06907868459401992,0.02821856876993464,0.13775930353071125,0.1387659189563753,0.11562973793783993,0.16693982805861013,0.0988260882120036,0.03569451618579096,0.013318460777661757,0.1508639080572507,-0.004149467301462936,0.00711517908944592,0.056602295812929505,0.07918089743872019,0.08304554003071037,0.011368251631344441,0.15779182403545644,0.1126500649158239,0.1719520838230601,0.13247938756817007,-0.01227051073397257,0.10460907997988977,0.1437474230137205,0.019124476943609695,0.059597230832435615,0.04136658357644036,0.11485017771765935,0.18762429320022375,0.07494897823500117,0.13375905071495084,0.1892532214285221,-0.010322895179281246,0.07050131674343584,0.017657471789958946,0.17443886167516667,0.16781680329330237,0.17426821839127105,0.025687807005185075,0.1901746093869151,0.17252877338645625,-0.00230112249381515,0.08933399279844306,0.16629090275555514,0.1286209034569887,0.09173219993962263,0.11773792012383484,0.07680665872976124,0.10947219337034274,0.1677480409742874,0.04924340170233974,0.16206807340176305,0.10527595511110677,0.17681131558499422,0.017393550126875684,0.09712058480884878,0.10238937704835276,-0.009246287857555312,0.015583272567048403,-0.011819520012133771,-0.013013121097212218,
u534,0.15947632386342894,0.12827405402681846,0.11994916528916784,0.1572564715306265,0.03440422346185491,0.0894721446988025,0.01692685943667308,0.158639066476441,0.14665609905417326,0.1591754804742209,0.04809943098834048,0.10723044176622624,0.07703056759449813,0.019286324050166403,0.16674356306875826,0.1281178154890554,0.1135032173773198,0.10183823102206312,0.0809246074348354,0.0211339603370587,0.13873618319048484,0.09688402079124457,0.1580123987665995,0.05778878517811646,0.14616405430516172,0.16483843051955235,0.11225607570762366,-0.010931706212918916,-0.005620693266964803,0.1532707635903012,0.09257555587078543,-0.0026440676436676035,0.09041237865738296,0.022289014347741616,0.06843120745074377,0.04227094306378697,0.16565668469323513,0.13966331820793554,0.1449423623195384,0.11249846900554394,0.13034543841583818,0.06132838279596383,0.15983293449607106,0.08149178277560579,-0.007447180129179806,0.030367983459267788,0.0617597637303698,0.037798462412760615,0.1645328773798858,-0.01204964707712235,0.10534044589063077,0.004090250873649772,0.15439953697223213,0.17490748587467744,0.1118908822946115,0.1477123858663921,-0.014928446608937572,0.1202320974509048,0.14165319199061577,0.11227930134446583,0.1420769197296811,0.09006564573748481,0.010759130641927567,0.11971922945420099,
