i148,0.09435570076804788,0.009165560018082648,0.09196447887654487,0.14392076277777321,0.01052761359345185,0.15149120178457154,0.13474293481093821,0.07269218396017078,0.1446827462650591,0.19353308738820832,0.016148880503559015,0.18046389849479694,0.046869520995180464,0.08811810037924638,0.1606066087503128,0.055984281199680574,-0.0025409028248747447,0.04102159898703763,0.0033059089926534145,0.07607225449149504,0.15136248616078968,0.05309006105833213,8.721118431187796e-05,0.017121993931214958,0.1446219683849294,0.05351949601446607,0.08200671149956007,0.19418044550703595,0.17838872452311638,0.015904171038543833,0.051035398365552674,0.18586371837861815,0.18536044509546287,0.12090271318008902,0.11774794881445627,0.19316147333480774,0.14257706490914415,0.08090621713968016,0.03513552826890067,0.009809575321149584,0.006885276629094294,0.08819053696455105,0.1265737108345815,0.061661785575166626,0.10134674230170003,0.05391337665227401,0.13933842813199648,0.03409989739461103,0.1407613134515191,0.12268345729357724,0.19505047853640914,0.14547356983593462,0.1434036309219226,0.197650144664923,0.10799922730119929,0.045702575531050185,0.14739189611753076,0.101545652829449,0.18545792908008982,0.11548941941506792,0.1426356364201034,0.19486409529028256,0.14849180218353356,0.1381944137734079,
i149,0.09071937420569208,0.04469482894168307,0.07389016282875967,0.17907853689819295,0.009355931504186602,0.04569514691280651,0.09503643822203194,0.046521418102624806,0.039058033950155654,0.1323744782510025,0.08119107020472846,0.08394896982516319,0.06895991643829326,0.14466456007039294,0.14218170688745385,0.15092324606923954,0.21074748743100094,0.031039515543201807,0.14829444016027452,0.003698223597255804,0.016182990806576383,-0.0032788054534684478,0.05140202390275542,0.04486464372224859,0.13383533399147418,0.1783698467160094,0.08037983975724033,0.14777121638004329,0.17941171522969673,0.013110493102580029,0.10133377688937058,0.00943470760199257,0.20484406932573773,0.026803088885110543,0.16927999988139764,0.1367192503888769,0.06399935404171779,0.10089311883152642,0.092238636310139,0.1789464885175246,0.19813731466488452,0.029378108510928914,0.19903223584786123,0.11432747071368675,0.060493311657293825,0.14438816680064695,0.11956584584479425,0.07449792508981208,0.14922779351451929,0.17059951222600003,0.13889820922396787,0.08701684567845118,0.07496163032577585,0.07093194007466844,0.10218092865151458,0.03233748678809357,0.008015302525350943,0.2197855508606446,0.015981761535563042,0.17994434538468398,0.1056714487532953,-0.005807843112255524,0.22407494490825855,0.19512057729684515,
i308,0.09989481005530082,0.04234739370469101,0.11956617203170024,0.03773353421519143,0.12452050934174409,0.1817687548413187,0.04959502584930698,0.1949425203493012,0.049129106841340565,0.14967328306230332,0.1508113904317533,0.07943878254985565,-0.007225775903499319,0.06683463434031614,0.0785521153473189,0.06077303776658569,0.11922709870784054,0.10788310249397003,0.03805450513708328,0.18149567414098322,-0.0068766608564136055,0.04980770009204063,0.009715701170950202,0.11902452287899576,0.12107091009137909,0.1898986041549687,0.0905632155719019,0.18181699695432427,0.09497809181134938,0.1830243004703887,0.005432329783433863,0.11119045618731872,0.10304013140559892,0.1594738435446548,0.16119114441869917,0.10078578410771928,0.09815984658884308,0.14636971962394085,0.05818440478420239,0.1844038352082259,0.0944584855233095,0.16759932326628155,0.05134975758326375,0.060582921211208195,0.06493421220769091,0.03960960205362167,0.13954855892595927,0.03877784695742175,0.0008835909457406913,0.17791837423141219,0.08088061498691375,0.03252767116645541,0.12929310380794434,0.13870223123895745,0.15171060969214256,0.1042980964780903,0.10484485142103388,0.1728286032353764,0.05553312240665515,0.1715167287885149,0.1484338822196251,0.16427009586216532,0.08063034100610986,0.009054150773939678,
i309,0.18543593817657364,0.139096367028886,0.10900260348840586,0.1620430201748389,0.08578508327520094,0.0008915816588462385,0.16849884423645792,0.048543169451948344,0.1212343938995342,0.14402640635108532,0.14216103396431445,0.15416941076441987,0.12617929740166686,0.016573343638620876,-0.0033921185667355105,0.08461173486139624,0.12431452585778256,0.135695177653978,0.1497666516977628,0.17914349737072283,0.06991119064334592,0.02602231316255113,0.0072092657734547936,0.14628154067620366,0.009817786237907623,0.042630673970994626,0.08537524905321504,0.03141333461316819,0.19778436367510818,0.06728952471850423,0.10163380468646199,0.053747953462754815,0.11486846552222807,0.10508490473250412,0.1251521486645589,0.16714941855419677,0.044452584014418706,0.07787367415228996,0.10541345037032174,0.17684497535674176,0.025736257421236437,0.03269684894864945,0.07925297454837298,0.1614008267068293,0.15690923127999923,0.13946749590215538,0.19525482365246585,0.07633375592508161,0.14861907817124695,0.005977079699995451,0.1873904902925081,0.18066036275260586,0.02644985688257983,0.1800148078777934,0.08775470420914976,0.16376237864137888,0.15294760033450996,0.10508278404531031,0.09871598875281541,0.1742907295228742,0.17459445218712724,0.03543131345530267,0.04367574218651297,0.11969767180426813,
i142,0.05697545043295563,0.005522441586685429,0.03447838101740367,0.05504761894738674,0.012619870957676266,0.008384197672992574,0.13205380335667438,0.026858061114666817,0.04978325993586235,0.0935373515789221,0.08560157371466667,0.17631882059357312,0.13250795895258022,0.03043878399234721,0.12786221824581473,0.029956582358166024,0.1669289383546389,0.008589260653570146,0.02861029523490592,0.17878677643041052,0.0331867380881153,0.010668334005806891,-0.003928146461980909,0.17603250244187496,0.0885081482539085,0.13271045969931689,0.19434601260804765,0.057481814981807385,0.09957138898142269,0.17771649646737592,0.11712209575427839,0.17988745846406853,0.16454650466130383,0.03298389703523102,0.16609573894535906,0.10738655091616266,-0.0008403907743986678,0.20010005714932244,0.033882557193357185,0.09580453525692231,0.09368317592095987,0.07492680168165033,0.19141201098514485,0.1430171400211423,0.11565983045674803,-0.0004460361172835966,0.20169023895429647,0.19348357863008023,0.20358937358229168,0.010277105212104478,0.17728599411297943,0.15282278317794562,0.14013265614932757,0.1854809009815927,0.1650730645731027,0.021899805141588194,0.02960283500283406,0.015007262664894862,0.1584293565471165,0.15303811744457613,0.00896590246386641,0.055165057891443485,0.18478029110395724,0.039465845684088605,
i143,0.1931827820860161,0.1590262700815445,0.13704768496239664,0.14552072101799268,0.15873125409305625,0.12782182374583134,0.016873178098284328,0.06106349470763823,0.20728306851712042,0.15414799590245984,0.10443585876095628,0.033231791755529656,0.2028377178071732,0.011823518857685147,0.04057874665160847,0.024334792105711062,0.059281994224881875,0.1250425688434671,-0.0057908037624174475,0.046795795341386504,0.16543330252630753,0.08423254113589619,0.16577071275800417,-0.005444297343004391,0.1439341814695655,0.10802670499596004,0.1586647223324877,0.13407614310877486,-0.0025253260679328348,0.1052402432238368,0.11491708459139077,0.17651609803384802,0.06729787512934791,0.10210577525413386,0.1625424073857279,0.0570659258952463,0.008940625162156683,0.05269771260035792,-0.0006998513684734713,0.1871221175290277,0.20298468266181535,0.20259150520175778,0.04584849541432885,0.07333891079279505,0.10025483892792347,0.042926462369581794,0.0077697228359633365,0.07194988757490979,0.08209082243222862,0.1557009213244326,0.17060670827325985,0.17386461042530918,0.18366871492152606,0.16003123678468872,0.16739294703782928,0.07994724896784956,0.14320017545199623,0.027223483670356652,0.08083333362042858,0.045660485704755796,0.09929753676664195,0.031133333170324833,-0.005466180812308885,0.04444518798987164,
i140,0.026805558933917683,0.12262981036864302,0.029502530271573766,0.007995618067057187,0.07651400422125328,0.20361947330205252,0.15987915129144326,0.14532105335500264,0.027682126694460508,0.03925342498469694,0.18365707032592535,0.1158516489040627,0.19250159485186222,0.12724898752136649,0.14665930419529563,0.024036442838003148,0.02662668831673652,0.08371311353388883,0.03164078994996219,0.21535016195855172,0.16740101256484285,0.03242074243510707,0.10153266981351106,0.12057198951846601,0.2178028928441063,0.06623882356784344,-0.0031836748402415357,0.024624303147497677,-0.0036091908361607083,0.080742960138215,0.1725972023073509,0.061377664280395795,-0.007258248487268559,0.007751904705149358,0.17251242160930425,0.04497527537368735,0.038564054476513177,0.13850257726476403,0.0957218832571823,0.07635420891644391,0.16104461696607814,0.17349000811536422,0.13996847284933434,0.08812259497324774,0.10096919347859867,0.10249067253770834,0.0017602935965707553,0.06503154320107543,0.16762704398170558,0.08222344227868213,0.1505301388617071,0.0745464620130333,0.20913922804747412,0.18775402610031844,0.0576533672716567,0.08781005861708967,0.1188393750804556,0.17325408228778785,0.16208015564258163,0.20004692312504052,0.04732161356055943,0.033507372084569984,0.11444470533673698,0.10119564410096271,
i141,0.1638534863121901,0.027108966694121862,0.0028744220930975095,0.10341916849536589,0.14826675352199692,-0.010381200209664944,0.16146785632770572,0.12492464197299248,0.05021777537290152,0.05820305093828568,0.1260899424840929,0.10259631612552314,0.12451664636529096,0.18911644197120958,0.05133425443111641,0.18855191900143797,0.046587575670350725,0.11662693638249905,0.08703781331541673,0.0332302991903488,0.045766013990952446,0.09983008956827231,0.16130058446477968,0.14969000583319125,0.16545898878294218,0.127537683671454,0.03209311350340416,0.18783428377052355,0.03422885032811643,0.16403340615742362,0.1818166281525013,0.010625990796553448,0.021822697800041268,0.04327443406274871,0.07221601087271604,0.06220173711044012,0.03197524578123949,0.1555365781350495,0.05477709859825561,0.13966125591833906,0.023164352173824378,0.04422746601363187,-0.009853528860383591,0.15464042606163045,0.12940678523276056,0.10038353256286502,0.18036510048641388,0.050559916855251456,0.1041005224705229,0.040476136607361976,0.03842119978449315,0.09864093937078987,0.11497653536609415,0.059892036822878345,0.14074679524591158,0.18388149294741993,0.052888156527133176,0.17723638214780815,0.13005003348059793,0.15727975697271213,0.19252412039440453,0.13439589072765204,-0.00110376999399002,0.1432732374045767,
i146,0.13157253840897634,0.15948299414039221,0.12823537925223766,0.2319268590532604,0.08915187992515866,0.2145819030995667,0.19987309964316005,0.14544470571887883,0.11675465369793737,0.14461203479202622,0.1584261938596358,0.11820795600649418,0.15144347460330007,0.10295598587510758,0.07509485856246051,0.08879561531334776,0.1377817693912848,0.19058259031375804,0.07912736824387608,0.19502477871192228,0.13705226714721866,0.057995975591943444,0.014740859182313262,0.013621453893023688,0.031612022210759386,-0.0062771645609694315,0.07144510540594112,0.010233311435645914,0.16064861990007212,0.19328179199114726,0.01857693154114068,0.2390607409879469,0.10870058029617254,0.16621427419847798,0.09761953683967327,0.07098706906250171,0.1311260812231609,0.05442359160127069,0.08753305492276772,0.037609532885347866,0.025258230228129213,0.12012193471642266,0.09926935424076982,0.01077549047455562,0.008433341978238125,0.016650955115586636,0.028803659225555226,0.1193976880475707,0.001538500744538384,0.17954688223419343,-0.0009499662331568752,0.047612897160571654,0.23223102811870966,0.049198723398257205,0.20875139861888858,0.14242222519290945,0.058348096659258684,0.14171297570938343,0.041951650466373364,0.02720353349065792,0.016300996959892657,0.01450005410684945,0.08141941234447232,0.09093756022642818,
i147,0.11354276865548468,0.07348166955339566,0.0546131252380567,0.0882495811061437,0.1639563564754631,0.17798239036240485,0.12584545755874413,0.08191739310023832,0.041139561711910785,0.09342656247866048,0.06696081418567314,0.052843026272231135,0.16959308729631925,0.17094820333345892,0.06987094551501234,0.014070502964912999,0.1362584548319034,0.1414565315788651,0.21362206025003103,0.18103545992447054,0.026960863109987247,0.09235448967178997,0.05160399414605617,0.09013843247319604,0.047406590167519774,0.14281584950587325,0.04251618815768337,0.20559042018021675,0.13317545827787466,0.07436001746130404,0.08620149010434389,0.05038458252191005,-0.0019357007304861744,0.06578413851901253,0.04844288307370817,-0.00034044086121252546,0.03155150494317507,0.05487604799606683,0.14819440449287408,0.08671557896213859,0.13627143406358017,0.020662506575261974,0.21036945826592088,0.15872815171503069,0.011402724206854687,0.19377317060221314,0.1795094317528219,0.17258566885018875,0.20638573445512495,0.1904151133891362,0.012921502286772036,0.09951926731546526,0.014378974799579494,0.1906944738720819,0.09349274929872309,0.12135936033782112,0.2016598861378162,0.031238377123783728,0.17669271936547187,0.04992375273794855,0.17037774071830422,0.19448035742763226,0.1528488682701669,0.07031542814415681,
i144,0.022128344831191867,0.14537015834591138,0.11918157796858792,0.03999925127149889,0.12919257537860965,0.1007743269760003,0.027799815287503856,0.0519873157204676,0.13048364895800163,0.17642410680707096,0.19022006060881086,0.1591979180707739,0.0158548524892492,0.15827723423932916,0.10556912705147045,0.1683637750380333,0.1279508789712447,0.09896729269700504,0.008322980629370733,0.12498845056505024,0.12749539744892124,0.035095871005934094,-0.005738203042388896,0.15432620187371618,0.10958269733844986,0.058672408194840625,0.13360744275669034,0.09311995797865177,0.19671631956423652,0.10818885719189894,0.09341961257209482,0.14113953268261253,0.1182818303553794,-0.004939008021962146,0.1710841747323413,0.07166061978930827,0.19795941790785185,0.08286526437116679,0.08189908922246013,0.1849618352347624,0.18726311988336122,0.17564934946958796,0.07307491506067201,0.06576777218210561,0.1917177938092119,0.17594331301225177,0.1437089960202896,0.02596880283512461,0.07845263712413908,0.2031340268827368,0.11629141719638442,0.08711334036801244,0.03149434707374491,0.09975622746543555,0.08664130042205184,0.025378751238212798,0.06315859642755481,0.007189738509616486,0.17748015440112566,0.0049327083157796785,0.08167031527203682,0.1823261256952933,0.062195943898872424,0.040346872149902034,
i145,-0.005633114575409488,0.08317686706958376,0.09605016685914232,0.05721401259654357,0.10460682632221906,0.180223942566748,0.023053544584533132,-0.012351361320349908,0.20041941961706275,0.1359840549868074,-0.0022191202050918938,0.12856164583105625,0.008300442101314046,0.010812140968221143,0.1583791466693587,-0.020314189112430377,0.1527895940169014,0.19777408787566902,0.16112178298350083,0.09038709487722288,0.17523588233738555,0.08020561733638752,0.025517612525617652,0.0388737838345815,0.034888823685295625,0.14971114109272263,0.033237048172507486,0.15411023798538875,0.08686931683967546,0.0953212031248779,0.1876858708809219,0.13481973952794296,0.001764618212185437,0.004827628904319024,0.15078949137462086,0.1198849458864631,0.034081795852433726,0.034297127739419245,0.13066722348263202,0.06439255260809394,0.031658508072412474,0.059908273811968685,0.09128070683729136,0.13047701095426917,0.1364611527936361,0.19881909829328112,0.18582994802342565,0.18075369074256756,0.0848609131263235,0.05648043655816127,0.008155803911645488,-0.014067861549844293,0.1534594947686271,0.15074515985149595,0.007498136122513887,0.044694709558912124,-0.012045868149633333,-0.014435992708446142,0.05971945816707613,0.1325186334046542,0.01989869365045631,0.010970104093613141,0.013795082336620192,0.11956303758145648,
i304,0.13595598682398463,0.019984918600380906,0.09148390355086423,0.08740104329312223,0.06260584073510646,0.14810051801609284,0.07266585842111976,0.20957935953931917,0.06230938628111164,0.010272575778518244,0.0681987022518764,0.07080742271750276,0.08605056204527214,0.11316426882417713,0.06351038812274466,0.09419279527204757,0.007301148997412774,-0.002496225667357342,0.1681693364179703,0.0787402419699207,-0.009768179325564369,0.10085823484013365,0.024443039820058136,-0.001077732654056822,0.14324236255525755,0.01848493445574482,0.11151800772191346,0.09997234289114841,0.10642814812495802,0.10056606892846683,0.048731263732217096,0.18078156159322964,0.11949597185649642,0.14987815085644515,0.2098221318876811,-0.0061639715581375655,0.07210395891559016,0.0074088064744784335,0.17547458356535345,0.19800536800082252,0.11775194298844376,0.18112617424910907,0.07587271255448579,0.11788809059589439,0.19198226641261026,0.03062021233900807,0.019399076091630888,0.14394037624414638,0.203170254257179,0.039496535546344864,0.042529627052406635,0.04868873913386089,0.11262225548407537,0.14393426811304813,-0.00027103270758598247,0.028352968604832687,0.19401167314962595,0.19032029039584608,0.01817697335051717,0.10495624992612039,-0.010502589604091965,0.1348047294122873,0.08521326970525635,0.18497595892011973,
i5,0.17342710157049543,0.16236472896425524,0.1732563131426541,0.03163687717135126,0.06221389385574679,0.12281441244170277,0.13839435240841527,0.08723945919260256,0.02063710356349959,0.04023947934810461,0.11978815337192852,0.18536937160791347,0.10917265563932839,-0.0065869759121940305,0.04888642855679796,0.09460404679462216,0.1099617344439516,0.14357921704270765,0.033489611864004995,0.033373894822623505,0.07181670684701649,0.03740513188825327,0.1400835497230076,0.16044712123286753,0.15496128456210048,0.05704809350222445,0.02593822614389045,0.11720560468125459,0.13380577301376945,0.138873506399512,0.1813797661004354,0.09727187401577024,0.035095148809716065,0.14609477068923296,0.17345099877237935,0.13079161336149964,0.13786937255907145,0.0636103604637353,0.09455207090691065,0.050802468783611575,0.1385979309168766,0.16246773473836396,0.05624803799014156,0.18810041030114236,0.10071959495821346,0.01947951509438785,0.14701003798530723,0.17467925758804592,0.11328474852249135,0.12987253607729982,0.00029818551149464196,0.0017050741431136095,0.0590644367741295,0.18942339474867553,0.08778625745901109,0.15100977063399892,0.07978448615885685,0.167910065535085,0.10597681551350763,0.022482335240516196,0.12675472889404774,0.13159431851160858,0.04587712593465414,0.04381007195663295,
i95,0.1328783881761396,0.20825691798512927,0.15472360944126334,0.022404178302497458,0.15482443071776275,0.04691626458797222,0.1746955355109175,0.0013378370604083564,0.02820658569252948,0.1686550022420096,0.18325537415087928,0.13356652105703098,0.143953582381229,0.05036697886630452,0.11756206553529468,0.021828235659761986,0.042824776461560396,0.21572596882512063,0.19057328518871006,0.08961863060161934,0.13595814376396104,0.1761219483890171,0.014127657404701347,0.012509684455419825,0.051740505171714885,0.13276256450802543,0.13731332638935284,0.1705748078855401,0.11545996586124421,0.11115905961548056,0.12433200602200487,0.14535234192444738,0.1343484888696877,0.11359714354771629,0.060022719894283906,0.11783953990971081,0.07556763359115838,0.02848416976039516,0.09702595902095264,0.11645178687928041,0.12776365065453865,0.08574177852214546,0.020145947465962457,0.053437708425509926,0.18005055167379513,0.04859806818938087,0.1556523261445437,0.18787078300584173,0.16274605961536362,0.05441707039380175,0.04317099620430782,0.09405292987323954,0.1729599816549503,0.19833228280124945,0.18954193458712526,0.043050367954177764,0.03497645818920216,0.17744344030508333,0.056219329146135755,0.12551403472253236,0.16354221572243816,0.0907828003495069,0.1445637259773225,0.1407893925577632,
i154,0.09792806185230504,0.11763451618928548,0.2208522547013397,0.09894415692705492,0.04166769958382706,0.16587356597222883,0.06951062999857019,0.02003123694186271,0.18593933566370557,0.024366137461603047,0.11404740400957374,0.11667869493956591,0.13879332911827566,0.005542623117917318,0.09581499204147573,0.06234816136399043,0.14088800952333203,0.11793124182547257,0.20257084079264998,0.039288253204905636,0.20076294580039244,0.13648316120594806,0.06479269036864517,0.10128261305353141,0.12477949139635931,0.03187884807021927,0.19939376877179246,0.055084824239831395,0.050813315843861506,0.19779886152232637,0.11442679429353,0.18134506921854648,0.09782540308216481,0.02004640224084706,0.06259235018855873,0.1802768128430835,0.10962976075545622,0.19019675750864562,0.11340363448739701,0.04834978512596134,0.021147791376893786,0.2142102500783788,0.012273474166169222,0.07211008666348656,0.02035267810815038,0.029012625063187247,0.06000270052673646,0.09783075587514706,0.20942956094891585,0.016080362288617832,0.06879811720858663,0.06567669301536182,0.027894977269425025,0.05917984021408945,0.14136059403864637,-0.0011797219361753884,0.12084523786405914,0.0018962032082794073,0.06481188970727668,0.11048438454984447,0.21526237236763845,0.0016048980240818014,0.17500425274869164,0.11454306142907952,
i228,0.06295543490857616,0.1722159169066909,0.08565296325101136,0.10800870115163669,0.03574882924708344,0.15759555552887242,0.09982771088606614,0.14125437130157756,-0.004525326334359294,0.15477838683248765,0.12290710316642108,0.05113778992007291,0.1831718282187975,0.15949258472868874,0.1557179642873158,0.15550110208302825,0.026112859439644538,0.154999677451457,0.0013214839043101032,0.07197338498510754,0.1375139587495971,0.13296693495613987,0.18038757211249812,0.038436070777975395,0.07730101341631358,0.09563336838398602,0.07141562000555607,0.06867900795494551,0.10780102541610947,0.015014637904377227,0.1129206323792839,0.005966556693122973,0.0573897541345189,0.01608318784551406,0.17899829559724714,0.1605709318582271,0.18368772834916314,0.053332284195365044,0.00639529964353255,0.15567557373776475,0.08202371339214251,0.026278376854039585,0.001788198252917515,0.11824149869094132,0.09646843358323291,0.05415173168476443,0.15635771267006576,0.10620784743827792,0.011381450638443171,0.07695260552930036,0.18198985127601766,0.13719576341851736,0.10574868959488581,0.001975178282962719,0.08678014157229019,0.044948943813385316,0.18002513932257935,0.17347006562565168,0.07887098902159281,0.041661343829582004,0.12801229108722617,0.06651904005493584,0.023044514320563432,0.1808296910220526,
i271,0.07672649098750699,0.04831473959861507,0.09546185777101682,0.12197942894158148,0.13221858962490662,0.0691880944211389,0.07118522869077085,0.010490692159938635,0.08978587608894024,0.01790255620293447,0.07505781022492927,0.054693246864766475,0.1303774565431145,0.16365445585275207,0.012772772703582999,0.12324047827251433,0.024473436300239806,0.2102963277362385,0.03838484248260907,0.05235903863326334,0.18337289835413154,0.18150746163810746,0.11354847615499823,0.2016493649070529,0.1922173533742491,0.036060214417917257,0.05592844440416823,0.12136428668405894,0.053280534676968805,0.035254949392944726,0.07702148036314796,0.1449653366279571,0.13959216939525557,0.05164715168910208,0.024637277275173033,0.0977429031965739,0.05909822696295081,0.011504246864465691,0.09949318720512487,0.04487321814064644,0.13924193230579124,0.022822259004131387,0.06884888865525896,0.18984976800149916,0.18414624252847586,0.0021222691195666847,0.15369113355414404,0.08732928130971564,0.044740804598652865,0.031712479976064994,0.01927956388122137,0.026558263766278147,0.05914835308352119,0.09245909569685039,0.19901733486536657,0.07327909460682408,0.21099050286725077,0.021466043379992684,0.023749581387231353,0.16752109839186297,0.06825738707991508,0.1619575233685213,0.19745061580179152,-0.016066878362158886,
i88,0.17411961935803236,0.18527109202317785,0.015352922798106771,0.17002190830455916,0.02445926603126546,0.053551299025192074,0.08035400778294793,0.06663044408642715,0.18825301173362105,0.11497936758094458,0.05143691847580947,0.09870194591492297,0.04401215806623601,0.06826413972092862,0.13787852186641184,0.09210563088225197,0.1342250947670523,0.17012775966966745,0.1735601223725039,0.07854261044035056,0.005238980141575475,0.003389462404769046,0.16134482019874358,0.1801079927440312,0.16610466540445457,0.12340780179963537,0.06085265550659765,0.09291520035592143,0.12691013217304845,0.1306659111106752,0.13350626250696426,0.1174282265340782,0.1860781535528096,0.034048880620167636,0.18721780624128356,0.19041321303179168,0.04977578162453796,0.07088738185210694,0.1792196632470169,0.18381845656060694,0.14487015559189886,0.07557989288643135,0.1047232279337977,0.05568467737074699,0.029207440842262067,0.17774417447938295,0.16559404689248897,0.00887056503314332,0.15909841126516172,0.020787814996806472,0.030360646203734246,0.1500469071199915,0.08520080406004849,0.14798391669906913,0.17966902761383707,0.02022496044536214,0.029784673672639282,0.03774323813098258,-0.0005806442788587647,0.06728150478827845,0.15005116927603834,0.09573174367409591,0.08499475467674851,0.17106811453851356,
i273,0.03823209800308228,0.17238673806524257,0.14604988457405252,0.19624628349763343,0.045143877311344484,0.17126482167761117,0.07148737183251823,0.13664888506777784,0.17086610226223656,0.07827788854576305,0.14635099868351595,0.0735243839637946,0.02897872131573466,0.08312291445774089,0.02325676465784865,0.17792183235059064,0.05985666855799926,0.12265088200294422,0.10909164043368201,0.13105367312557303,0.007834976374959899,0.10045489920088299,0.13846569700763514,0.10499917128301711,0.013702899013242988,0.13076617448387554,0.18990395706516527,0.07746294332549972,0.047251765673957474,0.15085058630695086,0.13139385619937644,0.09046549044524618,0.08356394096889133,0.0031393149544615842,0.12634341974335483,0.10855206900089828,0.016452137330515412,0.2028821780184383,0.09617277581384323,0.1715883561027917,0.15553983956038037,0.1824132415891727,0.11349474248292059,0.1686029954390905,0.18022881612818817,0.03780064896464403,0.13154543950740655,0.18087269506645148,0.023210064647020696,0.16814631693418713,0.10349472485013192,0.153587536075943,0.046245480926861746,0.14777601871014287,0.15156213278565936,0.11504866281952494,0.05937579011084222,0.1495809399266724,0.11996938931001679,0.06451390904862746,0.06387771629211811,0.09958821258469965,0.06205943649143883,0.19995059045748104,
i274,0.04085214135200752,0.019276206596099757,0.19848687780257168,0.1107649144928592,0.03457424742091103,0.17256311643428543,0.07578835032046885,0.002796141386775631,0.03823170046756585,0.2089427751317233,0.03780030106062694,0.1942774954557511,0.058477783040696896,0.016161547527363273,-0.004068044269298536,0.12119877204341664,0.13516088443647417,0.10084512682753681,0.1290067445434105,0.20064896126044784,0.020533288156693405,0.17332253816440016,0.14374498582923714,0.048023314993979015,0.19223897059546471,0.20424344820346163,0.060735468371432254,0.020662284318059807,0.17538073329358586,0.167587429987925,0.010812588474526885,0.11648991927366671,0.03036048330918762,0.03703442611966726,0.10052068685065924,0.08104494430133913,0.19474167007822824,0.07314065086585096,0.20874337539918222,0.1142498218471893,0.10665485076847736,0.00424894204017246,0.035312497964229236,0.12218094004474532,0.13005003245693925,0.030368373317852828,0.05912859169741247,0.10168703961447531,0.05726477159635185,0.11836140098397135,0.06676190167008553,-0.004321660705696307,0.2030364077643804,0.2108239326326942,0.09584339411144957,0.12856687020944502,0.18190260892049476,0.03700061800294509,0.2069761267815853,0.07471540597533786,0.037465281290239044,0.18680798524731693,-0.005767310823887132,0.0004495768497687532,
i275,0.06315016053682347,0.1886353837957924,0.09508697622355547,0.11290697504301926,0.02523221084932119,0.05519433739682547,0.1317630721952259,0.09403363114488206,0.10564328062682835,0.12979437378041095,0.14352088893500276,0.15490200374382518,0.11897219726179885,0.1032004896855294,0.07215740826214427,0.12772557503802842,0.14924489577043776,0.018193883583111504,0.16661700538302493,0.1287982530222993,0.05891593069022301,0.06742492486869389,0.05368089740957517,0.12453808895849007,0.10948497827346793,0.10322054339186854,0.14623295788467486,0.15315905938019775,0.11443334021443863,0.09919921618299907,0.019266869640089654,0.06207862117621026,0.1422961446612709,0.041561955946336715,0.10052474371299472,0.08061549834314452,0.036316775292536116,0.16293569955517861,0.15311223686530945,0.0561496558406451,0.03719851080603505,0.1783772321092145,0.1909971474986732,0.07553014665196779,0.025091004889196286,0.13266329081075656,0.0022866523179850846,0.1324726993459299,0.041944325002998516,0.19010947037960502,0.05253089615244091,0.18470745213408368,0.10459445446568748,0.1491229165450137,0.09171419640116793,0.16216394028700593,0.18734244142047668,0.14729443057298408,0.08226536974946155,0.19591808142901537,0.19353928648394447,0.17704700289075298,0.18571282692928312,0.07082673377710355,
i276,0.138177029130811,0.07032847671804526,0.03363439099811055,0.099603574229529,0.0890768727667724,0.021125697451470284,0.025741844765705978,0.11204509380709192,0.16853697680808744,0.1946078106725652,0.09293927437322566,0.20305807069271212,0.1168018788244376,0.14846713433728714,0.0320009526139868,0.0854718131483316,0.20754059435748334,0.2068961075782344,0.06411605779989989,0.01886182159948224,0.06570078184689435,0.010462008845799602,0.052382877816053795,0.19689290735509046,0.20640097302604063,0.1172620469297079,0.07012195490380592,0.1720624425598215,0.11952241853893916,0.07781473037752208,0.1204970360304414,0.14631425589687325,0.20772942790675047,0.06522092605267163,0.11828035950161851,0.1342750969390644,0.006206587892087367,0.05317151731488464,0.0009992357760584296,0.2052795654569089,0.0347706845551918,0.17688297843483677,0.13591051636708804,0.033279569137585216,0.05566799329323333,0.07872808115926427,0.04108052823309988,0.10094731553513116,0.09719581873506952,0.00370576553099822,0.09982124184927192,0.06381580052799957,0.18281174011451562,0.16040117128242506,0.03174234194623167,0.13881649473208,0.047541548222452226,0.11778195549389651,0.0035773260477119898,0.17562409359048137,0.02868820990798733,0.1673174986923458,0.17841353102343283,0.012695204528242444,
i277,0.04116886830382655,0.18711206741616432,0.18960379867154348,0.16434842444849349,0.1205609821288277,0.04915216299386718,0.1503155523769406,0.0613401860570148,0.08413133939242606,0.09158899829539399,0.14372522300582213,0.07559201322411048,0.06857771547635039,0.05195877000454607,0.04617233174327739,0.08440889881498115,0.06588554630162226,0.06443123593512533,0.1453501814587225,0.040473434390199486,0.21126870073799459,0.11235153632171616,0.15442946429034388,0.025413275465743696,0.03330653625875339,0.17021567244794916,0.11627976994813857,0.004846550379224993,0.09824659640827298,0.12957319901642492,0.10227726810414076,0.13228084415983318,0.04646533627016099,0.1693047616198038,-0.0015387973788451566,0.05172590394309935,0.1062490877494037,0.0003209669496430475,0.1702582477061346,0.19242545841318484,0.042175319641300245,0.03492933718591796,0.07708670331379722,0.1653190535290937,0.0013960732185437689,0.14886783763547104,0.05794152265415983,0.0200028557284659,0.14836974339561013,0.16171613846085103,0.15026217632532116,0.06053753417056323,0.18487574072971782,0.19398405698153084,0.151081668666443,0.193386948629579,0.004886371386638262,0.1075380753756101,0.20752149967765565,0.03522977227504969,0.005743692859395406,0.19320514721201473,0.1564097145869151,0.08704128888440188,
i278,0.1732345860072634,0.15750829055630633,0.14372772831006989,0.1065036841123799,0.19546517041897998,0.11996296992309134,0.15562636441373448,0.18679202742409204,0.029573329135280227,0.18758537762483707,0.04280267509218565,0.003379456784658414,0.09077259613399213,0.007631553396499396,0.18803807764248975,0.0008534600870183368,0.04416316248027128,0.11771479340503194,0.04638911752639867,0.09482521442239773,0.11130515468959239,0.14990731356239254,0.10043816233873214,0.2095526641910277,0.09041360980571657,-0.0070804251469516405,0.18313635184994304,0.11844115960837301,0.1412881637266607,0.15849939175486102,0.07334134158828194,0.12161670763642478,0.07459736402404629,0.14256291371143115,0.1943797997972103,-0.0006439588883791708,0.08110378064032589,0.07209360598995121,0.12551908985198137,0.10740736415738071,0.0788051389634575,0.18289673342784682,0.07802767282062026,0.00953045781601956,0.06606123810076624,0.1591940640094831,0.10921385874739374,-0.0060420490097930594,0.08731822952199281,0.011688990228512174,0.09794076738813498,0.14965482135046224,0.15226879255615383,0.032483849808296474,0.1786437084317382,0.06109812516024606,0.12558660969663313,0.21569039562376682,0.04171328022682406,0.11566873609958306,0.04312872369161295,0.10393713489337647,0.09436130795597336,0.020780821132502326,
i279,0.06602876288540593,0.14002328803819858,0.10943226235630896,0.029091451545343202,0.16132714377760696,0.12860742454171262,0.18040275572608738,0.1295358311162494,0.14429538836540828,0.10692490332207583,0.026841894798144857,0.010677261117542759,0.12270621182888306,0.05694021019160157,0.1448641839098408,0.17848875108244272,0.13837373691902408,0.0014770586829325487,0.10854314200209751,0.1493935343496587,0.028328754528422886,0.004912824187550472,0.09187205571629722,0.023446386666306152,0.13002244382543318,0.004124552178076012,-0.002192647679752944,0.06214344635678144,0.1526872112728475,0.17385719771483243,0.18994402942048605,0.017592390469003207,0.172863989055676,0.17398048619320525,0.03417260396190718,0.1583529624968183,0.10661159274105483,0.0952235903942141,0.083040425277592,0.05552992770058231,0.0818158121681451,0.08693509801558201,0.11354650334391149,0.10851380010596409,0.13578400418132358,0.18790219984749593,0.14090636388458375,0.18082789562470059,0.18464083324456754,0.15585609060713912,0.0022232262839899505,0.01099165766508828,0.13549163581718043,0.09019775833533128,0.1840730599788024,0.15195154629782964,0.11366732723022649,0.0028860653357237124,0.05122694551877033,0.06995858070521296,0.019827807411646838,0.0010872177094496216,0.15634390036572246,0.10392819656870869,
i80,0.10663803587159013,0.20333568196346583,0.018513874119229234,0.08786776892438287,0.05636675545798145,0.196866039660226,0.06828746954744987,0.1413193986684816,0.2041580526092271,0.03719182734745962,0.1263245463019342,0.13823952805644135,0.13013854245710663,0.16980505691661035,0.018272526128281025,0.10852075204241865,-0.00207800382753588,0.04386127859967572,0.04580212899588273,0.09011120716404097,0.012694701835057925,0.19928573160153285,0.004006887401181552,0.048087835131047224,0.059729637992821875,0.040183826010940886,0.20478933068465593,0.10387866087478617,-0.0014724217276462586,0.11983283947876174,0.025395625865670093,0.12117092425700053,0.037565690352915675,0.031772747345740454,0.1363043019912705,0.18239553037800538,0.1490163719904985,0.10115038068625325,0.04164143437867493,0.052017644916578794,0.17414220297259725,0.09794605400566274,0.05151543804440244,0.1466090723741888,0.04700871511566154,0.11219534764117087,0.15870076468737274,0.1579082354530002,0.0063115112350061245,0.13349634890220372,0.19814025341646244,0.08111320130970912,0.09380349997423056,0.1997082975967642,0.06284720680463769,0.19141438613699557,0.20596440777033864,0.16780551388698006,0.09190962801610854,0.07993526292495373,0.07628625225578474,0.1841294992173114,0.09731834112990279,0.054640598142430656,
i81,0.055343742917494464,0.2122451621737868,0.04114750093348745,0.18354671609370854,0.04565073409975381,0.066414965377478,0.08840277840435798,0.09617532677377909,0.12376014641955531,0.16218797129371298,0.16620081709382437,0.044245772766422414,0.1935656002709779,0.01698057412543634,0.034046654869075064,0.18477562354255828,0.1097750406799957,0.22817921476372344,0.08491084564467985,0.05226403262744755,0.031188905080539765,0.03346975816358048,0.19815294111541779,0.11367894500660491,0.10129047120681223,0.17311066950261295,0.12396578159444481,0.16550630691456159,0.06654562351041775,0.0691763947695636,0.1882280844520753,0.2170828850273372,0.20349864621405125,0.016543451836212624,0.14469084108213,0.22424376644580413,0.1727564811939728,0.19761515867367244,0.03239706047424728,0.09183274763426873,0.0751049651685678,0.03128997312561825,0.13524889956673178,0.04274415138125575,0.039575633445895125,0.12652230565989783,0.17649227350507637,0.0706113091360001,0.03565163349724248,0.06728825343759129,0.2030885421077955,0.026423171203791333,0.18656850515211165,0.08195499391097354,0.14098722016996623,0.16054456078354898,0.07815422061221305,0.17240716661660566,0.11123142947014304,0.07021096754710601,0.12900198333130475,0.11030089963587807,0.15688234717681654,0.06792241454633786,
i86,0.028205797896521053,0.1348179436593376,0.1903517134693582,0.13912637547619724,0.19654169750777112,0.021884351217157913,0.16943241127495134,0.06895500868202564,0.14504747745718155,-0.0052879502280475865,0.050126529715745334,0.09647627510362645,0.08999086063912963,0.10819744324589144,0.0236525047031766,0.19051216722246636,0.01924931474022553,0.1906261739642819,0.14371540108809136,0.1615912735388087,0.009443219084557275,0.0851726737420288,0.027118114904949465,0.09570778037790303,0.10814040166189873,0.08098854021846448,0.12396881975076814,0.08121264512865933,0.004710210526959311,0.07756640436951251,0.12117319367677414,0.06354707125729635,0.018551876424535384,0.17133840524763636,0.07773406974714688,0.12348515661039305,-0.012736895647477747,0.05529126761062658,0.03172701870686667,0.1767083657217895,0.0038937444708919983,0.15165555929317143,0.18688525751998505,0.17189630956837257,0.07981798429320366,0.027865151498132127,0.18834323487430427,0.15450484623638827,0.07585108681662621,0.10920169235498554,0.08525224795358238,0.05912180639490657,0.011275700397965004,0.15891531663953282,0.09972073423313481,0.056227815152511074,0.026933518880242046,0.0691302702933499,0.03143918777680247,0.061882406688189416,0.06329002302845815,0.12959804923628604,0.19468837091585653,0.11618212647635115,
i306,0.15391264718483819,0.14030929063887687,0.0591648416351558,0.07965403398742808,0.060260710973382835,0.06655499106637164,0.06664811903603438,-0.008534582150681006,0.12487318913654841,0.18608374659207064,0.13913869424242248,0.10712524176522135,0.053158261902445304,0.04563996749489523,0.19285325784648522,0.11498675844122015,0.20182750906182342,0.13221470734373197,0.015058679966510715,0.1464486680816525,-0.0028728459836595355,0.04028383462062049,0.12118822918904426,0.04077182694515304,0.09766314983032622,0.15736113888450956,0.19166998272490088,0.025924800720029607,0.06470825954080052,0.08082993975930906,-0.004396867367022645,0.07426252543324374,0.0028327220904757464,0.15201609274982747,0.050924333762840175,0.19140214564164712,0.10334828494801739,0.024701390008805703,0.02249350412944061,0.15331392465499816,0.003384152088890105,0.054077698860106334,0.0781043615897018,0.0161135357254118,0.18206158620382795,0.09389417868442913,0.040481095632720523,0.16512286071977,0.14560316990682567,0.08409974149332985,0.02759013852437775,0.004701123491400123,0.04246338167047404,0.11628127080384823,0.08677472016419303,0.20160721282602276,0.07968980380497291,0.02470679665805051,0.1381139073358744,0.16875336801820387,-0.008773902132537585,0.16535132700154603,0.1897638566531967,0.18374948159973992,
i84,0.19896999158989584,0.09968444041901674,0.16307131160242133,0.15003966448455383,0.009936249761150508,0.11631769555207391,0.1450047481889452,0.19892114290518068,-0.002364143770963204,0.047488986067499205,0.18279044810129977,0.13246144388757206,0.01745309426447239,0.10130887508720222,0.16562770329594365,0.07027913107838983,0.06264592950609482,0.07591134869864982,-0.003355350949657221,0.1405029110681919,0.010044348090964049,0.171792272488401,0.19502181465488733,0.10288184381079374,0.02517088968354175,0.1552625573514347,0.13535323892659565,0.11356686946217877,0.16180672076328045,0.15353084689983718,0.15347872363537218,0.10955939197265378,-0.00036035921686302215,0.1539163458917336,0.0497469380684289,0.11581275657859785,0.18737733418519326,0.02557261688372056,0.07497579329727617,0.1159550163318552,0.08257069500949098,0.1394778426862468,0.016553440591520033,0.17248712619002476,0.0579850607174688,0.10301609954219634,0.14423751954718084,0.11465566129975652,0.058492869106242,0.03188075963970515,0.1810398716709174,0.12805986677624617,0.08483485921565533,0.17828250942871238,0.07663115617577743,0.18521635629768413,0.007354453010620397,0.0306448270427818,0.13380015905911785,0.10662380290024856,0.1318930607864759,0.04656222326217746,0.08035478331225636,0.003288985684937521,
i85,0.031111476799568265,0.006780550020509567,0.13120772891964008,0.17806163485860177,0.1207697502366779,0.14119965706666462,0.18283841811605764,0.14442172403351847,0.1296483682275397,0.011469069369570171,0.10454614734699022,0.06825507225822236,0.08414225603995285,-0.0023558429370906684,0.01182798257468049,0.19315990967208277,0.10687916544850269,0.08294319717754609,0.16890341456465405,0.019128785807043996,0.06708999995541026,0.12134090208811824,0.18670087272147057,0.02279732386916685,0.06130019481808085,0.10338927439769331,0.16374038550272407,0.03890300533403045,0.06076415002401746,0.12239231698292626,0.16390059382687816,0.18760038995188413,0.12549777269406936,-0.00377768758610093,0.12245906748321456,0.08690786409257198,0.04021227171964831,0.19529727401687538,0.1339749429819014,0.08571555180284343,0.16663191928024232,0.19341269538314568,0.11885338505688593,0.1776724182077215,0.02995487229648287,-0.0026676061191091022,0.17480326347614278,0.08409736226928799,0.19835828058885005,0.07225139384001458,0.11708307530749988,0.010467462928301065,0.06258179790239479,0.047804107774248504,0.06667634010294317,0.023563969350844878,0.07992596561307527,0.009737930982079286,0.1319051239561048,0.04890787201906073,0.09033647333402166,-0.008610075449158384,0.18533572176680593,0.1079585212808969,
i352,0.19095494175998928,0.02326403290139334,0.005904203444009982,0.0829648139811404,0.09493578498824891,0.039260676351104244,0.14834433323264104,0.05737675722444858,0.020826567942015803,0.07997920752636091,0.2078032357403076,0.19697443090199282,0.1487878950335017,0.16515537560805574,0.19709569913129768,0.12603573443821084,0.19698947286371715,0.12275312480326539,0.062841811840874,0.02740712741083094,0.09254677817295491,0.11542921118834967,0.14454055601130314,0.17362324848231464,0.01763709622303743,0.15307573229246038,0.13837110417641876,0.19384613961281114,0.15964390906618398,0.16055718372832756,0.021444350726442084,0.21789070456834994,0.1706894041760936,0.06397158127321205,0.08646481285012929,0.14179404723204383,0.020058331572749704,0.07470462612968268,0.06547349584804389,0.04162028595259156,0.07109531366467269,0.16685597993893075,0.06348593989517097,0.0880257669733565,0.06429975926335552,0.21639341066566767,0.03344794498325402,0.09637343505059567,0.010580379029254391,0.11294812958607224,0.15361602095563176,0.08495801071343627,0.15132038800353548,0.12462788660253638,0.09745361705869741,0.20865376203753833,0.1292551657697169,0.0910179382107494,0.022922465000175314,0.14500712859922213,-0.001641387496737003,0.12843135731288932,-0.0013218471478681699,0.04414644966824056,
i307,0.11593598417123557,0.051900308619947016,0.13846636108688912,0.09578313580142346,-0.015534192258846944,0.1308976000984132,0.14453216215668144,-0.002058386049230743,0.13213262447842117,0.07665113233471726,0.16877210197992998,0.012692846329039973,0.16500744690056726,0.015624443478616749,0.18484005264314166,0.014261679877276622,0.15730245964295744,0.12708146644197518,0.02750999081540594,0.16359347626299128,0.01224475844982391,0.09297616194201241,0.059151247369227736,0.0881674241171925,0.029370091260377984,0.11461749983043604,-0.011802644174941061,0.02666040370197521,0.03512525810721382,0.14831436314631527,0.15212790490434427,0.06928002817070068,0.11821182122891788,-0.0004256470563277864,0.12865877522911148,0.1495987815005858,0.1685425178752998,0.08581876166604034,0.18478026022546476,0.031231560795341073,0.08759182404764967,0.1231911957093479,0.1875408955681588,0.11632555624705548,0.15765486347066046,0.15996430550249155,0.03049123938018642,0.005448233269123721,0.11040786007122885,0.01093838536118581,0.04399524095209296,0.08634935964115367,0.1512552418526545,0.09528047334722843,0.006240927024928987,0.03145082382590029,0.1151867041839336,0.09511315324596925,0.03000568308417724,0.17411142904170623,0.16425019588872383,0.18378799289619485,0.01846687981896894,0.07417865736757343,
i258,0.1893982985522314,0.12632282136382103,0.11404384736559511,0.18522832247349152,0.04007376847628502,0.0697512715351779,0.1744216563448793,0.20075924996317598,0.019044614089918328,0.09339960089615532,0.06460957276795402,0.11211659482673024,0.00020855111612155038,-0.0025508330837628558,0.1398005842632299,0.06611383053918238,0.15554690367029,0.09257955720200019,0.13095128859749258,0.09939807037067781,0.2067193168236259,0.014779694084666638,0.14788854868672907,0.04700866108096833,0.04501443799781487,0.08614218815855218,0.07263572885377882,0.19616684516009628,0.06064658928805561,0.1200344869499218,0.02476068689913776,0.035152203366497776,0.12718733392949294,0.06646989976623827,0.05650059348935971,0.17685853282127773,0.021703636619703124,0.09507485423881443,0.15160091553552152,0.053486389418535604,0.19091300052251964,0.004860097800500465,0.12819726901058923,0.058318608314984796,0.11985710987053207,0.07295258875465004,0.13107652232068845,0.20608793572675174,0.18544658588899357,0.07825513721523772,-0.0006578570221539986,0.04700291310137069,0.040456669476884054,0.1861456977228667,0.023356567326988067,0.06162260684885815,0.05350127049547544,0.18102156839974046,0.15086665244900976,0.11410149380542428,0.01823585127564562,0.07005769139862157,0.18066927052060117,0.1646318320542264,
i319,0.17738990721494735,0.01819548842904831,0.013672943253196294,0.11653092082794711,0.18268775827478528,0.008427368451724981,0.19954636273678894,0.152259531674934,0.16057160395926298,0.004944553042467542,0.13993663931136638,0.1688817479660535,0.2037181060446972,0.1987810211829504,0.03240859625683953,0.14039214898700494,0.057624597809152564,0.03518453687838646,0.02930585485442929,0.15077645722772384,0.11411940742236792,0.1862638624756784,0.05291655132861848,0.16912377797676958,0.10334841684792914,0.03961425013528446,0.06004723393619361,0.19435109334627845,0.18417621447375943,0.022334322309207788,0.09624370664202067,0.003141679028591243,0.10574331176326063,0.018550914504115668,0.1679988784488133,0.2045082989514047,0.20742653992138638,0.19081950969822556,0.09367650422019376,0.04819094046460211,0.19103458687691482,0.15901933094182494,0.11627186554482877,0.13789841563640362,0.10917660075352223,0.02603992357740938,0.00012268642969704823,0.06573445809455065,0.11145780647659802,0.09127792249825029,0.038543262729232704,0.15304496167826007,0.15678741775280086,0.07191832708585885,0.13136079181367002,0.1687922676859875,0.03560586767281394,0.08885989801047783,0.120612049725918,0.08391348844082955,0.09598355915781347,0.1379581256583047,0.0065139464583271346,0.03900617408825787,
i318,0.12630961888946504,0.17134670768607418,0.004629176382514257,0.1991730981857219,0.18861114954174202,0.057680217307971,0.17141734564035524,0.054714882504450515,0.19824655509525574,0.18828113546067138,0.014777365989489987,0.08749535367075054,0.12474338919758923,0.1240295653936005,0.025589498903867896,2.800996936898036e-05,0.062171268220289615,0.019359294116968625,0.19678060594887226,0.06428652921112613,0.18026845404819186,0.18586935195930027,0.19232487624995628,0.14821193556621584,0.021372031810254804,0.12820401698889794,0.010812449460441185,0.013291950044856726,0.1334492499619737,0.005254186048662637,0.09998065364626699,0.1890715654286524,0.04151547159651957,0.06362316318537706,0.11046030738609904,0.12328628576329412,0.157920560500259,0.0542077808468527,0.11553863466893668,0.09374630744669264,0.021249142498852094,0.09857394328851206,0.1524768109458121,0.1900841126608144,0.15756825593079266,0.10179197810100624,0.07048435406581076,0.1389864915947219,0.12381403339772339,0.17927362746885245,0.06460982710203826,0.13809744040552366,0.016706697594997703,0.1929588210162044,-0.00025284221484494617,0.0801321882055868,0.12517938285027058,0.0016553735016318414,0.1718810886564177,0.04058810345823059,0.06262114168774718,0.18379876297193792,0.011321726517666103,0.011086967530202718,
i83,0.13967630852161253,0.0719665948351774,0.1637946175281766,0.20090506092727023,0.12447514967569744,0.0958268043492357,-0.009389735639283057,0.003513487492635791,0.05190132794044496,0.17228890760802829,0.029910112004569143,0.17158538452487823,0.18302924558321615,-0.0041508287180801445,0.14459011449721734,0.18319142454063178,-4.626577060640932e-06,0.04293607586509882,0.08989524571411471,0.10796157724558858,0.02280861094818809,0.2060868726154606,0.10335505111954585,0.052895202439452546,0.19965676541929006,0.02984707211700388,0.15970535453555873,0.04474147399739128,0.0439444758399853,0.031501510387568404,0.03142216032695998,0.0639997275903166,0.16049603430585746,0.07940656217661533,0.04817056177485236,0.10145232191231415,0.039821176835944466,0.13481947740346997,0.023986739166675587,0.08174444141021606,0.20366442600075524,0.06316650320122705,0.04164766926371499,0.11970300936757529,0.21140804334577806,0.1666939111389158,0.16418174919414308,0.06030195627668217,0.09119502263574791,0.1187227714907449,0.07664802481533098,0.11547996399115171,-0.0015629802502696041,0.0014816405043768255,-0.005892243371081489,0.18046916530073406,0.08721321824089552,0.11116864140682477,0.21012367051418857,0.026639997047333615,0.17288433215858037,0.11900365839890038,0.03719474260438901,0.11407416807272122,
i300,0.042284358227736796,0.08278724621420785,0.03818403206023792,0.18314230300743586,0.16613390404099831,0.09554256451825158,0.0723572105516948,0.10881576459539574,0.1677199874003143,0.1554126617244027,0.07357815087868508,0.03326087507072072,0.07797529048016609,0.01545889708586653,0.13896427279243725,0.15065764401093057,0.08817558168720972,0.018498642201356285,0.08837813971569183,0.008702881543252718,-0.005534532854651692,0.1835003010774729,0.15257456703935873,0.15581453547876337,0.07306337847492127,0.032990915270122545,0.19128270673064685,0.15123543954208712,0.18589936343416535,0.15348840538660422,0.10552946862343382,0.19065318529398048,0.19188879196377628,0.1644293969785504,0.17072094010837724,0.17257200007751838,0.1283907471846444,0.14590003133078794,0.008895269387089896,0.013126888835699931,0.012573654714462392,-0.004119402495315635,0.07088131825697551,0.08385584069200808,0.19255341427630043,0.06418554557267642,0.012541017227405278,0.01509543698628258,0.14441022461623315,0.19808152983871835,0.03698251959094397,0.03043897900035232,0.004127439943950107,0.20248277232067688,0.0015868582893707696,0.20677901902292198,0.15384051008884697,0.06295252461468889,0.05963965804507689,0.10476103407362591,0.17695940738236812,0.13212985583715833,0.057240006647473904,0.015858550466752445,
i315,0.01733856636147307,0.11001208341231634,0.1550070613884502,0.1956283752707134,0.07445264047683772,0.03145876258108876,0.034906203568046454,0.1580935057626682,0.04950736057189153,0.18882067921477544,0.0976130884787577,0.06300331255415126,0.005982924389451665,0.031086788617551722,0.18419908655155823,0.00272589877307785,0.17090730058580395,0.09342102472880495,0.08690888663015459,0.1699300048768435,0.003766541195424901,0.07768829510978821,0.01207075295561737,0.1874585810976978,0.09050621138143858,0.18116255297435896,0.1983876881946057,0.1049918196022107,0.14087278922260324,0.13290393703620154,0.018688682744058657,0.005656722340187689,0.06804069853469215,0.1013972435085179,0.08506526112220836,0.08818797646657921,0.2143934037739611,0.1418637191460547,0.03388415645262538,0.15291842653082535,0.018604147315845348,0.1717425821481953,0.11483907482388075,0.013958999789228307,0.15868038605271084,0.12212824110094968,0.11605992612929251,0.09606417127882733,0.040424201281546786,0.13171777370969254,0.09427683688923096,0.18970083154353662,0.19167815684000458,0.035434821447365344,0.20864023505192525,0.05574754481514379,0.15904159934809997,0.19213363777540235,0.20922458288709483,0.014003968200021566,0.1191650564275795,0.18943253051091105,0.10740353284906726,0.06770377843946329,
i314,0.14762782784031972,0.12432290182675831,0.031979140809756376,0.05784464065070953,0.12184658629375639,0.030104426366636853,0.12336680192663087,0.018433490401375787,0.095539826310857,0.007695549274694586,0.09571990151207461,0.1882009743662846,0.08375493922117296,0.1399867149989974,0.04044993324394024,0.1265138747862802,0.1831443003659766,0.0118021539266035,0.057801169791126115,0.13605353412973548,0.12081783708146163,0.10602903092271918,0.027494948720049775,0.16014287613525344,0.15966829399847215,0.05482119920381771,0.08965545438706933,0.05706546269099504,0.07696802284056767,0.1907813762148396,0.03240323490590356,-0.007124798935604388,0.18024169927217948,0.06013223638695757,0.07761413113163515,0.15375791077539944,0.1750178280066715,0.1682177923928727,0.07807393888394623,0.04552973139250222,0.16383947028875584,0.0017504126110764783,0.005990096171360375,0.1299798566010302,0.1622928405043011,0.043286841402412984,0.1703498403670567,0.18539879077321894,0.10571226160973723,0.08004018357093726,0.08300642598072454,0.05625098700105746,0.15840070784336696,0.19469605074940713,0.05990018607333845,0.10831993127812349,0.09042213836218412,0.044266955869259814,0.060973546428123686,0.14368893939741895,0.1784649333479545,0.13929679068873388,0.1211139440769032,0.06297696522485174,
i313,0.10691158676375224,0.010066695429258823,0.15170263224516078,0.199799361196275,0.1934977232396866,0.2038943312203254,0.1180043053281381,0.0007798755463360124,-0.0031421355076438145,0.11144386952496249,0.010559965978019817,0.14937695984781438,0.15175750381261927,0.12216202670675469,0.09088878267975864,0.09487187230047982,0.11010031419456849,0.01742007865033461,0.03349365860664559,0.20760112162335326,0.20197230998640078,0.0541210955850734,0.0644681437483987,0.13976034431380427,0.21109446728475573,0.18766667432744794,0.09089199402430342,0.1843913906714575,0.08026048541511835,0.003147154733617498,0.025961459778355706,0.11210433458428576,0.18567306390592253,0.1488577135963674,0.17850532774492148,0.13567203049761506,0.07216194272236907,0.11761078575646577,0.1483534751238127,0.048982831668080554,0.11087542367807803,0.10634118415028082,0.003218882521641806,0.08591747977705323,-0.004097691238298634,0.13027764939294298,0.1317732554670711,0.012019635278746998,0.10081156669576434,0.16751310369574446,0.07894837798538676,0.13267770424731598,0.11776862457714456,0.16884427024516852,0.005303064793052658,0.006039304532198908,0.12565427324005515,0.031350058368845725,0.0545247110276035,0.017720008992456467,0.09880670545603613,0.07091705116213555,0.04542425123615136,0.13302821753093044,
i311,0.19125892465016311,0.01264634105233909,0.1585867340968737,0.03586209152948067,0.10339168114859486,0.03498546750480675,0.19714549350759247,0.0064861599629042425,0.047381191602569074,0.09197192646018784,0.04680518222329743,0.16811179839437013,0.024767379591329592,0.17453964905043592,0.19195729590492158,0.13692228346445184,0.03182760312219282,0.18411880722344964,0.02273660951543727,0.201899934935088,0.01754223065601438,0.09403424024183796,0.07851346490410765,0.04026187730702056,0.15142427945532455,0.040255409600282205,0.20507495338858653,0.055859448869199226,0.0026980848534471527,0.09885292889206124,0.060336941648729304,0.11424935239875667,0.14204372834052628,0.1024967054414463,0.0023928810704821556,0.0020123883979750287,0.07631357410047934,0.010342448646461647,0.0734134564951676,0.09524444061098707,0.1969751272197101,0.09912188295564275,0.1930758615903257,0.1903594948620002,0.031015984148535625,0.017402106072867938,0.2149710279986904,0.20473005907019662,0.13409387967496852,0.1907637571188304,0.10041591348056218,0.12609105810033527,0.02845410194007501,0.18532937876979066,0.02125051394547247,0.17043650383518794,0.1821883822381039,0.09146086000203177,0.11152780912858021,0.1971335786745543,0.05271692696478349,0.11010872124197918,0.061363250451894835,0.018948202652943957,
i310,0.12678170295498634,0.08541716479846902,0.0906025364845062,0.03209149459047442,0.01777167891972094,0.01609121691879578,0.12017319943185013,0.01772424239145666,0.16338798685016415,0.16974229292880919,0.17933904128005151,0.018839416652666464,0.0391142490402365,0.11195427512762858,0.12582134946496404,0.03971440641168652,0.06154177803006558,0.17084624293531794,0.01324532142444016,0.1049863518934698,0.16281620598291913,0.04754294870017063,0.18204597460383842,0.049825849967126724,0.07257427700109476,0.12993465883607075,0.1431468372717657,0.06367119927433718,0.1371179900289641,0.20220137044464614,0.18811068545508355,0.09874526842392418,0.19744113618418466,0.05958978366788565,0.1939865557790907,0.05909283116230534,0.06676766948610519,0.15588847202843187,0.016551391385394222,0.20367560356900025,0.18363585275131392,0.17497414990759474,0.09109494528584312,0.030052846934493015,0.10493030572823553,0.07546032091871599,0.03604359463199121,0.1961014716004825,0.01863130896859727,0.15460900661108617,0.08202817921774007,0.20544212270258613,0.06319811476593537,0.043943317205393496,0.10593507635145177,0.05666641463399118,0.01243053375535562,0.09507864750130281,0.20571945406155775,0.159588705628138,0.0958533240649766,0.048006296972814964,0.0341295611774955,0.18291171713646157,
i77,0.15145929655227344,0.02022320637238862,0.1012992158961268,0.03060962677411757,0.1750610435652409,0.07524244798928033,0.1727061677939239,0.13774316773048337,0.11419389765438649,0.09081320701245046,0.036142007096929205,0.06701366648995004,0.008889087323616892,0.13885732518995617,0.0150058970026419,0.04815144622817248,0.1045916198152415,0.18378121685682033,0.183106045524762,0.11479130379681489,0.14721264070191217,0.1630450030525912,0.19060712071080707,0.04375543683719638,0.05808004389963159,0.13037380016314493,0.19039234119586526,0.14277281503098183,-0.0020869432990179514,0.16314746091723936,0.09234666171759112,0.11899191589765423,0.18054307418291068,-0.0003810654158236058,0.0062956888258125475,0.014885158553822653,0.04024487357788127,0.07817579740621473,0.05832198116266974,0.011833916951538504,0.1490975390769089,0.1398456872520671,0.15995821532820562,0.06140658962701392,0.1892167462821585,0.1900706352728955,0.0906976235794026,0.16400439775028083,0.013396777909964595,0.03532432402459758,0.1082654151769478,0.030949248883182276,0.19266178800330416,0.04630774311814201,0.178394346327898,0.18231789016989525,0.08059225565074145,0.004869338778227754,0.06411497941697611,0.06467735064115135,0.1064569294772101,0.1581701021974608,0.12071585444763204,0.17396846261052656,
i76,0.17841678030087949,0.03340934310668392,0.12941521742803147,0.03974636832072946,0.12563441829475716,0.18350673752184946,0.07303615186154547,0.17308473300641028,0.05952280822355482,0.15766955154657153,0.21977276458014414,-0.004104048731698801,0.031437947307127886,0.03402807011679846,0.17378501708316776,0.15172091594531023,0.07889747424544587,0.12316043478543966,0.01968464369431346,0.006847073998134424,0.06781095703377477,0.20716025239094937,0.11534721701594781,0.07375759516310164,0.18113806388585085,0.018722623311930205,0.19833330245533717,0.11172262698172321,0.12763104881838164,0.11841384556889444,0.11008896395204101,0.10357877583464511,0.08078703536667471,0.10250885081765158,0.11921221033473069,0.18873454346788812,0.029951390133118788,0.04920165604653459,0.13620213969429443,0.20342107833949744,0.18888548553673187,-0.0006512679931165463,0.1998678890327849,0.18687390377821936,0.06531870753479155,0.09989846674902868,0.0013113254477260905,0.037819088314444686,0.07422089142178839,0.005503455786370336,0.02391638736524614,0.11748607268729161,0.15353267260622008,0.0731514951433101,0.009629552306571249,0.0733057801344093,0.08104841886648535,0.061946350694110586,0.09410655085933171,0.13322925786734177,0.14059303471939247,0.04644178251569645,0.13688688390065623,0.13116680748831164,
i75,0.1365757817514425,0.1383515945054691,0.003407067320534299,0.1645997559493455,0.16575034963048518,0.16410747240937193,0.06300838022749639,0.12173547030651823,0.04941006170214029,0.1859676386524704,0.14402571357355057,0.17110111660322508,0.10180963165396323,0.0758429583408404,0.029208465180615265,0.022499853051962754,0.15516597475627103,0.1490025964621111,0.12522993430798762,0.13377459488203228,0.02055628414300908,0.14241015944086077,-0.006625026853642245,0.14969193859340335,0.14451248727814411,0.09848162532004885,0.02355730983065092,0.09105446856872133,0.1202418121896867,0.15654051624784684,0.11719023213574925,0.17526464973300301,0.16951934003113076,0.0720446194340746,-0.00810105198732935,0.06910540910560116,0.09757468065296511,0.12144545603496322,0.13202924382109582,0.1556878929954846,-0.014772598013655661,0.06873097416261438,0.017329850303365476,0.08578219952792437,0.14050724129341632,0.14226207403049335,0.06971464026225778,0.18530363855594184,0.06226876464624889,0.1335705057794205,0.14207636590720768,0.17913227010207092,0.07406646898579144,0.05796483005451309,0.07475390262898342,0.01582464206549958,-0.011081452800603835,0.06028178595105955,0.0384299473681104,0.10817770686017159,0.12230088148764576,0.11474660563963843,-0.008466549843149061,-0.012509116496814056,
i74,0.16150715130366747,-0.007609862968619654,0.08296088857332225,0.04274047333421517,0.09180967582701566,0.13340233580035418,0.12265402648633605,0.18046954604368565,0.03183465264373587,0.06004211719339751,0.1891756489200766,0.19520491118323083,-0.001998446755949346,0.1208165719651813,0.06767866364117339,0.19052417590305262,0.1937608399417846,0.034804010690420446,0.06585504638757086,0.08383462163626197,0.020424565284682093,0.16510781029267002,0.014116418978753485,0.1438555656905825,0.005505457005499157,0.03705133477902668,0.19192211684678126,0.08374227654129027,0.1865450980244305,0.026313948006417853,0.16119377316752612,0.014513880266407759,0.1287918721124098,0.04888353902852356,0.050844296336564544,0.10967956075520562,0.060310098172166544,0.07775813413309048,0.11178173256444206,0.16205854410274317,0.15790541598265329,0.1341290217395422,0.16582282776063748,0.18098086319678472,0.1693489678550262,0.16679798615224356,0.021837346404392565,0.0339172005238466,-0.01761247990587756,0.062344069510817876,0.07089017456928343,-0.015794687758931603,0.08386869238460537,-0.009822291644727168,0.13868659083855478,0.10528256107473755,0.041672581550348406,0.004546381744898392,-0.009173759327422456,0.0986584504787323,-0.0005596026833180794,0.07480716108663951,-0.005988057094337283,0.045781380136387835,
i73,0.2158522172115633,0.04262597498905694,0.12801476615517984,0.1384792882656605,0.06260657599534028,0.0794877655115701,0.08627385858238723,0.1286846044850019,0.14640385346733467,0.20076767086211925,0.026969695350306595,0.21378423145567946,0.03455340746082891,0.006262474769172062,0.20000100220494652,0.14710921144716643,0.16168633687036527,0.20446892110886417,0.05693896055227682,0.014134855873708286,0.03139050160692618,0.14234567621169694,0.13288456197529705,0.1790837474584783,0.09908966542516626,0.009617609190372937,0.12525439431069255,0.0799875743643252,0.12813202459502257,0.08968986925770031,0.04602909239255033,0.02115872036419333,0.17854229996828597,0.18509933062865508,0.06279076002767543,0.19381563217706343,0.14436894362440952,0.05279806054123067,0.022325052285601808,0.19342617683988153,0.0692534833543917,0.14915046560460818,0.17093350529884355,0.06966516662952744,0.11606132376079857,0.11170130100637528,0.013765982571897347,0.09954347592690307,0.20200924391413985,0.08976337480821864,0.11030788194184502,0.05803803424003141,0.14978450117606654,0.052178508766406916,0.057295594246114315,0.15398494246730493,0.009095850528744169,0.15696988973472803,0.0502275387059566,0.1723793861345055,0.1523686040397831,0.0818109363077272,0.13960748542256698,0.17926834740945002,
i221,0.02687184117994171,0.046552451164520746,0.05772465512586123,0.013437548052337666,0.12824399273145887,0.10180383752301647,0.018966069763001945,0.11699395892539877,0.11362163886317844,0.028555462948411093,0.0730197713530086,-0.0006126360220222929,0.1669340265830564,0.06071994945350008,-0.00048787315427008325,0.08447703186892558,0.14265780824434196,0.10031551501803687,0.030085912765542268,0.07893762141576093,0.20363949579702198,0.223258757598138,0.18493412079775387,0.214678409090796,0.22690686311768787,0.102622974233413,0.11391306730313418,0.16789192743737882,0.054681912309346284,0.12515096067108938,0.04552596041427798,0.02645098440643735,0.08826414044273917,0.0001462267449613613,0.22960518018955056,0.0772392067861554,0.008774670896182573,0.010476500669173161,0.11113573568858988,0.007670187387251253,0.06601475362205671,0.04750120527674455,0.08248098973914027,0.13247891743445342,0.01673830805107646,0.006738332682711968,0.16428601753578628,0.17618462708855884,0.013560652965465275,0.232600777953201,0.06821631158420742,0.11953927617006796,0.19347010656883093,0.04136478854304642,0.22352355722440478,0.023480717961679092,0.16309205041240182,0.20006774014191261,0.1182235412220292,0.10206989132396695,0.07425895722484435,0.22770416025673385,0.12264493425074108,0.0194226103734081,
i71,0.06640525603528251,-0.006815389680849248,0.20792705528140673,0.026934790027290656,0.1351917802201215,0.09188684434056582,0.08028799457093841,0.01754527014618751,0.07342541997586183,0.13484288828644517,0.013569841326509598,0.1141417615393892,0.07196396763912703,0.1328164611076842,0.1281226886303045,0.0016918091548455637,0.05443991653122621,0.038978154120780366,0.15353279532590444,0.06245786892792224,0.00904526959799128,0.15843555156561429,0.007827290679977799,0.2004650643990369,0.1339643065208697,0.0859439685738563,0.10612948559404446,0.10115478313247568,0.09321068157013616,0.1797633351700333,0.20544317603107953,0.18962300742539456,-0.012056869749012959,0.08348080055648192,0.045742497012643844,0.0060647950532731875,0.01971119862384486,0.17412278511066454,0.08174621278994698,0.018313386765596348,0.21866625955505412,0.15845676668282116,0.10447328110189993,0.03448421837553606,0.06335742009202824,0.06780987501081201,0.12860252571335284,0.12305317802648802,0.1250782032196049,0.01003461202524379,0.07732595102430881,0.19133766117970324,0.19075417851306378,0.0205357486342724,0.1817393958806706,-0.0022681433204635856,0.09427288814805418,0.10567828566906905,0.19840090384182169,0.18165549851212162,0.19198940516961488,0.00336940136602437,0.17447381675975157,0.11309688670655378,
i70,0.04981577616961467,0.06539887067462229,0.041370127880269524,0.17518214525961912,0.022563302541181086,0.1988347526848565,0.10702223992564552,0.13031907834989864,0.1437197585250914,0.00897790205189037,0.1880608622608895,0.13351338337678095,0.024646750202423427,0.16416409914120766,0.16975500282315886,0.1731552099296637,0.05396986534296534,0.19721225884936108,0.1462863213706034,0.043358213772284424,0.08256484605266096,0.14184792261402435,0.015284385664864227,0.07414932667457816,0.14130581238720383,-0.0056980439555497425,0.02703123992117714,0.1580194265200675,0.17672774397844077,0.04751818096045856,0.13205169670287925,0.09299995097263336,0.1923552936247047,0.12340632749120092,0.026952629406520066,0.14330362984201073,0.1347077018841172,0.10367009785420964,0.15397421926609567,0.023119020887154403,0.07958384636220957,0.04277434652849179,0.061172950561271575,0.12016710212669182,0.16092550689113355,0.05723351091187368,0.008608339494491524,0.08214666422885478,0.1931303173153322,0.09577016079196081,0.18989100047424715,0.09011773454704876,0.13334612491886083,0.19720983917779167,0.12685500639174976,0.15692961053781532,0.14853955076204242,0.0345552791947863,0.17097609966976246,0.2085048187018043,0.03450778996617151,0.017837233032385692,0.17972700993501203,0.06685596648867134,
i220,-0.004164243530190688,0.1635137068420462,-0.00713528958464548,0.12804847142015963,0.12564540617565964,0.13299537521617344,0.15595623076681173,0.17584922009712295,0.15890070732563089,0.07067895117778669,0.11723151865565226,0.07822144820530805,0.03492595048925575,0.09031404195167334,0.09289536331424525,0.11617304432799497,0.06274236557681831,0.16888659480338147,0.07286625994372097,0.07231923792268087,0.015385881628212236,0.07776640615281406,0.1584203061645336,0.15008889060748845,0.16320018249458354,0.1039742078432114,0.09673774603307757,0.02076736362647348,0.11500970103287918,-0.0012562416184087675,-0.00914407398791795,0.09025870442866182,0.17239821196804692,0.17392191032854046,0.13290155584979232,0.18195176336969654,0.09838091731012871,-0.008134079737498983,0.15924763219121332,0.06615269251931959,0.01887504690909284,0.09053619791507174,-0.0064875320338711176,0.07766873308203276,0.16254585997983775,0.17446243200821054,0.04278493494694446,0.16129796843439156,-0.0011377820519324756,0.15631675212934934,0.11510822203822499,0.055292338774308177,0.17929189325952308,0.11597412773784446,0.17532726014407277,0.146226240488739,0.1701292837101343,0.13921395942584733,0.17331493662672273,-0.007105023732163532,0.07795948898848387,0.047817141036713674,0.03977464522836486,0.16551555753091252,
i302,0.09047156101830671,0.15416383679884196,0.07331999048028308,0.1008736260227167,0.02867422786380104,0.15087505302421667,0.09627761762698263,0.1741988830341226,0.021664174348994567,0.14003765351307076,0.1575860157462447,0.16668019117408087,0.11491397507971136,0.06188446831416896,0.09733675415882656,0.029382811869021485,0.016306393704488397,0.15345352640373233,0.11298985248874262,0.19378572293189297,0.08299038005127295,0.023335575027674752,0.12944527068231815,0.017608125075453798,0.18202466217985447,0.14354521556209543,0.04290050034283251,0.16366719429929427,0.10531007140796977,-0.007311145724216766,0.10820068347791315,0.10806067185098125,0.1472098106844339,0.1758188629660204,0.1512565847826457,0.005052573123191716,0.00278959658986083,0.1328242520138027,0.038303854822082865,0.1817019059746378,0.051674286288847994,0.06783698687604431,0.10545098417480683,0.0005489329083353097,0.11548042865534934,0.14790026731752154,0.15824590339626782,0.13686432208060392,0.09928246148185846,0.03509955864213544,0.18593449732554737,-0.005187468601945437,0.12033191334541983,-0.004546195648902143,0.17033825038402553,0.14596991957541447,0.0987711328791607,0.017403015124747744,0.1270411457261174,0.12943428145363614,0.15784412683380486,0.021183321634444533,0.05508187986667579,-0.002586135000495141,
i79,0.14663789066381208,0.08655718124984893,0.047263681100492595,0.09689471391558019,-0.009782290508020234,0.036266211820627045,0.14915302652072066,0.10541533569979848,0.1679273566167812,0.10642307095365733,0.09536616098105204,0.18679072733082222,0.1746787027134553,0.09309187370387581,0.017538793185442995,0.12595725431977156,0.1676255371670473,0.17819912156353926,-0.0006669928196029209,0.0991362230456014,0.04069866035781075,0.0022145269717798095,0.11390246811608458,0.04043809651020604,0.16021322524960943,0.07757275424164581,0.012104080875316524,0.12515446491275717,0.012136930319380868,0.052153872796947394,0.012052452453996904,0.1505884696260725,0.13286094616973348,0.18582789372252254,0.19096358336585165,0.046373089684225335,0.17398296024174753,0.03849435927378998,0.07805372037855725,0.06722007123575983,0.10325335354742812,0.09267556977618974,0.028009876459460615,0.13010131164742522,-0.00874046498364758,0.0634420288405537,0.05023296639165054,0.18072102172919663,0.10992470745550954,0.1902030626971779,0.13971952172762117,0.011165833663351077,0.025631055042877063,0.15695199238499055,0.011035427832240891,0.07519368778606766,0.09191850418202956,0.052544891213933215,0.06045470244986678,0.15976540561007085,0.1304748560934808,0.052769505644746646,0.17874537932037293,0.12087760753671686,
i78,0.21813559269126145,0.023088757992653076,0.04975654293372639,0.07570903211554827,0.182271719592282,0.05826318423564172,0.08857179921245739,0.08658779930272252,0.16399448191909935,-0.00796808284595949,0.19187994165843666,0.06998130932098204,0.05526251281535081,-0.021254765392694903,0.025101566649735167,0.03868304522283328,0.16049138426447895,0.12160089005249126,0.1560122229727031,0.14284549238779926,-0.0035495200088166757,0.014018115036760417,0.044924409675116454,0.12545062044145328,0.046265700413180864,0.009277423308693722,0.11598277776207472,0.07667446416612252,0.0325796511494546,0.00046587138097028876,0.021747995779260662,0.12930637038279585,0.09483742894725881,0.023985353899429924,0.16190266641258558,0.16619935744682238,0.15805562444066565,0.0477240944197771,-0.005213623743446436,0.01504145967125288,0.14168806736429568,0.13986721635634472,0.07237581161103689,0.053193438527396525,0.08526235007895705,0.18268047106064722,0.10171888786062085,0.1948430400896209,0.009882248348974665,0.2225020343902206,0.004386204354810264,0.10744292012172608,0.07494249278556626,0.007440083293178562,0.1628997364678547,0.027126743776687556,0.12954577212401758,0.07722118865792135,0.04642519624939612,0.04111023347137761,0.03255882546915593,0.1687659204473469,0.17467009175548345,0.14386569141480043,
i87,0.11089581291749362,0.1358114956192671,0.035110510818452095,0.01855118819596588,0.02556467019489782,0.06937653437838197,0.08779028918271829,-0.021626673575104217,0.03464110836040176,0.16885574853831609,0.1019735021241999,-0.008505729133844104,-0.0025003155824387772,0.031556629476381784,0.17194746988196177,0.034589909781259365,0.05819640366782706,0.097923623549179,0.03345380945164537,0.1274889946110658,0.0011121932518857321,0.022571173650229693,0.03258483067293682,0.16583024657861778,0.0211565039615786,0.15480888808015084,0.1673916086490124,0.09581710429683385,0.1776169729628446,0.07580097496127433,0.0972674678420584,0.009490165212409332,0.15281702570744637,-0.004791381701459461,0.08530756431470732,0.16873538259598597,0.030138537846017787,-0.007391708913927767,-0.015914205250991516,0.07068794202811846,0.1645131459340239,0.13865949636921118,0.09603681572052947,0.1314967948065154,0.13829377962326245,0.12863078672300246,0.10589300835704138,0.14900946682716737,0.019555146467870193,0.07101319577148395,0.12271680033341434,0.09509712240276293,0.08301949120382986,0.11013218717314506,0.11378631384420453,0.1493023666934846,0.11694944430412606,0.1800575571666623,0.010982418857104596,0.1752135130531753,0.008014908411503945,0.044490102201194925,0.04953459942890431,-0.01475064197538689,
i252,0.142803376022859,0.19331604480557094,0.08038303020243225,0.07983019788740603,0.13516092598446341,0.02240873118100821,0.18338499868418578,0.19029886762302756,0.06623505465525567,0.08596641180943092,0.0329036619704284,0.20786661737147913,0.15780994008110055,0.04805465809753663,0.18392344669632876,0.046638091328159305,0.03641274288785055,0.1002257171607959,0.17255684705795052,0.12394331235556846,0.19165427607338884,0.046644765454368464,0.09597068485385589,0.018434840412521084,0.030458029525108118,0.01779372757554379,0.19894242014814426,0.013112286573961657,0.10038727248179194,0.14458853090118984,0.18011421925294874,0.012624830834969437,0.0077364193470196504,0.03271410616864734,0.1405156342190467,0.03398581803606342,0.08200131159103421,0.16691280453718774,0.15129599133570365,0.08531704030576913,0.15202204431145033,0.1740397078365044,0.09455715802942904,0.18863779456864208,0.18863251797857095,0.17449637284791517,0.08972383455881905,0.0675226722221582,0.030122563084996973,0.01895222753679354,0.16363174779681827,0.10782982608997514,0.004420658992918522,0.11560925750443397,0.08414735662040188,0.1381535151000355,0.115488052162536,0.06334858720228569,0.15578888268691873,0.0870775401140121,0.20889484697917796,0.10206729366097385,0.03563057558684036,0.11369158420323378,
i253,0.1830243138277189,0.14817699504041784,0.0316052588916572,0.18029374314374516,0.16705232325363817,0.07779563227445911,0.1511386969588718,0.02135779956355113,0.03332319921839488,0.05101170850688089,0.16291178280942054,0.11711108761238094,0.1944693295097592,0.08213724174937548,0.08798851821778637,0.035435463695353706,0.05330241250653539,0.08377641135150087,0.039654936426671894,0.1563557549026775,0.04096919744533068,0.003475209912155013,0.09147632971108256,0.1198675624027814,0.16994648639476298,0.1820405443067299,0.17565185306412073,0.055469200201579805,0.002835476712148756,-0.005195267052121853,0.18778655741419117,0.023804414948959473,0.1624478471182646,0.1782374343697462,0.07706475459645028,0.13064778756160272,0.06566502673921451,0.1494583740136888,0.02135260591226891,0.17980122173700344,0.03480181044913577,0.09176619014651739,0.1954578035776407,-0.003513557910784006,0.10618420742342001,0.13505285680091586,0.16998228310131763,0.19381501027593273,0.1122239387708542,0.19593278376701073,0.18044345712356016,0.11786539476424945,0.17571727528225467,0.019864565654041256,0.05081107205244634,0.08376483137478162,0.018099886073234383,0.01572639854728458,0.07868711847563467,0.0422937233012747,0.15953722734517478,0.01913950931177603,0.03758506242820159,0.16231820121818857,
i212,0.05744388196793622,0.03263079459315696,0.06626814370435916,0.11868130221751508,0.0129824447307122,0.07195994700108839,-0.015539060792528826,0.18721786326963313,0.10899152516765144,0.019689758820700013,0.10910050508127399,0.11368772830241503,0.15244245208619633,0.06805194674076774,-0.0033754318007052264,0.15449376495256606,-0.005468733298532908,0.08316068501159166,0.18570353786465185,0.06728045646309488,0.03864238253522165,0.19356960021344122,0.1115735450277859,0.13034854433268664,0.06420558176619352,0.18982475396613352,0.08793397960204337,0.11592893716804442,0.15439970098888636,0.041779890407996845,0.002073203906977582,0.028724737110362702,0.04108594988273294,0.02528091772431108,0.021894984821111293,0.09533427168025897,0.17307722255869132,0.11964971981489093,0.18045139798967363,0.1594125157754903,0.18197363689955443,0.055110775517089074,0.1874192214777307,0.16485304607612766,0.19388491679328654,0.18673804196860194,0.02253974744931105,-0.010129927925807034,0.1309166275594921,0.09966489348178768,0.0022223145857314455,0.040632032855705484,0.009585488941469805,0.0022162943043841452,-0.007852854200922106,0.11455413421591562,0.09017498709503391,0.02062198235752078,0.033180626591358876,-0.01252635240141555,0.11920836451303786,0.13252977928147425,0.015676761097673915,-0.004577937537161747,
i261,0.12192727283665185,0.16491726949152655,0.03549003708897883,0.1446171346165962,0.019575707693873307,0.02927024544345289,0.08792470097342286,0.09910262748519717,0.14996902505921242,0.1618604877749762,0.03841287552496698,0.1708597753571642,0.1744382448403919,0.15891245523709466,0.1645046861888111,0.038066673919767736,0.025287902661590214,0.14971491544559723,0.02905466666551017,0.20367641817518,0.10102905415391385,0.13944546954839504,0.17214615080798712,0.10466265565312931,0.00840609440724258,0.08206808451663024,0.057338841627460814,0.024424218180608488,0.08428254406582253,0.17908846955550375,0.12700306603135544,0.18026786177205886,0.04982765304412136,0.09576976332027164,0.0250045113624246,0.013804175905736642,0.14624493757892243,0.020896373249877663,0.16699063279540796,0.02393497376193936,0.15887289566296572,0.13546477089978318,0.14760342256295614,0.05329322345051817,0.09681872843075855,0.19808547257931466,0.1725479958775485,0.0725582881030822,0.044202326941248184,0.09495240774068983,0.1792816551045911,0.08986309957319992,0.16621222863371465,0.14626433892521148,0.2032009860335813,0.009615266618336048,0.17694670660350675,0.1276537761963184,0.20698798855360764,0.13168385732844784,0.12436743344007031,0.04742423639266967,0.03950038487823994,0.02739014303092112,
i260,0.18187821885846614,0.026073123630017802,0.04628910557505264,0.06285270401250385,0.18580449919206962,0.17163673744474378,0.11291053576716192,0.06276968435335188,0.12668064679450003,0.046442381830093867,0.07487728042028594,0.06308195817871101,0.09516805707244483,0.01641274447670934,-0.003314738722645774,0.11708351599482006,0.17557627968559134,0.052223629576237045,0.0751390127864623,0.12978644935278535,0.019710498650519288,0.14959638813743092,0.08486221106592415,0.019926698895818863,0.08923575738941882,0.11959601555650534,0.16280350418938272,0.07134975687633405,0.14715917750442417,0.15084631714560928,0.13528273519417355,0.17353347404811417,0.023816546514514064,0.07937051797713732,0.09604661626780264,0.007413899988489918,0.05247611580955535,-0.010500684920952446,0.19199334886615524,0.14952532982650837,0.038752165376581174,0.11344990442980053,0.10248185660310484,0.11448023205436968,0.15509613477900144,0.15837209977299252,0.15367719860252382,0.08583378225763043,0.1860224675804988,0.17791272096634567,0.11618240082103835,0.1556786428281036,-0.0014047675990648853,0.015822630708151514,0.05915056016924988,0.16728637463750462,-0.007813981429675917,0.05923594072101132,0.14805491731895193,0.08944295611529111,0.14430639884390314,0.07052293713914248,0.11834412073843165,0.09972393954029177,
i267,0.0835261752347722,0.012262473089423158,0.11000885475355547,0.1793209318769203,0.043718786696382954,0.029836664711844214,0.006821411730374575,0.08890905604392751,0.18339021103555175,0.08945537928739467,0.12990432792608755,0.13330383266425366,0.1844977207172838,0.12105060360376023,0.024063156910815772,0.19246723750329278,0.015078961031212408,0.04503434429761318,0.10654975336796652,0.17717981933711477,0.11786688696837239,0.021236800396741345,0.0608825323784318,0.11470883272695552,0.18976403648451945,0.17019953119271408,0.07503207322189315,0.07128578560280671,0.09509345731783075,0.16942040538756967,0.1799308838283091,0.05887229999381174,0.10194832453627502,0.11239488263632097,0.03492257903277918,0.13330984982401572,0.15771528439461513,0.2091778723336716,0.028118344785016753,0.0938534600609203,0.050932307810491344,0.18617254067391575,0.007538198019792062,0.20479688537784516,0.008361890539858332,0.16883030316188566,0.12961712091603436,0.05295582176254784,0.1506351288688534,0.14478417825207698,0.17493877858119047,0.16934014315540447,0.1412663350600802,0.04504888656464845,0.15453585242174103,0.11049035217813502,0.10047703993089858,0.12741566974732835,0.13987216183855558,0.14555908710419327,0.153274717992075,0.13106286918511695,0.035847356781573275,0.09288947783500501,
i265,0.0845920560784993,0.16743641225728068,0.05942613617695345,0.2114430689605982,0.08924326138258377,0.1806533440414808,0.05041349466868276,0.008151078981008425,0.15151679650000788,0.22763519595822929,0.04658098993886257,0.04137090362441666,0.13598087418507232,0.04160874411378238,0.084249938589023,0.04678851633780114,0.13693178049434343,0.06875794512027879,0.1822965949771142,0.14830889735609765,0.08248298736332142,0.01078139572364725,0.013827440725492296,0.17884392286890266,0.030313458602391045,0.09801682283419817,0.03681134693012558,0.1818567675704781,0.026263231380407825,0.12119353844945624,0.22407413937034978,0.0730772447528729,0.11948596855375393,0.17600044778387255,0.16191788808534552,0.1139287077314082,0.0005270351686970489,0.10555309103233868,0.22374170781338176,0.10539745894640982,0.014744074046283607,0.0007149996908933321,0.1543774678474903,0.015266907746360381,0.15686171802530027,0.05864423850030092,0.04321399834966968,0.01127410841033799,0.1916657285287715,0.09728555866950518,0.0016143921538031181,0.17217064922892839,0.23664205259689367,0.09666254019641536,0.04077414265891272,0.10546832330211488,0.053724297349604135,0.027430997758928148,0.014101946970635632,0.1287310853370734,0.23777125049434422,0.08108590893935143,0.10494954114423778,0.01050016878367732,
i264,0.09564154433144871,0.14172416578148828,0.14488860328543895,0.024147458483584863,0.017894421116727847,0.1562271176170367,0.15416810005937526,0.08221772583620479,0.04383510814603164,0.13176896194215307,0.13363455349227224,0.011773843907509173,0.05030484371360264,0.11789653986667449,0.18704968716081397,0.17027522638861334,0.16311017377202935,0.16798729690657352,0.0013229161067007211,0.0033494777512799857,0.06272026434708101,0.05402668186515747,0.0775191431001682,0.0015260470353812793,0.1915059285707157,0.06180379245722283,0.2044472386452199,0.03949210536264073,0.1827239814317707,0.03225598854926912,0.09128356638171588,0.08355982973746355,0.06873863512228784,0.13127473320955374,0.08210063205658344,-0.012370403721099935,0.08982770181235622,0.1722287896002425,0.17633890928342463,0.10209636543919988,0.21131357928031166,0.006575262013147875,0.03699413105693949,0.0883974686440452,0.1807693642015557,-0.007811666022326882,0.0644994563867631,0.027617665424671808,0.1321315838846083,0.10220719335079906,0.2028899200249296,0.014417787941759796,0.1663655726235617,0.02530426239727054,0.13226645997531097,0.10490990589733319,0.1013217484829217,0.11843530206564158,0.022173898393372398,0.10633802162259916,0.05087345127481751,0.16957317673852765,0.07443291740688204,0.08150445860766156,
i269,0.07288797669677119,0.18423981656630006,0.08700547711993888,0.13003245745715464,0.06388107247888558,0.19861323764755176,0.15192673475483148,0.016565605622701613,0.02299327978847206,0.0070569602543718545,0.050682919078326,0.010916636674396683,0.10892565378412504,0.11578310847519574,0.12863248274061945,0.08712401514120657,0.033957950360796525,0.17594899135299708,0.16758168126016115,0.09476703581758102,0.015237848773022976,0.09771293163735835,0.23041202847803854,0.2353692372653845,0.1650291148698186,0.2014507054955489,0.04221159869887273,0.09910546045553917,0.15451639002577947,0.19847117284323001,0.06908348983337989,0.09997052034453803,0.18190991836861134,0.059336914746788885,0.11488596832708052,0.03227659264343411,0.09317558223141902,0.2016831901850743,0.0029527411708380733,0.05087924927882527,0.05619215550007052,0.02004992073971218,0.1880750127304549,0.14955706250594125,0.05239975910022131,0.07629797095878726,0.1937316777109855,0.18537955573609738,0.10606169068383495,0.06668008807597818,0.21054791063829442,0.16661416351947256,0.04968418383635263,0.011116962420808871,0.1737940414773765,0.057803167407416055,0.08636064790472553,0.01819970642845987,0.008188314395687232,0.09133334002931684,0.07195686715665249,0.05524870901507269,0.2320352277894411,0.03329750964395689,
i268,0.014686283327124783,0.16094444248073528,0.022968050105043464,0.08360810557567284,0.0026000647564535686,0.09538144879829584,0.12265307288373395,0.10393023357471733,0.1827632011205578,0.011087897885772146,0.04843202787136902,0.06285892343174786,0.017913898245663234,0.17569856020312932,0.1722425954917148,0.07036787834201925,0.1611467120175306,0.1510017848138238,0.11913346777858234,0.10985065978342273,0.19481117460656605,0.06644600541540675,0.1620464719450224,0.1770440404205994,0.09745448488033567,0.10464910030038561,0.010879499136899578,0.20193592946393876,0.12800422875959705,0.05643357134276799,0.1379427815580482,0.07637167223816499,0.19415783491290767,0.1625452200084508,0.07370999064428992,0.08035758838693638,0.016560765804948526,0.19353468859250167,0.0428484465860143,0.19867547399533123,0.14182476092615365,0.19170987409824466,0.1102543092805498,0.08314879612727058,0.12378597966313216,0.19581178440153865,0.08960366519175829,0.06358559159679426,0.17698548536243888,0.16214454389838628,0.011554753335425811,0.043460369817758575,0.15022665928675769,0.040835763232466515,0.15835122606602714,0.19938350747774677,0.1400569746691539,0.038775882947101666,0.09697366115434211,0.16635624973102756,0.06871313179266286,0.006653128564985394,0.07666645749358159,0.1323653406347722,
i350,0.0002934424179563903,0.07328580691511274,0.03841360392239511,-0.0017748434207652708,0.06587340104313325,0.12394187022445967,0.17390536321389347,0.17588166335986036,0.001399408426913242,0.1169535255872222,0.12195737138071572,0.09488990574884236,0.045847520405147155,0.18509382826920218,0.043088513380640805,0.1438889332314454,0.1265331965040381,0.16650591962862246,0.04202274898213396,0.04367593528340576,0.10823304384224514,0.15706226987555277,0.03716384024586099,0.0797695216450542,0.08016715852576665,0.0010801135198065211,0.12602961079390895,0.04435874967782592,0.04949870911628243,0.022718501307329674,0.19034138870457973,0.19165767909991788,-0.007686193564031706,0.09873754695086669,0.14245416718669207,0.1490244101966709,0.13249984818025115,0.17371353062924574,0.15935854834099764,0.025132963867905745,0.13990546945554022,0.02153410958235784,-0.00435261759309426,0.14654623874393957,0.034231717318617204,0.04589288924847379,0.18517450606694585,0.17600296053886272,0.14968765779518187,0.00552596459205886,0.16052118544452973,0.01792716177077711,0.14141889004712913,0.11051094997745152,0.15620000796465822,0.0443169113501603,0.001795461687944637,0.16161742581617883,0.13381881859299818,0.055562149421855805,0.11587689964421671,0.14865048017038912,0.17200029771075162,0.19279532406544012,
i332,0.1103588111047061,0.08999606503708107,0.20029280804351626,0.1777932303812475,0.02887687554640464,0.022122876499170985,0.1516623513300232,0.12361641162196252,0.09839129254617893,0.064683453115344,0.17023561916999363,0.15050326598571265,0.02414587060517626,0.07187448902016837,0.13708058224789565,0.13687522882262648,0.18747675816140535,0.16880579186718622,0.011784237219675916,0.010817590810578948,0.1706118354325476,0.16932074747869333,0.012375248297891356,0.16802147335333012,0.020960383319269915,0.09622427978291019,0.00916851952733189,0.09952523310900366,0.029345662794544442,0.11343942390166463,0.10181365678473274,0.1701339288096266,0.1758224207020044,0.1517796818493417,0.03950102272565094,0.10555841485192206,0.14461497757474073,-0.005711783442494654,0.16623961454468705,0.0900941600386982,0.07452105632159958,0.18085438970677045,0.045314755534617265,0.08710052172694169,0.12097473967211067,-0.010310740723399483,0.16879275047269224,0.009309327160299193,0.11447337227997545,0.021455411554652547,0.10832851280635275,0.0024947493108339234,0.011743866284017194,0.14499567285758372,0.08551775676868038,0.07844318197082631,0.07852799977561904,0.10782327374720738,0.13049268563538557,0.1257984201819643,0.0859602888525283,0.16145206275995563,0.006697378886760318,-0.009315209586743952,
i6,0.1465631568912553,0.16332703082563907,0.03378256393299698,0.2219516296954964,0.13560175067560226,0.07815652319953997,0.032734291677673215,0.12367138181466943,0.013654047003445972,-0.0007541746922305777,0.16622335271104538,0.02422085172603865,0.1502286952527253,0.20178986116970343,0.03237683112701883,-0.006883947827910846,0.01622549388914012,0.04667828617295229,0.11332141278315885,0.009325508033250631,0.0439660305268342,-0.0015040147674101293,0.035862995429530066,0.042055270683100054,0.06144290363434202,0.0827749859451699,0.15414843798886257,0.10479270344026184,0.1018515424776156,0.09355538794966765,0.12188418176383332,0.14601242021620642,0.06768790954538971,0.19690083969029584,0.21357406763993286,0.0052443056398183245,0.13818759547289672,0.18020427892314303,0.017703786193140673,0.12287362943682888,0.13713040199573784,0.12081593360840137,0.1668241699665366,0.0710678862828941,0.042248081834024474,0.2153275073774878,0.16449448198815864,0.09577111453996891,0.03173924289048338,0.03354448262435662,0.1990668425625375,0.16327218091349113,0.08743230469835055,0.16436690950132007,0.1962383204484234,0.05072014036280655,0.007547166399752897,0.11438246716790272,0.02286319657472168,0.0628813990098514,0.1637645714914834,0.027560011082441233,-0.0044186812823634744,0.2013225615860608,
i92,0.029380310634980665,0.09475094773860564,0.13007055488247676,0.1859463042007843,0.09928575150150833,-0.00734973319012629,0.14061205759529516,0.1361472355330631,0.09379444033281226,0.1399654951892343,0.05103705746320285,0.1114135962871098,0.06041754656866134,0.039052762725429034,0.18892161187346238,0.1194506849369294,0.15080331029170124,0.05863605435679467,-0.009647301974695158,0.15145207676755137,0.15953719223933369,0.11271812802476067,-0.007970899240947604,0.027753518906977227,0.18267758539886975,0.09125996899134417,0.047625210865862,0.16000388811316477,0.07749614693168508,0.1589229802525354,0.13642129918226176,0.18779971565282083,0.049479065993714696,0.16437169263613302,0.10220501563498922,0.039262105759753106,0.042153485922992874,0.019970617150719936,-0.010648246465847088,0.057669622611988484,0.040402589580912335,0.015807669813844683,0.15808606939301048,0.13463044644521951,0.0745938708473691,0.096237044651518,0.006537867002682597,0.034495790699243446,0.08065347663960655,0.1337430667859157,0.10698222205616664,0.11277399011124853,-0.006995458187919472,0.04157993146027698,0.08066049582941223,0.12660712759816706,0.021291259028827902,0.15012500666380788,0.14976918908423598,0.11735371841018756,0.1834549833327737,0.17274253634318337,0.015290274612781185,0.010562040103206051,
i322,0.09861468640848148,0.07381141824414632,0.11590566987350984,0.032793709750281536,0.09774936832215683,0.081310759859389,0.08442522139234925,0.20611275538790838,5.908755456815534e-05,0.06562167426552946,0.1286699706707175,0.05774627674946848,0.031051490739371697,0.15834215473216234,0.17281197082291921,0.02278566111345225,0.06373024125690982,0.04527908317786529,0.03741545180839493,0.0004503146809198996,0.13132893412343427,0.20449563569466736,0.05620113127423952,0.04171137829796864,0.09697126695919013,-0.007501744148000159,0.08406067514821913,0.006283618591500753,0.18190580090690303,0.2090323998630444,0.003567416046445257,0.17456338488811418,0.10076056365938418,0.16873266905903475,0.16456372954364765,0.13891125574058327,0.17431333225287582,0.18491496421195722,0.12994532955652416,0.10903376778166299,0.027441759529514123,0.15529179045535874,0.04101201402757385,0.10080266197759097,0.1529082827299527,0.1622985596770419,0.02883825426090466,0.1916467692450309,0.1518739703149289,0.1438398786001736,0.16587940706106746,0.06696232116433315,0.02847756437183004,0.08727956767721361,0.12089224887621143,0.10316654663399674,0.09557414660374312,0.13583204211556707,0.1409644757627779,0.030944532765384836,0.12956257601278073,0.10041837969457201,-0.004348738998108816,0.2018497149828226,
i323,0.08327934421690174,0.09527784455819596,0.14749117221813132,0.04232384525316337,0.13561754541872817,0.016363412794337326,0.17345865089121376,0.09534838272295486,0.02360946350555457,0.04228845943236494,0.05019313391750801,0.1368617499337926,0.16870068777926062,0.16734739757326517,0.08706420805049019,0.12214425794128692,0.1956643741452884,0.038739107331238753,0.0749425516651386,0.12206800492283572,0.18414046857563293,0.1384779611415163,-0.0007905906104146305,0.05371214259554066,0.08767282564019191,0.044034854069611586,0.08218177547489615,0.16862049567260462,0.14807701425640804,0.06785918010983773,0.15670141571611287,0.06406022232314257,0.153695874463526,0.1086804266236044,0.1015907875035792,0.009029757197124285,0.00861526396724522,0.10119693128776255,0.013853049773892722,0.17314749375476723,0.0004032901475790671,-0.009119855212368348,0.06720659723305761,0.19272098773987048,0.13233872833660645,0.12335148834677633,0.039329777394515396,0.13377405295390032,0.01651051994517506,0.14856729477151495,0.08967884750098562,0.14352786927627145,0.054819045949173355,0.06345640426790593,0.18135971830057454,-0.0018695542958935543,0.153222099665526,0.1971998392376355,0.1854964261990936,0.1956820962743308,0.11190166985257975,0.15015281114585827,0.10059719879426567,0.013930494375853869,
i320,0.18715500796795448,0.14458343625437847,0.07009270748251496,0.09316979843501935,0.08420304245196779,0.17988341109641762,0.022214638103998357,0.15792398816315226,0.1925312719737899,0.1898124184033868,0.10176247383133119,0.06597142078983328,0.1407969389097857,0.05618987072593975,0.12837330327751129,0.17128639804597373,0.002492958505333404,0.13416442156920622,0.21003490973072653,0.02349119364814847,0.07117933591818312,0.10244874364590299,0.05549826425792769,0.12563702055650752,0.15910167916027032,0.11116009174560151,0.14993489268193166,0.11383684454994522,0.15357093324352805,0.16062388105646525,0.09038453548185361,0.01806900324081304,0.09093681028721724,0.1068519833983453,0.13982613227347154,0.093365231032656,0.06808305385086577,0.08062143869233947,0.1868914300837341,0.14951436188750272,0.060905440427769415,0.10847796335044127,0.15631173996096118,0.17544619556636457,0.10719036613026668,0.17312994041258986,0.0021256473834756168,-0.0021136364448763457,0.03443501502936842,0.040629001077070626,0.13434681772191004,0.09369184019764314,0.10664482976470226,0.06727491740163996,0.1816116891666796,0.13511804049288242,0.1647226929799066,0.015759173406932545,0.07462232534812352,0.06303946261318746,0.06793865808655725,0.004631120543296376,0.05169567013477967,-0.004436437188166213,
i321,0.17543772370299593,0.1078840277008911,0.0022768339075018625,0.04529428343723469,0.17654053137814338,0.14932855383159613,0.13548487325095077,0.03443974224603517,0.17684217568124486,0.10498034906555094,0.05458549220468986,0.19523671222151992,0.12044612014062066,0.11504943189180838,0.17063544604423242,0.06578857267848472,0.1307479153158885,0.020317112255155693,0.06844431107541715,0.005239629507008566,0.07601955797287788,0.12955851163148863,0.1369866594478807,0.14974992595617773,0.003393090791181304,0.056105853701498065,0.020973717838452866,0.06261277197838623,0.12281558305328764,0.07679539158591701,0.12812148774120577,0.01960147143315309,0.03415486475116184,0.05280559630194818,0.2037297155392499,0.18184389620778096,0.18095549720526957,0.11109889427179537,0.03988890418050021,0.07695298268155415,0.13200050882405173,0.1333263146633709,0.09802085364287463,0.18645753530122505,0.1249832823642627,0.09610943995013183,0.03671530666349306,0.20070112773547796,0.16190889915609244,0.009652370454688685,0.08446524205983658,0.1364014824117866,0.15657233393818148,0.011018343475545669,0.05456105920672765,0.10042895805908653,0.186776652618574,0.18894567816680166,0.04090939867854086,0.0539751853946594,0.09339669312159206,0.09727659917653973,0.19980668842260513,0.18707259353056824,
i327,0.08859077413713629,0.17978329992934342,0.10325676342380842,0.18665348954344346,0.11519105780288026,0.09277528018696429,0.12011244511471544,0.028702747020046743,0.1887252595827942,0.16360740307651958,0.050450825373631644,0.1689373678643629,0.1399130398587372,0.11596767128365229,0.047720075317531856,0.09247230982923825,0.14207950101491845,0.1590242867971492,0.13474244063515242,0.18491706295871518,0.10267457174072414,0.09837947967812499,0.09804200655925803,0.01425461716539026,0.029851840033424754,0.15147546593832872,0.18820726187213943,0.11063482368263093,0.15679819367640901,0.009190996677023801,0.16232526624016594,0.07866275969882143,0.12126357501031704,0.02149921459483268,0.15381413842446712,0.18408596971042884,0.04454947543231845,0.13359241183028214,0.16264124291669596,0.17774655493388483,0.14685524154960708,0.01244290340326646,0.05353644610382947,0.17966666099134945,0.17366857491649523,0.015297285024827117,0.07462617405502887,0.10079697924914088,0.08451011660348154,0.18567556729958903,0.12586118586757045,0.15496353014306444,0.1592983113493275,0.07772671412064096,0.06449388555439563,0.03340468795939687,0.05749766795097793,0.08636156532980954,0.005576848151233638,0.07446398972004514,0.05993428282938804,0.15009573249393426,0.034794939080794875,0.09545268874492822,
i325,0.1267876148437434,0.07138731547315474,0.14254326270535414,0.19600625888955436,0.20747363171943137,0.12526761068776437,0.03685666453581644,0.20558364946966567,0.07010633183803472,0.16555893266389135,0.0025158193601250794,0.2072473604119065,0.15635330573522643,0.04385277268180197,0.13706343613668273,0.0945815320058443,0.10067602938450416,0.033890378753654464,0.17545706666070196,0.19937606420779938,0.05929762515842817,0.07933089852678137,0.04311075586063248,0.11187402249981263,0.13924938970884906,0.14556943213837645,0.09954841699462735,0.1658326315127527,0.051253435807733,0.10834416835447362,0.13837874484826174,0.0485384252945473,0.023948402756674116,0.00873175617592898,0.07005497753532726,0.06469693536154408,0.11811944785586023,0.14107257660560768,0.1725649866320355,0.02370148493336016,0.08647497537557955,0.13836146665110605,0.2049047570281146,-0.009730038496035522,0.1965163500769284,0.11406273865793551,0.04325495119545417,-0.001745033476753842,0.16338723254244855,0.08637473480684367,0.052637010629574904,0.060842824157666967,0.026644171241151683,0.15026511787816993,0.11608576488450564,0.19973880585092096,0.0959335984733827,0.01547668015918548,-0.004871885123037004,0.01573949311807741,0.09256913963618241,0.0006872519317070397,0.024685484492723755,0.10997813534218001,
